{"learner":{"attributes":{"scikit_learn":"{\"_estimator_type\": \"classifier\"}"},"feature_names":[],"feature_types":[],"gradient_booster":{"model":{"cats":{"enc":[],"feature_segments":[],"sorted_idx":[]},"gbtree_model_param":{"num_parallel_tree":"1","num_trees":"1400"},"iteration_indptr":[0,14,28,42,56,70,84,98,112,126,140,154,168,182,196,210,224,238,252,266,280,294,308,322,336,350,364,378,392,406,420,434,448,462,476,490,504,518,532,546,560,574,588,602,616,630,644,658,672,686,700,714,728,742,756,770,784,798,812,826,840,854,868,882,896,910,924,938,952,966,980,994,1008,1022,1036,1050,1064,1078,1092,1106,1120,1134,1148,1162,1176,1190,1204,1218,1232,1246,1260,1274,1288,1302,1316,1330,1344,1358,1372,1386,1400],"tree_info":[0,1,2,3,4,5,6,7,8,9,10,11,12,13,0,1,2,3,4,5,6,7,8,9,10,11,12,13,0,1,2,3,4,5,6,7,8,9,10,11,12,13,0,1,2,3,4,5,6,7,8,9,10,11,12,13,0,1,2,3,4,5,6,7,8,9,10,11,12,13,0,1,2,3,4,5,6,7,8,9,10,11,12,13,0,1,2,3,4,5,6,7,8,9,10,11,12,13,0,1,2,3,4,5,6,7,8,9,10,11,12,13,0,1,2,3,4,5,6,7,8,9,10,11,12,13,0,1,2,3,4,5,6,7,8,9,10,11,12,13,0,1,2,3,4,5,6,7,8,9,10,11,12,13,0,1,2,3,4,5,6,7,8,9,10,11,12,13,0,1,2,3,4,5,6,7,8,9,10,11,12,13,0,1,2,3,4,5,6,7,8,9,10,11,12,13,0,1,2,3,4,5,6,7,8,9,10,11,12,13,0,1,2,3,4,5,6,7,8,9,10,11,12,13,0,1,2,3,4,5,6,7,8,9,10,11,12,13,0,1,2,3,4,5,6,7,8,9,10,11,12,13,0,1,2,3,4,5,6,7,8,9,10,11,12,13,0,1,2,3,4,5,6,7,8,9,10,11,12,13,0,1,2,3,4,5,6,7,8,9,10,11,12,13,0,1,2,3,4,5,6,7,8,9,10,11,12,13,0,1,2,3,4,5,6,7,8,9,10,11,12,13,0,1,2,3,4,5,6,7,8,9,10,11,12,13,0,1,2,3,4,5,6,7,8,9,10,11,12,13,0,1,2,3,4,5,6,7,8,9,10,11,12,13,0,1,2,3,4,5,6,7,8,9,10,11,12,13,0,1,2,3,4,5,6,7,8,9,10,11,12,13,0,1,2,3,4,5,6,7,8,9,10,11,12,13,0,1,2,3,4,5,6,7,8,9,10,11,12,13,0,1,2,3,4,5,6,7,8,9,10,11,12,13,0,1,2,3,4,5,6,7,8,9,10,11,12,13,0,1,2,3,4,5,6,7,8,9,10,11,12,13,0,1,2,3,4,5,6,7,8,9,10,11,12,13,0,1,2,3,4,5,6,7,8,9,10,11,12,13,0,1,2,3,4,5,6,7,8,9,10,11,12,13,0,1,2,3,4,5,6,7,8,9,10,11,12,13,0,1,2,3,4,5,6,7,8,9,10,11,12,13,0,1,2,3,4,5,6,7,8,9,10,11,12,13,0,1,2,3,4,5,6,7,8,9,10,11,12,13,0,1,2,3,4,5,6,7,8,9,10,11,12,13,0,1,2,3,4,5,6,7,8,9,10,11,12,13,0,1,2,3,4,5,6,7,8,9,10,11,12,13,0,1,2,3,4,5,6,7,8,9,10,11,12,13,0,1,2,3,4,5,6,7,8,9,10,11,12,13,0,1,2,3,4,5,6,7,8,9,10,11,12,13,0,1,2,3,4,5,6,7,8,9,10,11,12,13,0,1,2,3,4,5,6,7,8,9,10,11,12,13,0,1,2,3,4,5,6,7,8,9,10,11,12,13,0,1,2,3,4,5,6,7,8,9,10,11,12,13,0,1,2,3,4,5,6,7,8,9,10,11,12,13,0,1,2,3,4,5,6,7,8,9,10,11,12,13,0,1,2,3,4,5,6,7,8,9,10,11,12,13,0,1,2,3,4,5,6,7,8,9,10,11,12,13,0,1,2,3,4,5,6,7,8,9,10,11,12,13,0,1,2,3,4,5,6,7,8,9,10,11,12,13,0,1,2,3,4,5,6,7,8,9,10,11,12,13,0,1,2,3,4,5,6,7,8,9,10,11,12,13,0,1,2,3,4,5,6,7,8,9,10,11,12,13,0,1,2,3,4,5,6,7,8,9,10,11,12,13,0,1,2,3,4,5,6,7,8,9,10,11,12,13,0,1,2,3,4,5,6,7,8,9,10,11,12,13,0,1,2,3,4,5,6,7,8,9,10,11,12,13,0,1,2,3,4,5,6,7,8,9,10,11,12,13,0,1,2,3,4,5,6,7,8,9,10,11,12,13,0,1,2,3,4,5,6,7,8,9,10,11,12,13,0,1,2,3,4,5,6,7,8,9,10,11,12,13,0,1,2,3,4,5,6,7,8,9,10,11,12,13,0,1,2,3,4,5,6,7,8,9,10,11,12,13,0,1,2,3,4,5,6,7,8,9,10,11,12,13,0,1,2,3,4,5,6,7,8,9,10,11,12,13,0,1,2,3,4,5,6,7,8,9,10,11,12,13,0,1,2,3,4,5,6,7,8,9,10,11,12,13,0,1,2,3,4,5,6,7,8,9,10,11,12,13,0,1,2,3,4,5,6,7,8,9,10,11,12,13,0,1,2,3,4,5,6,7,8,9,10,11,12,13,0,1,2,3,4,5,6,7,8,9,10,11,12,13,0,1,2,3,4,5,6,7,8,9,10,11,12,13,0,1,2,3,4,5,6,7,8,9,10,11,12,13,0,1,2,3,4,5,6,7,8,9,10,11,12,13,0,1,2,3,4,5,6,7,8,9,10,11,12,13,0,1,2,3,4,5,6,7,8,9,10,11,12,13,0,1,2,3,4,5,6,7,8,9,10,11,12,13,0,1,2,3,4,5,6,7,8,9,10,11,12,13,0,1,2,3,4,5,6,7,8,9,10,11,12,13,0,1,2,3,4,5,6,7,8,9,10,11,12,13,0,1,2,3,4,5,6,7,8,9,10,11,12,13,0,1,2,3,4,5,6,7,8,9,10,11,12,13,0,1,2,3,4,5,6,7,8,9,10,11,12,13,0,1,2,3,4,5,6,7,8,9,10,11,12,13,0,1,2,3,4,5,6,7,8,9,10,11,12,13,0,1,2,3,4,5,6,7,8,9,10,11,12,13,0,1,2,3,4,5,6,7,8,9,10,11,12,13,0,1,2,3,4,5,6,7,8,9,10,11,12,13,0,1,2,3,4,5,6,7,8,9,10,11,12,13,0,1,2,3,4,5,6,7,8,9,10,11,12,13,0,1,2,3,4,5,6,7,8,9,10,11,12,13,0,1,2,3,4,5,6,7,8,9,10,11,12,13,0,1,2,3,4,5,6,7,8,9,10,11,12,13,0,1,2,3,4,5,6,7,8,9,10,11,12,13],"trees":[{"base_weights":[-1.7837895E-4,-4.7373317E-2,3.1007144E-1,-2.6442078E-1,6.26778E-1,2.500831E-1,-4.404085E-2,1.547642E0,1.4902091E-1,7.214551E-2,-2.817589E-2,2.1829681E-1,3.1700325E-3,2.531534E-1,-3.7188698E-2],"categories":[],"categories_nodes":[],"categories_segments":[],"categories_sizes":[],"default_left":[0,0,0,0,0,0,0,0,0,0,0,0,0,0,0],"id":0,"left_children":[1,-1,3,5,7,9,-1,11,13,-1,-1,-1,-1,-1,-1],"loss_changes":[6.7435374E0,0E0,5.211359E0,1.0661538E0,7.7646737E0,1.037802E0,0E0,5.807046E0,1.7164665E1,0E0,0E0,0E0,0E0,0E0,0E0],"parents":[2147483647,0,0,2,2,3,3,4,4,5,5,7,7,8,8],"right_children":[2,-1,4,6,8,10,-1,12,14,-1,-1,-1,-1,-1,-1],"split_conditions":[1E0,-4.7373317E-2,-5.91E2,0E0,-5.9222332E1,2E0,-4.404085E-2,2E0,2.5E1,7.214551E-2,-2.817589E-2,2.1829681E-1,3.1700325E-3,2.531534E-1,-3.7188698E-2],"split_indices":[17,0,37,11,0,22,0,15,8,0,0,0,0,0,0],"split_type":[0,0,0,0,0,0,0,0,0,0,0,0,0,0,0],"sum_hessian":[4.3899494E1,1.716796E1,2.6731533E1,9.558292E0,1.717324E1,2.3288436E0,7.229449E0,5.1012764E0,1.2071964E1,1.0456033E0,1.2832403E0,3.2846727E0,1.8166035E0,1.47335E0,1.0598615E1],"tree_param":{"num_deleted":"0","num_feature":"38","num_nodes":"15","size_leaf_vector":"1"}},{"base_weights":[6.590601E-6,-6.697493E-2,4.3027297E-1,6.525608E-1,-6.439885E-1,9.611862E-1,1.4101538E-1,1.1128667E-2,-6.469418E-2,1.12061314E-1,7.853659E-2,3.3453636E-2,-1.8287687E-2],"categories":[],"categories_nodes":[],"categories_segments":[],"categories_sizes":[],"default_left":[0,0,0,0,0,0,0,0,0,0,0,0,0],"id":1,"left_children":[1,-1,3,5,7,9,11,-1,-1,-1,-1,-1,-1],"loss_changes":[9.08562E2,0E0,4.5881677E2,2.510462E2,8.072357E-1,2.6930359E1,3.7660286E1,0E0,0E0,0E0,0E0,0E0,0E0],"parents":[2147483647,0,0,2,2,3,3,4,4,5,5,6,6],"right_children":[2,-1,4,6,8,10,12,-1,-1,-1,-1,-1,-1],"split_conditions":[1E0,-6.697493E-2,1E0,1E0,8E-2,-1.8E1,5.4731857E1,1.1128667E-2,-6.469418E-2,1.12061314E-1,7.853659E-2,3.3453636E-2,-1.8287687E-2],"split_indices":[17,0,35,16,6,36,0,0,0,0,0,0,0],"split_type":[0,0,0,0,0,0,0,0,0,0,0,0,0],"sum_hessian":[3.1508306E3,1.2322086E3,1.918622E3,1.5900077E3,3.2861423E2,9.91149E2,5.9885864E2,1.1370734E0,3.2747714E2,5.169894E2,4.741596E2,3.748552E2,2.2400346E2],"tree_param":{"num_deleted":"0","num_feature":"38","num_nodes":"13","size_leaf_vector":"1"}},{"base_weights":[-6.7925953E-6,-5.181814E-2,2.4502711E0,5.4394026E0,3.0207804E-1,5.670273E0,1.0916951E0,-5.0688423E-2,1.9474909E0,5.890181E-1,1.6306707E-1,1.6636063E-1,1.2566308E-2,4.3643966E-1,1.4769345E-2],"categories":[],"categories_nodes":[],"categories_segments":[],"categories_sizes":[],"default_left":[0,0,0,0,0,0,0,0,0,0,0,0,0,0,0],"id":2,"left_children":[1,-1,3,5,7,9,11,-1,13,-1,-1,-1,-1,-1,-1],"loss_changes":[7.556888E2,0E0,6.654952E2,3.73584E1,8.286181E1,2.6781128E1,1.6838207E0,0E0,8.8443306E1,0E0,0E0,0E0,0E0,0E0,0E0],"parents":[2147483647,0,0,2,2,3,3,4,4,5,5,6,6,8,8],"right_children":[2,-1,4,6,8,10,12,-1,14,-1,-1,-1,-1,-1,-1],"split_conditions":[1E0,-5.181814E-2,1E0,1.318E3,1E0,4.6733826E2,2.1187984E1,-5.0688423E-2,-3.9841E1,5.890181E-1,1.6306707E-1,1.6636063E-1,1.2566308E-2,4.3643966E-1,1.4769345E-2],"split_indices":[35,0,16,37,17,1,0,0,0,0,0,0,0,0,0],"split_type":[0,0,0,0,0,0,0,0,0,0,0,0,0,0,0],"sum_hessian":[5.931844E2,4.902887E2,1.0289569E2,4.2385605E1,6.051009E1,3.995949E1,2.4261122E0,4.1029835E1,1.9480253E1,3.7462025E1,2.4974682E0,1.0703435E0,1.3557684E0,7.7064734E0,1.1773779E1],"tree_param":{"num_deleted":"0","num_feature":"38","num_nodes":"15","size_leaf_vector":"1"}},{"base_weights":[-1.2552965E-4,-4.816761E-2,3.0723146E-1,1.0739107E0,1.9472702E-1,-3.0416626E-2,1.8262765E0,-6.914137E-2,4.272282E-1,2.6387548E-1,1.9602342E-2,-3.927928E-2,9.216394E-2,-1.1521314E-2,1.145816E-1],"categories":[],"categories_nodes":[],"categories_segments":[],"categories_sizes":[],"default_left":[0,0,0,0,0,0,0,0,0,0,0,0,0,0,0],"id":3,"left_children":[1,-1,3,5,7,-1,9,11,13,-1,-1,-1,-1,-1,-1],"loss_changes":[9.44058E0,0E0,3.149151E0,5.491499E0,2.1874275E0,0E0,3.7507572E0,5.921147E0,7.474692E0,0E0,0E0,0E0,0E0,0E0,0E0],"parents":[2147483647,0,0,2,2,3,3,4,4,6,6,7,7,8,8],"right_children":[2,-1,4,6,8,-1,10,12,14,-1,-1,-1,-1,-1,-1],"split_conditions":[1E0,-4.816761E-2,-1E0,1E0,1.7834684E1,-3.0416626E-2,2E0,1.461E3,6.2E1,2.6387548E-1,1.9602342E-2,-3.927928E-2,9.216394E-2,-1.1521314E-2,1.145816E-1],"split_indices":[16,0,11,15,1,0,15,37,7,0,0,0,0,0,0],"split_type":[0,0,0,0,0,0,0,0,0,0,0,0,0,0,0],"sum_hessian":[6.178444E1,2.3850147E1,3.793429E1,3.7607274E0,3.4173565E1,1.5384793E0,2.222248E0,1.6336124E1,1.7837442E1,1.0702466E0,1.1520015E0,1.2768636E1,3.5674884E0,1.0643007E1,7.194435E0],"tree_param":{"num_deleted":"0","num_feature":"38","num_nodes":"15","size_leaf_vector":"1"}},{"base_weights":[-6.449327E-5,2.4103715E0,-1.06968164E-1,4.8046404E-1,-3.4835096E-2,6.366663E-1,-1.5839192E-1,-4.1405927E-2,2.501986E-1,-3.6347806E-1,2.1134603E-3,2.333526E-2,-4.012641E-2,1.1788002E-2,-4.6237413E-2],"categories":[],"categories_nodes":[],"categories_segments":[],"categories_sizes":[],"default_left":[0,0,0,0,0,0,0,0,0,0,0,0,0,0,0],"id":4,"left_children":[1,3,5,-1,-1,7,9,-1,-1,11,13,-1,-1,-1,-1],"loss_changes":[3.0202171E1,3.4549908E1,4.392498E0,0E0,0E0,1.5653287E1,3.482445E0,0E0,0E0,1.1409874E0,3.2984753E0,0E0,0E0,0E0,0E0],"parents":[2147483647,0,0,1,1,2,2,5,5,6,6,9,9,10,10],"right_children":[2,4,6,-1,-1,8,10,-1,-1,12,14,-1,-1,-1,-1],"split_conditions":[1.2E-1,4E-1,2E-1,4.8046404E-1,-3.4835096E-2,1.08E2,6E-1,-4.1405927E-2,2.501986E-1,-1.88E2,1E0,2.333526E-2,-4.012641E-2,1.1788002E-2,-4.6237413E-2],"split_indices":[6,5,19,0,0,8,19,0,0,36,35,0,0,0,0],"split_type":[0,0,0,0,0,0,0,0,0,0,0,0,0,0,0],"sum_hessian":[1.15205444E2,3.9773803E0,1.11228065E2,1.7323085E0,2.245072E0,6.4580464E0,1.0477002E2,4.6287284E0,1.8293178E0,4.5441917E1,5.9328102E1,2.397515E0,4.3044403E1,4.8088886E1,1.1239218E1],"tree_param":{"num_deleted":"0","num_feature":"38","num_nodes":"15","size_leaf_vector":"1"}},{"base_weights":[4.2883094E-6,5.987427E-1,-3.7660915E-1,8.660436E-1,-5.759447E-1,-5.833356E-1,-1.3445022E-2,6.4199585E-1,1.1075206E0,-2.3553257E-1,-5.825017E-2,-5.845526E-2,-5.9711304E-2,8.532083E-2,-5.7807483E-2,5.2966703E-2,1.1508608E-1,-1.6504109E-3,1.1398216E-1,-4.1962042E-2,2.0444646E-2,-2.941002E-2,2.0444646E-2,-4.7803735E-3,2.6122043E-2],"categories":[],"categories_nodes":[],"categories_segments":[],"categories_sizes":[],"default_left":[0,0,0,0,0,0,0,0,0,0,0,0,0,0,0,0,0,0,0,0,0,0,0,0,0],"id":5,"left_children":[1,3,5,7,9,11,13,15,17,19,-1,-1,21,23,-1,-1,-1,-1,-1,-1,-1,-1,-1,-1,-1],"loss_changes":[4.7181393E2,2.5418396E2,9.642224E1,3.491867E1,1.984253E-1,4.8669434E-1,2.608937E1,1.9052872E1,1.147641E1,4.519193E-1,0E0,0E0,2.4659666E-1,9.339373E0,0E0,0E0,0E0,0E0,0E0,0E0,0E0,0E0,0E0,0E0,0E0],"parents":[2147483647,0,0,1,1,2,2,3,3,4,4,5,5,6,6,7,7,8,8,9,9,12,12,13,13],"right_children":[2,4,6,8,10,12,14,16,18,20,-1,-1,22,24,-1,-1,-1,-1,-1,-1,-1,-1,-1,-1,-1],"split_conditions":[1E0,1E0,1E0,-1.8E1,-2.9E2,1E1,1E0,1.1720875E2,1E-1,8.4563866E1,-5.825017E-2,-5.845526E-2,3.1149557E2,2E0,-5.7807483E-2,5.2966703E-2,1.1508608E-1,-1.6504109E-3,1.1398216E-1,-4.1962042E-2,2.0444646E-2,-2.941002E-2,2.0444646E-2,-4.7803735E-3,2.6122043E-2],"split_indices":[16,35,17,36,36,14,35,3,5,1,0,0,0,17,0,0,0,0,0,0,0,0,0,0,0],"split_type":[0,0,0,0,0,0,0,0,0,0,0,0,0,0,0,0,0,0,0,0,0,0,0,0,0],"sum_hessian":[2.0903667E3,8.0692737E2,1.2834395E3,6.575615E2,1.493658E2,8.174886E2,4.6595087E2,3.4298813E2,3.1457343E2,3.520406E0,1.458454E2,8.154769E2,2.0116606E0,3.9730298E2,6.864792E1,2.826383E2,6.0349815E1,8.801015E0,3.057724E2,2.5145757E0,1.0058303E0,1.0058303E0,1.0058303E0,2.2656328E2,1.7073969E2],"tree_param":{"num_deleted":"0","num_feature":"38","num_nodes":"25","size_leaf_vector":"1"}},{"base_weights":[-9.446649E-6,-5.1470097E-2,2.4302795E0,-5.0139852E-2,4.3473372E0,4.9637165E0,2.7975097E0,5.0929785E-1,9.624764E-2,3.5550568E-1,1.1452941E-1],"categories":[],"categories_nodes":[],"categories_segments":[],"categories_sizes":[],"default_left":[0,0,0,0,0,0,0,0,0,0,0],"id":6,"left_children":[1,-1,3,-1,5,7,9,-1,-1,-1,-1],"loss_changes":[6.2557263E2,0E0,4.934143E2,0E0,3.6697083E1,1.4024231E1,1.7654556E1,0E0,0E0,0E0,0E0],"parents":[2147483647,0,0,2,2,4,4,5,5,6,6],"right_children":[2,-1,4,-1,6,8,10,-1,-1,-1,-1],"split_conditions":[1E0,-5.1470097E-2,1E0,-5.0139852E-2,1E0,1.32E2,1.1E1,5.0929785E-1,9.624764E-2,3.5550568E-1,1.1452941E-1],"split_indices":[35,0,17,0,16,36,36,0,0,0,0],"split_type":[0,0,0,0,0,0,0,0,0,0,0],"sum_hessian":[4.9811835E2,4.1171313E2,8.640523E1,3.4454235E1,5.1950993E1,3.5592724E1,1.635827E1,3.4214554E1,1.3781694E0,1.0426151E1,5.9321203E0],"tree_param":{"num_deleted":"0","num_feature":"38","num_nodes":"11","size_leaf_vector":"1"}},{"base_weights":[7.184266E-6,6.858651E-1,-4.405981E-1,9.6819544E-1,-6.265628E-1,-6.859146E-2,-1.540675E-2,9.0486073E-1,1.1269587E0,-6.3495815E-1,3.5370197E-2,9.716104E-2,-6.618134E-1,7.767527E-2,9.584092E-2,1.0974167E-2,1.1347524E-1,-6.3911706E-2,8.465276E-3,-8.145223E-3,3.8957756E-2,-2.8159041E-2,-6.705233E-2],"categories":[],"categories_nodes":[],"categories_segments":[],"categories_sizes":[],"default_left":[0,0,0,0,0,0,0,0,0,0,0,0,0,0,0,0,0,0,0,0,0,0,0],"id":7,"left_children":[1,3,5,7,9,-1,11,13,15,17,-1,19,21,-1,-1,-1,-1,-1,-1,-1,-1,-1,-1],"loss_changes":[9.946156E2,4.7762726E2,2.090152E2,9.63739E0,2.1052246E0,0E0,5.3488365E1,4.48761E0,2.2392578E0,7.3326874E-1,0E0,3.2736908E1,1.7224121E-1,0E0,0E0,0E0,0E0,0E0,0E0,0E0,0E0,0E0,0E0],"parents":[2147483647,0,0,1,1,2,2,3,3,4,4,6,6,7,7,8,8,9,9,11,11,12,12],"right_children":[2,4,6,8,10,-1,12,14,16,18,-1,20,22,-1,-1,-1,-1,-1,-1,-1,-1,-1,-1],"split_conditions":[1E0,1E0,1E0,5.8E1,7E0,-6.859146E-2,1E0,-3.9147873E1,-4.509957E2,1E1,3.5370197E-2,5.3041935E1,-3E0,7.767527E-2,9.584092E-2,1.0974167E-2,1.1347524E-1,-6.3911706E-2,8.465276E-3,-8.145223E-3,3.8957756E-2,-2.8159041E-2,-6.705233E-2],"split_indices":[17,35,16,36,24,0,35,2,3,14,0,0,11,0,0,0,0,0,0,0,0,0,0],"split_type":[0,0,0,0,0,0,0,0,0,0,0,0,0,0,0,0,0,0,0,0,0,0,0],"sum_hessian":[3.28933E3,1.2863722E3,2.0029579E3,1.0588533E3,2.2751892E2,1.2697534E3,7.3320447E2,7.616938E2,2.971595E2,2.2593617E2,1.5827403E0,6.2518243E2,1.08022026E2,2.2910165E2,5.325921E2,2.3741105E0,2.9478537E2,2.2474913E2,1.1870552E0,3.8856274E2,2.3661967E2,3.1654806E0,1.04856544E2],"tree_param":{"num_deleted":"0","num_feature":"38","num_nodes":"23","size_leaf_vector":"1"}},{"base_weights":[4.110429E-6,-5.821056E-2,3.6616126E-1,5.5341536E-1,-5.7180285E-1,7.442148E-1,2.2918569E-1,-5.763452E-2,-3.5506746E-1,8.428707E-2,4.881653E-2,2.1682141E-2,1.4592154E-1,1.254376E-2,-4.813383E-2],"categories":[],"categories_nodes":[],"categories_segments":[],"categories_sizes":[],"default_left":[0,0,0,0,0,0,0,0,0,0,0,0,0,0,0],"id":8,"left_children":[1,-1,3,5,7,9,11,-1,13,-1,-1,-1,-1,-1,-1],"loss_changes":[4.372157E2,0E0,2.2148085E2,6.479559E1,2.1438599E-3,1.6277649E1,5.6223907E0,0E0,4.8001832E-1,0E0,0E0,0E0,0E0,0E0,0E0],"parents":[2147483647,0,0,2,2,3,3,4,4,5,5,6,6,8,8],"right_children":[2,-1,4,6,8,10,12,-1,14,-1,-1,-1,-1,-1,-1],"split_conditions":[1E0,-5.821056E-2,1E0,1E0,2.07E2,5.8E1,2.98E2,-5.763452E-2,3.8E-1,8.428707E-2,4.881653E-2,2.1682141E-2,1.4592154E-1,1.254376E-2,-4.813383E-2],"split_indices":[16,0,35,17,7,36,8,0,6,0,0,0,0,0,0],"split_type":[0,0,0,0,0,0,0,0,0,0,0,0,0,0,0],"sum_hessian":[2.0492727E3,7.9106415E2,1.2582086E3,1.0491646E3,2.0904405E2,6.5967206E2,3.8949246E2,2.0312772E2,5.9163413E0,4.7453986E2,1.8513217E2,3.867808E2,2.7116563E0,1.2325711E0,4.68377E0],"tree_param":{"num_deleted":"0","num_feature":"38","num_nodes":"15","size_leaf_vector":"1"}},{"base_weights":[-1.179201E-3,-4.1670725E-2,1.23061955E-1],"categories":[],"categories_nodes":[],"categories_segments":[],"categories_sizes":[],"default_left":[0,0,0],"id":9,"left_children":[1,-1,-1],"loss_changes":[4.10309E0,0E0,0E0],"parents":[2147483647,0,0],"right_children":[2,-1,-1],"split_conditions":[3E0,-4.1670725E-2,1.23061955E-1],"split_indices":[26,0,0],"split_type":[0,0,0],"sum_hessian":[6.0143657E0,4.9920754E0,1.0222902E0],"tree_param":{"num_deleted":"0","num_feature":"38","num_nodes":"3","size_leaf_vector":"1"}},{"base_weights":[-1.8629822E-5,-5.0815094E-2,2.387491E0,-4.881159E-2,4.253523E0,2.0569506E0,5.651233E0,2.8393552E-2,2.833384E-1,6.200373E-1,6.1230976E-2],"categories":[],"categories_nodes":[],"categories_segments":[],"categories_sizes":[],"default_left":[0,0,0,0,0,0,0,0,0,0,0],"id":10,"left_children":[1,-1,3,-1,5,7,9,-1,-1,-1,-1],"loss_changes":[3.9251016E2,0E0,3.067321E2,0E0,9.440381E1,1.9847527E1,5.3019897E1,0E0,0E0,0E0,0E0],"parents":[2147483647,0,0,2,2,4,4,5,5,6,6],"right_children":[2,-1,4,-1,6,8,10,-1,-1,-1,-1],"split_conditions":[1E0,-5.0815094E-2,1E0,-4.881159E-2,2.5E1,-3.9677008E2,2E0,2.8393552E-2,2.833384E-1,6.200373E-1,6.1230976E-2],"split_indices":[35,0,17,0,8,3,16,0,0,0,0],"split_type":[0,0,0,0,0,0,0,0,0,0,0],"sum_hessian":[3.215407E2,2.6576523E2,5.57755E1,2.2240578E1,3.3534924E1,1.4001894E1,1.9533028E1,4.680191E0,9.321703E0,1.7405668E1,2.1273596E0],"tree_param":{"num_deleted":"0","num_feature":"38","num_nodes":"11","size_leaf_vector":"1"}},{"base_weights":[-6.8502213E-6,-5.1797725E-2,2.4491298E0,5.8086386E0,1.6359575E-1,4.4349422E0,7.5567446E0,-2.52691E-1,2.73075E0,3.0742088E-1,5.3905E-1,8.270484E-1,3.785629E-1,-5.069697E-2,6.404303E-2,-3.4059037E-2,3.6339656E-1],"categories":[],"categories_nodes":[],"categories_segments":[],"categories_sizes":[],"default_left":[0,0,0,0,0,0,0,0,0,0,0,0,0,0,0,0,0],"id":11,"left_children":[1,-1,3,5,7,9,11,13,15,-1,-1,-1,-1,-1,-1,-1,-1],"loss_changes":[7.47989E2,0E0,7.893869E2,6.649231E1,6.7253624E1,1.689804E1,1.4191772E1,1.2704127E1,2.5582062E1,0E0,0E0,0E0,0E0,0E0,0E0,0E0,0E0],"parents":[2147483647,0,0,2,2,3,3,4,4,5,5,6,6,7,7,8,8],"right_children":[2,-1,4,6,8,10,12,14,16,-1,-1,-1,-1,-1,-1,-1,-1],"split_conditions":[1E0,-5.1797725E-2,1E0,1.055E3,2E0,3.5501076E1,1E0,1E0,-5.547075E1,3.0742088E-1,5.3905E-1,8.270484E-1,3.785629E-1,-5.069697E-2,6.404303E-2,-3.4059037E-2,3.6339656E-1],"split_indices":[35,0,17,37,16,1,15,16,0,0,0,0,0,0,0,0,0],"split_type":[0,0,0,0,0,0,0,0,0,0,0,0,0,0,0,0,0],"sum_hessian":[5.876269E2,4.8569522E2,1.0193167E2,4.064543E1,6.128624E1,2.4740696E1,1.5904734E1,5.3510593E1,7.7756476E0,1.1946222E1,1.2794475E1,1.2370348E1,3.5343852E0,4.1988495E1,1.1522096E1,1.908568E0,5.8670793E0],"tree_param":{"num_deleted":"0","num_feature":"38","num_nodes":"17","size_leaf_vector":"1"}},{"base_weights":[-1.1408128E-5,-5.1284052E-2,2.419005E0,-4.986263E-2,4.4295855E0,4.9993343E0,1.0510925E0,5.241772E-1,2.2282302E-1,1.7018788E-2,3.034942E-1],"categories":[],"categories_nodes":[],"categories_segments":[],"categories_sizes":[],"default_left":[0,0,0,0,0,0,0,0,0,0,0],"id":12,"left_children":[1,-1,3,-1,5,7,9,-1,-1,-1,-1],"loss_changes":[5.5735394E2,0E0,4.6321106E2,0E0,8.4496826E1,1.4945801E1,1.3454843E1,0E0,0E0,0E0,0E0],"parents":[2147483647,0,0,2,2,4,4,5,5,6,6],"right_children":[2,-1,4,-1,6,8,10,-1,-1,-1,-1],"split_conditions":[1E0,-5.1284052E-2,1E0,-4.986263E-2,2E0,3E0,9.593253E1,5.241772E-1,2.2282302E-1,1.7018788E-2,3.034942E-1],"split_indices":[35,0,16,0,17,10,0,0,0,0,0],"split_type":[0,0,0,0,0,0,0,0,0,0,0],"sum_hessian":[4.4728262E2,3.6969553E2,7.75871E1,3.1960287E1,4.562681E1,3.8632133E1,6.9946756E0,3.4704353E1,3.9277794E0,5.595741E0,1.3989352E0],"tree_param":{"num_deleted":"0","num_feature":"38","num_nodes":"11","size_leaf_vector":"1"}},{"base_weights":[-2.2570495E-5,-5.0649453E-2,2.3746903E0,-4.844054E-2,4.3258977E0,3.0733905E0,6.3803916E0,3.5328588E-1,5.4205097E-2,6.997742E-1,6.812883E-2],"categories":[],"categories_nodes":[],"categories_segments":[],"categories_sizes":[],"default_left":[0,0,0,0,0,0,0,0,0,0,0],"id":13,"left_children":[1,-1,3,-1,5,7,9,-1,-1,-1,-1],"loss_changes":[3.3815958E2,0E0,2.778175E2,0E0,5.6242554E1,2.162796E1,3.1242249E1,0E0,0E0,0E0,0E0],"parents":[2147483647,0,0,2,2,4,4,5,5,6,6],"right_children":[2,-1,4,-1,6,8,10,-1,-1,-1,-1],"split_conditions":[1E0,-5.0649453E-2,1E0,-4.844054E-2,5.8E1,4.09E3,2E0,3.5328588E-1,5.4205097E-2,6.997742E-1,6.812883E-2],"split_indices":[35,0,16,0,7,37,17,0,0,0,0],"split_type":[0,0,0,0,0,0,0,0,0,0,0],"sum_hessian":[2.79161E2,2.3073685E2,4.842418E1,1.994727E1,2.847691E1,1.9242062E1,9.234847E0,1.5951098E1,3.2909636E0,8.126665E0,1.1081816E0],"tree_param":{"num_deleted":"0","num_feature":"38","num_nodes":"11","size_leaf_vector":"1"}},{"base_weights":[4.2542564E-3,-4.722805E-2,2.9630995E-1,-2.5751224E-1,5.805754E-1,2.4277626E-1,-4.3780822E-2,9.7246164E-1,-2.7782372E-1,6.793722E-2,-2.7780024E-2,5.5385508E-2,2.6441193E-1,2.481304E-2,-4.135966E-2],"categories":[],"categories_nodes":[],"categories_segments":[],"categories_sizes":[],"default_left":[0,0,0,0,0,0,0,0,0,0,0,0,0,0,0],"id":14,"left_children":[1,-1,3,5,7,9,-1,11,13,-1,-1,-1,-1,-1,-1],"loss_changes":[6.3340287E0,0E0,4.5904574E0,1.0317984E0,6.644173E0,9.527279E-1,0E0,7.79428E0,5.8227426E-1,0E0,0E0,0E0,0E0,0E0,0E0],"parents":[2147483647,0,0,2,2,3,3,4,4,5,5,7,7,8,8],"right_children":[2,-1,4,6,8,10,-1,12,14,-1,-1,-1,-1,-1,-1],"split_conditions":[1E0,-4.722805E-2,-5.91E2,0E0,6.898037E1,2E0,-4.3780822E-2,1.3968777E2,-8.100198E1,6.793722E-2,-2.7780024E-2,5.5385508E-2,2.6441193E-1,2.481304E-2,-4.135966E-2],"split_indices":[17,0,37,11,0,22,0,2,2,0,0,0,0,0,0],"split_type":[0,0,0,0,0,0,0,0,0,0,0,0,0,0,0],"sum_hessian":[4.3505848E1,1.6297245E1,2.7208605E1,9.260631E0,1.7947973E1,2.3614614E0,6.899169E0,1.2231178E1,5.716796E0,1.1184251E0,1.2430363E0,1.0846406E1,1.3847718E0,1.0031754E0,4.71362E0],"tree_param":{"num_deleted":"0","num_feature":"38","num_nodes":"15","size_leaf_vector":"1"}},{"base_weights":[9.0842025E-4,-6.5429404E-2,3.918179E-1,5.8574116E-1,-6.2832063E-1,8.458949E-1,1.3204587E-1,1.15936985E-2,-6.313648E-1,9.7667634E-2,6.988072E-2,4.4527795E-2,-4.002608E-3,-6.39804E-2,-4.994375E-2],"categories":[],"categories_nodes":[],"categories_segments":[],"categories_sizes":[],"default_left":[0,0,0,0,0,0,0,0,0,0,0,0,0,0,0],"id":15,"left_children":[1,-1,3,5,7,9,11,-1,13,-1,-1,-1,-1,-1,-1],"loss_changes":[8.0529224E2,0E0,3.8994022E2,1.9525354E2,7.869568E-1,1.9550354E1,3.2594387E1,0E0,2.9937744E-2,0E0,0E0,0E0,0E0,0E0,0E0],"parents":[2147483647,0,0,2,2,3,3,4,4,5,5,6,6,8,8],"right_children":[2,-1,4,6,8,10,12,-1,14,-1,-1,-1,-1,-1,-1],"split_conditions":[1E0,-6.5429404E-2,1E0,1E0,8E-2,-1.8E1,-5.3705112E1,1.15936985E-2,3E0,9.7667634E-2,6.988072E-2,4.4527795E-2,-4.002608E-3,-6.39804E-2,-4.994375E-2],"split_indices":[17,0,35,16,6,36,0,0,11,0,0,0,0,0,0],"split_type":[0,0,0,0,0,0,0,0,0,0,0,0,0,0,0],"sum_hessian":[3.1421384E3,1.1738977E3,1.9682408E3,1.6542096E3,3.1403125E2,1.0508033E3,6.0340625E2,1.1281724E0,3.1290308E2,5.5324854E2,4.975548E2,2.1338394E2,3.9002234E2,2.904724E2,2.2430658E1],"tree_param":{"num_deleted":"0","num_feature":"38","num_nodes":"15","size_leaf_vector":"1"}},{"base_weights":[-5.0582713E-3,-5.170368E-2,1.7703068E0,-5.052634E-2,2.7074754E0,3.4586236E0,1.7043508E0,1.6810462E-1,3.6298013E-1,2.2867072E-1,2.6248012E-2],"categories":[],"categories_nodes":[],"categories_segments":[],"categories_sizes":[],"default_left":[0,0,0,0,0,0,0,0,0,0,0],"id":16,"left_children":[1,-1,3,-1,5,7,9,-1,-1,-1,-1],"loss_changes":[5.4513367E2,0E0,2.8765E2,0E0,6.586804E1,1.0173645E1,3.5297516E1,0E0,0E0,0E0,0E0],"parents":[2147483647,0,0,2,2,4,4,5,5,6,6],"right_children":[2,-1,4,-1,6,8,10,-1,-1,-1,-1],"split_conditions":[1E0,-5.170368E-2,1E0,-5.052634E-2,-6.869039E1,7.2E-1,1E0,1.6810462E-1,3.6298013E-1,2.2867072E-1,2.6248012E-2],"split_indices":[35,0,17,0,3,6,16,0,0,0,0],"split_type":[0,0,0,0,0,0,0,0,0,0,0],"sum_hessian":[5.977338E2,4.6449255E2,1.3324126E2,3.9001434E1,9.423982E1,5.2488293E1,4.175153E1,5.5610113E0,4.692728E1,2.9322535E1,1.2428993E1],"tree_param":{"num_deleted":"0","num_feature":"38","num_nodes":"11","size_leaf_vector":"1"}},{"base_weights":[3.6265897E-3,-4.8054814E-2,2.9194695E-1,1.0528709E0,1.8141073E-1,-3.1043345E-2,1.8400127E0,7.3424083E-1,8.3643325E-2,2.7115697E-1,1.8702356E-2,1.9436048E-1,-1.2738339E-2,-4.356612E-2,2.3753699E-2],"categories":[],"categories_nodes":[],"categories_segments":[],"categories_sizes":[],"default_left":[0,0,0,0,0,0,0,0,0,0,0,0,0,0,0],"id":17,"left_children":[1,-1,3,5,7,-1,9,11,13,-1,-1,-1,-1,-1,-1],"loss_changes":[8.839867E0,0E0,3.146602E0,5.7490335E0,1.8765869E0,0E0,4.1077347E0,5.728296E0,2.6286297E0,0E0,0E0,0E0,0E0,0E0,0E0],"parents":[2147483647,0,0,2,2,3,3,4,4,6,6,7,7,8,8],"right_children":[2,-1,4,6,8,-1,10,12,14,-1,-1,-1,-1,-1,-1],"split_conditions":[1E0,-4.8054814E-2,-1.474E3,3.878401E-1,7E0,-3.1043345E-2,3.085906E2,1.5013486E2,3.7E1,2.7115697E-1,1.8702356E-2,1.9436048E-1,-1.2738339E-2,-4.356612E-2,2.3753699E-2],"split_indices":[16,0,37,4,7,0,1,0,8,0,0,0,0,0,0],"split_type":[0,0,0,0,0,0,0,0,0,0,0,0,0,0,0],"sum_hessian":[6.1318996E1,2.263741E1,3.8681587E1,3.825054E0,3.4856533E1,1.6217883E0,2.2032657E0,4.259714E0,3.0596819E1,1.0233103E0,1.1799554E0,1.249786E0,3.009928E0,6.5759077E0,2.4020912E1],"tree_param":{"num_deleted":"0","num_feature":"38","num_nodes":"15","size_leaf_vector":"1"}},{"base_weights":[3.0612964E-3,1.9438429E0,-1.0095192E-1,3.658455E-1,-9.550778E-2,5.934322E-1,-1.5182152E-1,2.4742229E-2,-3.1606786E-2,-4.1049425E-2,2.049448E0,-3.577194E-1,3.5060185E-3,2.0817159E-2,2.8776428E-1,2.2431038E-2,-3.9667193E-2,1.1339286E-2,-4.603996E-2],"categories":[],"categories_nodes":[],"categories_segments":[],"categories_sizes":[],"default_left":[0,0,0,0,0,0,0,0,0,0,0,0,0,0,0,0,0,0,0],"id":18,"left_children":[1,3,5,-1,7,9,11,-1,-1,-1,13,15,17,-1,-1,-1,-1,-1,-1],"loss_changes":[2.3509272E1,2.106345E1,3.9955266E0,0E0,3.5656634E-1,1.217053E1,3.3213515E0,0E0,0E0,0E0,4.4789133E0,1.1012468E0,3.1191611E0,0E0,0E0,0E0,0E0,0E0,0E0],"parents":[2147483647,0,0,1,1,2,2,4,4,5,5,6,6,10,10,11,11,12,12],"right_children":[2,4,6,-1,8,10,12,-1,-1,-1,14,16,18,-1,-1,-1,-1,-1,-1],"split_conditions":[1.2E-1,4E-1,2E-1,3.658455E-1,2.08E2,1.08E2,6E-1,2.4742229E-2,-3.1606786E-2,-4.1049425E-2,2E0,-1.88E2,1E0,2.0817159E-2,2.8776428E-1,2.2431038E-2,-3.9667193E-2,1.1339286E-2,-4.603996E-2],"split_indices":[6,19,19,0,8,8,19,0,0,0,26,36,35,0,0,0,0,0,0],"split_type":[0,0,0,0,0,0,0,0,0,0,0,0,0,0,0,0,0,0,0],"sum_hessian":[1.1448715E2,4.923891E0,1.0956326E2,2.2436123E0,2.6802788E0,6.7505565E0,1.02812706E2,1.0014377E0,1.6788411E0,4.4206076E0,2.3299491E0,4.3649345E1,5.916336E1,1.1110883E0,1.2188609E0,2.4395146E0,4.120983E1,4.844387E1,1.0719489E1],"tree_param":{"num_deleted":"0","num_feature":"38","num_nodes":"19","size_leaf_vector":"1"}},{"base_weights":[1.0864649E-3,-5.77035E-1,3.4356087E-1,-5.783068E-2,-5.2462467E-3,5.162623E-1,-5.73039E-1,7.626631E-1,8.138475E-2,-2.747745E-1,-5.777396E-2,5.7785224E-2,9.541885E-2,-4.4819294E-3,2.4454106E-2,-4.3492984E-2,1.3537148E-2],"categories":[],"categories_nodes":[],"categories_segments":[],"categories_sizes":[],"default_left":[0,0,0,0,0,0,0,0,0,0,0,0,0,0,0,0,0],"id":19,"left_children":[1,3,5,-1,-1,7,9,11,13,15,-1,-1,-1,-1,-1,-1,-1],"loss_changes":[4.1331503E2,4.8779297E-1,2.0781548E2,0E0,0E0,1.18196106E2,1.3330841E-1,2.4379944E1,8.252971E0,3.9644474E-1,0E0,0E0,0E0,0E0,0E0,0E0,0E0],"parents":[2147483647,0,0,1,1,2,2,5,5,6,6,7,7,8,8,9,9],"right_children":[2,4,6,-1,-1,8,10,12,14,16,-1,-1,-1,-1,-1,-1,-1],"split_conditions":[1E0,1E1,1E0,-5.783068E-2,-5.2462467E-3,1E0,-2.9E2,-1.8E1,2E0,3E0,-5.777396E-2,5.7785224E-2,9.541885E-2,-4.4819294E-3,2.4454106E-2,-4.3492984E-2,1.3537148E-2],"split_indices":[17,14,35,0,0,16,36,36,17,18,0,0,0,0,0,0,0],"split_type":[0,0,0,0,0,0,0,0,0,0,0,0,0,0,0,0,0],"sum_hessian":[2.0855347E3,7.75593E2,1.3099418E3,7.73615E2,1.9780276E0,1.1026267E3,2.0731497E2,7.03354E2,3.9927277E2,4.1390276E0,2.0317595E2,3.5999588E2,3.433581E2,2.2553957E2,1.737332E2,2.9332242E0,1.2058032E0],"tree_param":{"num_deleted":"0","num_feature":"38","num_nodes":"17","size_leaf_vector":"1"}},{"base_weights":[-3.7899727E-3,-5.1374238E-2,1.7757477E0,-4.998597E-2,2.7220151E0,2.7824485E0,3.0028555E-3,6.4319014E-3,2.8383127E-1],"categories":[],"categories_nodes":[],"categories_segments":[],"categories_sizes":[],"default_left":[0,0,0,0,0,0,0,0,0],"id":20,"left_children":[1,-1,3,-1,5,7,-1,-1,-1],"loss_changes":[4.565617E2,0E0,2.4266577E2,0E0,1.2818054E1,1.1593384E1,0E0,0E0,0E0],"parents":[2147483647,0,0,2,2,4,4,5,5],"right_children":[2,-1,4,-1,6,8,-1,-1,-1],"split_conditions":[1E0,-5.1374238E-2,1E0,-4.998597E-2,4.2055737E2,-9.4393823E2,3.0028555E-3,6.4319014E-3,2.8383127E-1],"split_indices":[35,0,17,0,2,1,0,0,0],"split_type":[0,0,0,0,0,0,0,0,0],"sum_hessian":[5.0110434E2,3.9004312E2,1.1106123E2,3.275734E1,7.8303894E1,7.655176E1,1.7521396E0,1.5849631E0,7.496679E1],"tree_param":{"num_deleted":"0","num_feature":"38","num_nodes":"9","size_leaf_vector":"1"}},{"base_weights":[9.582656E-4,-6.683951E-2,3.931624E-1,5.8042336E-1,-6.221326E-1,8.544558E-1,9.1672085E-2,-6.276702E-1,-1.6776651E-1,8.1895255E-2,1.05769865E-1,-8.1336275E-3,3.4526896E-2,-6.303876E-2,-2.9087806E-2,-5.101443E-2,5.520503E-2],"categories":[],"categories_nodes":[],"categories_segments":[],"categories_sizes":[],"default_left":[0,0,0,0,0,0,0,0,0,0,0,0,0,0,0,0,0],"id":21,"left_children":[1,-1,3,5,7,9,11,13,15,-1,-1,-1,-1,-1,-1,-1,-1],"loss_changes":[8.6154846E2,0E0,3.9378717E2,2.3398279E2,7.066803E-1,7.2128296E0,2.7622738E1,1.08062744E-1,1.5756129E0,0E0,0E0,0E0,0E0,0E0,0E0,0E0,0E0],"parents":[2147483647,0,0,2,2,3,3,4,4,5,5,6,6,7,7,8,8],"right_children":[2,-1,4,6,8,10,12,14,16,-1,-1,-1,-1,-1,-1,-1,-1],"split_conditions":[1E0,-6.683951E-2,1E0,1E0,7E0,3.4131888E2,4.5136677E1,6.9877344E2,1E0,8.1895255E-2,1.05769865E-1,-8.1336275E-3,3.4526896E-2,-6.303876E-2,-2.9087806E-2,-5.101443E-2,5.520503E-2],"split_indices":[16,0,35,17,24,3,0,2,9,0,0,0,0,0,0,0,0],"split_type":[0,0,0,0,0,0,0,0,0,0,0,0,0,0,0,0,0],"sum_hessian":[3.2797986E3,1.2114976E3,2.068301E3,1.7465886E3,3.2171237E2,1.1186416E3,6.2794696E2,3.1746185E2,4.250523E0,9.56573E2,1.6206866E2,3.736889E2,2.5425806E2,3.1405627E2,3.4055943E0,3.077845E0,1.172678E0],"tree_param":{"num_deleted":"0","num_feature":"38","num_nodes":"17","size_leaf_vector":"1"}},{"base_weights":[1.3500344E-3,-5.761235E-2,3.3674428E-1,5.0125647E-1,-5.6570184E-1,6.637197E-1,2.1383178E-1,-5.7042744E-2,-3.4434792E-1,7.193842E-2,3.352901E-2,3.1405263E-2,7.924314E-3,1.42175425E-2,-4.748821E-2],"categories":[],"categories_nodes":[],"categories_segments":[],"categories_sizes":[],"default_left":[0,0,0,0,0,0,0,0,0,0,0,0,0,0,0],"id":22,"left_children":[1,-1,3,5,7,9,11,-1,13,-1,-1,-1,-1,-1,-1],"loss_changes":[3.9629303E2,0E0,1.9244731E2,5.1004486E1,1.2825012E-2,1.2543243E1,5.330246E0,0E0,4.933042E-1,0E0,0E0,0E0,0E0,0E0,0E0],"parents":[2147483647,0,0,2,2,3,3,4,4,5,5,6,6,8,8],"right_children":[2,-1,4,6,8,10,12,-1,14,-1,-1,-1,-1,-1,-1],"split_conditions":[1E0,-5.761235E-2,1E0,1E0,2.07E2,3.3544757E2,2E0,-5.7042744E-2,2.22E2,7.193842E-2,3.352901E-2,3.1405263E-2,7.924314E-3,1.42175425E-2,-4.748821E-2],"split_indices":[16,0,35,17,7,3,17,0,7,0,0,0,0,0,0],"split_type":[0,0,0,0,0,0,0,0,0,0,0,0,0,0,0],"sum_hessian":[2.0441073E3,7.5075616E2,1.2933511E3,1.0943079E3,1.9904324E2,6.982958E2,3.960121E2,1.9333876E2,5.704482E0,5.9607806E2,1.022177E2,2.2622284E2,1.6978925E2,1.1878769E0,4.5166054E0],"tree_param":{"num_deleted":"0","num_feature":"38","num_nodes":"15","size_leaf_vector":"1"}},{"base_weights":[5.55386E-3,-4.134531E-2,1.1252916E-1],"categories":[],"categories_nodes":[],"categories_segments":[],"categories_sizes":[],"default_left":[0,0,0],"id":23,"left_children":[1,-1,-1],"loss_changes":[3.7124372E0,0E0,0E0],"parents":[2147483647,0,0],"right_children":[2,-1,-1],"split_conditions":[3E0,-4.134531E-2,1.1252916E-1],"split_indices":[26,0,0],"split_type":[0,0,0],"sum_hessian":[5.921004E0,4.767689E0,1.1533148E0],"tree_param":{"num_deleted":"0","num_feature":"38","num_nodes":"3","size_leaf_vector":"1"}},{"base_weights":[-4.2591286E-3,-5.0749727E-2,1.7354478E0,-4.8656248E-2,2.6496608E0,6.4787203E-1,3.002334E0,1.2061175E-1,-1.9851525E-3,-3.6678158E-3,3.1600627E-1],"categories":[],"categories_nodes":[],"categories_segments":[],"categories_sizes":[],"default_left":[0,0,0,0,0,0,0,0,0,0,0],"id":24,"left_children":[1,-1,3,-1,5,7,9,-1,-1,-1,-1],"loss_changes":[2.8532706E2,0E0,1.498297E2,0E0,3.4739197E1,3.4005625E0,2.1160706E1,0E0,0E0,0E0,0E0],"parents":[2147483647,0,0,2,2,4,4,5,5,6,6],"right_children":[2,-1,4,-1,6,8,10,-1,-1,-1,-1],"split_conditions":[1E0,-5.0749727E-2,1E0,-4.8656248E-2,-3.2917352E2,6.666667E-1,1.4E-1,1.2061175E-1,-1.9851525E-3,-3.6678158E-3,3.1600627E-1],"split_indices":[35,0,17,0,3,20,5,0,0,0,0],"split_type":[0,0,0,0,0,0,0,0,0,0,0],"sum_hessian":[3.239007E2,2.5177814E2,7.2122574E1,2.116018E1,5.09624E1,8.058581E0,4.2903816E1,3.9499454E0,4.1086364E0,2.1547568E0,4.0749058E1],"tree_param":{"num_deleted":"0","num_feature":"38","num_nodes":"11","size_leaf_vector":"1"}},{"base_weights":[-4.5678187E-3,-5.168439E-2,1.7808619E0,3.2245393E0,1.526461E-1,6.941957E-1,3.3477538E0,-5.053137E-2,1.294705E0,1.6247417E-1,-3.4979034E-2,3.484708E-1,1.3881084E-1,-1.0592242E-2,2.3298155E-1],"categories":[],"categories_nodes":[],"categories_segments":[],"categories_sizes":[],"default_left":[0,0,0,0,0,0,0,0,0,0,0,0,0,0,0],"id":25,"left_children":[1,-1,3,5,7,9,11,-1,13,-1,-1,-1,-1,-1,-1],"loss_changes":[5.4279755E2,0E0,3.105252E2,1.9525513E1,4.8168564E1,4.9552526E0,1.3027771E1,0E0,3.4163322E1,0E0,0E0,0E0,0E0,0E0,0E0],"parents":[2147483647,0,0,2,2,3,3,4,4,5,5,6,6,8,8],"right_children":[2,-1,4,6,8,10,12,-1,14,-1,-1,-1,-1,-1,-1],"split_conditions":[1E0,-5.168439E-2,1E0,-2.6107132E2,1E0,5.2E-1,1.43E2,-5.053137E-2,1.1963781E0,1.6247417E-1,-3.4979034E-2,3.484708E-1,1.3881084E-1,-1.0592242E-2,2.3298155E-1],"split_indices":[35,0,17,3,16,6,7,0,0,0,0,0,0,0,0],"split_type":[0,0,0,0,0,0,0,0,0,0,0,0,0,0,0],"sum_hessian":[5.914531E2,4.6014008E2,1.3131303E2,6.9081055E1,6.2231976E1,3.5157354E0,6.556532E1,3.98381E1,2.2393873E1,1.5647368E0,1.9509987E0,6.055506E1,5.0102615E0,9.89816E0,1.2495714E1],"tree_param":{"num_deleted":"0","num_feature":"38","num_nodes":"15","size_leaf_vector":"1"}},{"base_weights":[-4.17749E-3,-5.119757E-2,1.7601284E0,-4.9707722E-2,2.7347295E0,2.94851E0,8.309902E-1,3.0206117E-1,-2.9463505E-2,8.889568E-3,1.2489515E-1],"categories":[],"categories_nodes":[],"categories_segments":[],"categories_sizes":[],"default_left":[0,0,0,0,0,0,0,0,0,0,0],"id":26,"left_children":[1,-1,3,-1,5,7,9,-1,-1,-1,-1],"loss_changes":[4.0525198E2,0E0,2.2375351E2,0E0,2.6348389E1,1.5674255E1,2.5366664E0,0E0,0E0,0E0,0E0],"parents":[2147483647,0,0,2,2,4,4,5,5,6,6],"right_children":[2,-1,4,-1,6,8,10,-1,-1,-1,-1],"split_conditions":[1E0,-5.119757E-2,1E0,-4.9707722E-2,3E0,5.5894836E2,-1.9165193E2,3.0206117E-1,-2.9463505E-2,8.889568E-3,1.2489515E-1],"split_indices":[35,0,16,0,15,0,3,0,0,0,0],"split_type":[0,0,0,0,0,0,0,0,0,0,0],"sum_hessian":[4.5032904E2,3.5023505E2,1.0009399E2,3.0332642E1,6.9761345E1,6.2224995E1,7.536353E0,6.0938816E1,1.2861766E0,3.1522284E0,4.384125E0],"tree_param":{"num_deleted":"0","num_feature":"38","num_nodes":"11","size_leaf_vector":"1"}},{"base_weights":[-3.2920486E-3,-5.0590295E-2,1.7448393E0,-4.8276078E-2,2.7108314E0,2.9852238E0,7.482594E-1,3.1331903E-1,-3.1074762E-2,-3.660627E-2,1.4985888E-1],"categories":[],"categories_nodes":[],"categories_segments":[],"categories_sizes":[],"default_left":[0,0,0,0,0,0,0,0,0,0,0],"id":27,"left_children":[1,-1,3,-1,5,7,9,-1,-1,-1,-1],"loss_changes":[2.48424E2,0E0,1.3717363E2,0E0,2.1564331E1,1.9718872E1,6.1966586E0,0E0,0E0,0E0,0E0],"parents":[2147483647,0,0,2,2,4,4,5,5,6,6],"right_children":[2,-1,4,-1,6,8,10,-1,-1,-1,-1],"split_conditions":[1E0,-5.0590295E-2,1E0,-4.8276078E-2,2E0,4.6133224E2,2E-1,3.1331903E-1,-3.1074762E-2,-3.660627E-2,1.4985888E-1],"split_indices":[35,0,16,0,17,0,25,0,0,0,0],"split_type":[0,0,0,0,0,0,0,0,0,0,0],"sum_hessian":[2.8073557E2,2.1859673E2,6.2138847E1,1.894696E1,4.3191887E1,3.7436684E1,5.755201E0,3.587551E1,1.5611728E0,2.5219526E0,3.2332485E0],"tree_param":{"num_deleted":"0","num_feature":"38","num_nodes":"11","size_leaf_vector":"1"}},{"base_weights":[7.818082E-3,-4.7076043E-2,2.8190172E-1,-3.372724E-2,7.543329E-1,-2.4990244E-1,5.4555964E-1,1.5153188E0,2.0058665E-1,2.2893446E-2,-3.7080046E-2,-3.408529E-2,1.2547563E-1,2.1713041E-1,-2.6887745E-2,1.06640495E-1,-2.4971856E-2],"categories":[],"categories_nodes":[],"categories_segments":[],"categories_sizes":[],"default_left":[0,0,0,0,0,0,0,0,0,0,0,0,0,0,0,0,0],"id":28,"left_children":[1,-1,3,5,7,9,11,13,15,-1,-1,-1,-1,-1,-1,-1,-1],"loss_changes":[5.929626E0,0E0,4.308854E0,2.4127238E0,4.5622687E0,8.9094293E-1,3.7307084E0,6.0979004E0,3.3216863E0,0E0,0E0,0E0,0E0,0E0,0E0,0E0,0E0],"parents":[2147483647,0,0,2,2,3,3,4,4,5,5,6,6,7,7,8,8],"right_children":[2,-1,4,6,8,10,12,14,16,-1,-1,-1,-1,-1,-1,-1,-1],"split_conditions":[1E0,-4.7076043E-2,2E0,9.1E1,1E0,-2.9653915E2,2E0,2E0,1.2E1,2.2893446E-2,-3.7080046E-2,-3.408529E-2,1.2547563E-1,2.1713041E-1,-2.6887745E-2,1.06640495E-1,-2.4971856E-2],"split_indices":[17,0,23,8,21,1,26,22,7,0,0,0,0,0,0,0,0],"split_type":[0,0,0,0,0,0,0,0,0,0,0,0,0,0,0,0,0],"sum_hessian":[4.3193752E1,1.5467796E1,2.7725958E1,1.7178019E1,1.0547939E1,1.292379E1,4.254228E0,3.7112577E0,6.836682E0,2.4251108E0,1.0498679E1,2.1217146E0,2.1325133E0,2.5549347E0,1.156323E0,1.8710202E0,4.9656615E0],"tree_param":{"num_deleted":"0","num_feature":"38","num_nodes":"17","size_leaf_vector":"1"}},{"base_weights":[1.03716E-3,-6.407555E-2,3.5802642E-1,5.293594E-1,-6.148967E-1,7.527958E-1,1.2381943E-1,1.1551944E-2,-6.180275E-1,8.743035E-2,6.2766634E-2,2.8839542E-2,-1.66743E-2,-6.2674455E-2,-4.829217E-2],"categories":[],"categories_nodes":[],"categories_segments":[],"categories_sizes":[],"default_left":[0,0,0,0,0,0,0,0,0,0,0,0,0,0,0],"id":29,"left_children":[1,-1,3,5,7,9,11,-1,13,-1,-1,-1,-1,-1,-1],"loss_changes":[7.1663745E2,0E0,3.3536246E2,1.5480719E2,7.6065826E-1,1.6206482E1,2.9144917E1,0E0,5.0979614E-2,0E0,0E0,0E0,0E0,0E0,0E0],"parents":[2147483647,0,0,2,2,3,3,4,4,5,5,6,6,8,8],"right_children":[2,-1,4,6,8,10,12,-1,14,-1,-1,-1,-1,-1,-1],"split_conditions":[1E0,-6.407555E-2,1E0,1E0,8E-2,-6.188891E1,5.4731857E1,1.1551944E-2,3E0,8.743035E-2,6.2766634E-2,2.8839542E-2,-1.66743E-2,-6.2674455E-2,-4.829217E-2],"split_indices":[17,0,35,16,6,3,0,0,11,0,0,0,0,0,0],"split_type":[0,0,0,0,0,0,0,0,0,0,0,0,0,0,0],"sum_hessian":[3.125875E3,1.1169805E3,2.0088944E3,1.7084841E3,3.0041028E2,1.1010133E3,6.074709E2,1.1289375E0,2.9928134E2,5.5555286E2,5.454604E2,3.8781696E2,2.1965393E2,2.7772357E2,2.1557768E1],"tree_param":{"num_deleted":"0","num_feature":"38","num_nodes":"15","size_leaf_vector":"1"}},{"base_weights":[-7.39611E-3,-5.1594015E-2,1.4015641E0,-5.0375152E-2,1.9866048E0,2.411159E0,1.3290071E0,2.5732744E-1,1.4497885E-1,1.6822009E-1,2.5271052E-2],"categories":[],"categories_nodes":[],"categories_segments":[],"categories_sizes":[],"default_left":[0,0,0,0,0,0,0,0,0,0,0],"id":30,"left_children":[1,-1,3,-1,5,7,9,-1,-1,-1,-1],"loss_changes":[4.2977094E2,0E0,1.783212E2,0E0,3.0830566E1,7.623535E0,1.8603073E1,0E0,0E0,0E0,0E0],"parents":[2147483647,0,0,2,2,4,4,5,5,6,6],"right_children":[2,-1,4,-1,6,8,10,-1,-1,-1,-1],"split_conditions":[1E0,-5.1594015E-2,1E0,-5.0375152E-2,-2.57E2,8E-1,1E0,2.5732744E-1,1.4497885E-1,1.6822009E-1,2.5271052E-2],"split_indices":[35,0,17,0,37,19,16,0,0,0,0],"split_type":[0,0,0,0,0,0,0,0,0,0,0],"sum_hessian":[5.977953E2,4.3971884E2,1.580764E2,3.716834E1,1.20908066E2,7.1852486E1,4.905558E1,6.004967E1,1.1802819E1,3.651123E1,1.2544347E1],"tree_param":{"num_deleted":"0","num_feature":"38","num_nodes":"11","size_leaf_vector":"1"}},{"base_weights":[7.7488315E-3,-4.7938664E-2,2.793813E-1,9.69753E-1,1.7451726E-1,-3.063171E-2,1.6230294E0,-3.973666E-2,2.538399E-1,2.3727237E-1,1.6011825E-2,1.1432319E-1,1.4650011E-2],"categories":[],"categories_nodes":[],"categories_segments":[],"categories_sizes":[],"default_left":[0,0,0,0,0,0,0,0,0,0,0,0,0],"id":31,"left_children":[1,-1,3,5,7,-1,9,-1,11,-1,-1,-1,-1],"loss_changes":[8.313439E0,0E0,2.7495697E0,4.746202E0,1.7439575E0,0E0,3.491519E0,0E0,2.927454E0,0E0,0E0,0E0,0E0],"parents":[2147483647,0,0,2,2,3,3,4,4,6,6,8,8],"right_children":[2,-1,4,6,8,-1,10,-1,12,-1,-1,-1,-1],"split_conditions":[1E0,-4.7938664E-2,-1.474E3,3.878401E-1,-5.6E2,-3.063171E-2,2.973162E2,-3.973666E-2,-3.44E2,2.3727237E-1,1.6011825E-2,1.1432319E-1,1.4650011E-2],"split_indices":[16,0,37,4,37,0,1,0,37,0,0,0,0],"split_type":[0,0,0,0,0,0,0,0,0,0,0,0,0],"sum_hessian":[6.081526E1,2.1497543E1,3.931772E1,4.097057E0,3.522066E1,1.5670953E0,2.5299618E0,3.8017933E0,3.1418869E1,1.261543E0,1.2684188E0,2.3442652E0,2.9074604E1],"tree_param":{"num_deleted":"0","num_feature":"38","num_nodes":"13","size_leaf_vector":"1"}},{"base_weights":[6.3886545E-3,1.3085194E0,-1.2709567E-1,2.0466177E0,-3.8141694E-2,-5.4472417E-2,-4.752965E-2,2.5911787E0,-2.890995E-2,-2.364996E-1,9.10233E-2,3.082608E-1,1.9810954E-2,-4.3047614E-2,-2.1380936E-3,5.0929703E-2,-4.6258327E-3],"categories":[],"categories_nodes":[],"categories_segments":[],"categories_sizes":[],"default_left":[0,0,0,0,0,0,0,0,0,0,0,0,0,0,0,0,0],"id":32,"left_children":[1,3,5,7,-1,9,-1,11,-1,13,15,-1,-1,-1,-1,-1,-1],"loss_changes":[2.0106855E1,1.4196472E1,2.6284819E0,1.0470657E1,0E0,2.3516736E0,0E0,6.7963905E0,0E0,1.6333127E0,2.8728106E0,0E0,0E0,0E0,0E0,0E0,0E0],"parents":[2147483647,0,0,1,1,2,2,3,3,5,5,7,7,9,9,10,10],"right_children":[2,4,6,8,-1,10,-1,12,-1,14,16,-1,-1,-1,-1,-1,-1],"split_conditions":[2.6E-1,9.7596245E1,3E0,1E0,-3.8141694E-2,6E-1,-4.752965E-2,5E-1,-2.890995E-2,-9E0,1E0,3.082608E-1,1.9810954E-2,-4.3047614E-2,-2.1380936E-3,5.0929703E-2,-4.6258327E-3],"split_indices":[5,3,26,29,0,19,0,19,0,36,14,0,0,0,0,0,0],"split_type":[0,0,0,0,0,0,0,0,0,0,0,0,0,0,0,0,0],"sum_hessian":[1.1372345E2,9.755584E0,1.03967865E2,6.6430826E0,3.1125014E0,8.69826E1,1.6985273E1,5.298412E0,1.3446707E0,3.836248E1,4.8620113E1,4.156677E0,1.1417353E0,1.9646107E1,1.8716375E1,1.1344743E1,3.7275368E1],"tree_param":{"num_deleted":"0","num_feature":"38","num_nodes":"17","size_leaf_vector":"1"}},{"base_weights":[2.0292823E-3,-5.7124305E-1,3.161854E-1,-5.725736E-2,-4.6271677E-3,4.6889076E-1,-5.675167E-1,6.7928493E-1,7.771741E-2,-2.6567844E-1,-5.724057E-2,5.1244862E-2,8.6132646E-2,-4.13002E-3,2.281586E-2,-4.2871356E-2,1.4184815E-2],"categories":[],"categories_nodes":[],"categories_segments":[],"categories_sizes":[],"default_left":[0,0,0,0,0,0,0,0,0,0,0,0,0,0,0,0,0],"id":33,"left_children":[1,3,5,-1,-1,7,9,11,13,15,-1,-1,-1,-1,-1,-1,-1],"loss_changes":[3.7467593E2,4.879303E-1,1.8162369E2,0E0,0E0,9.430147E1,1.408081E-1,2.2196136E1,7.2090015E0,3.949864E-1,0E0,0E0,0E0,0E0,0E0,0E0,0E0],"parents":[2147483647,0,0,1,1,2,2,5,5,6,6,7,7,8,8,9,9],"right_children":[2,4,6,-1,-1,8,10,12,14,16,-1,-1,-1,-1,-1,-1,-1],"split_conditions":[1E0,1E1,1E0,-5.725736E-2,-4.6271677E-3,1E0,-2.9E2,-5.0511055E1,2E0,8.6E-1,-5.724057E-2,5.1244862E-2,8.6132646E-2,-4.13002E-3,2.281586E-2,-4.2871356E-2,1.4184815E-2],"split_indices":[17,14,35,0,0,16,36,3,17,5,0,0,0,0,0,0,0],"split_type":[0,0,0,0,0,0,0,0,0,0,0,0,0,0,0,0,0],"sum_hessian":[2.0784087E3,7.354821E2,1.3429266E3,7.335323E2,1.9498353E0,1.1454586E3,1.9746796E2,7.443633E2,4.0109537E2,4.0296264E0,1.9343832E2,3.903931E2,3.5397018E2,2.2434007E2,1.7675528E2,2.8410473E0,1.1885788E0],"tree_param":{"num_deleted":"0","num_feature":"38","num_nodes":"17","size_leaf_vector":"1"}},{"base_weights":[-5.9293066E-3,-5.1282037E-2,1.4001938E0,-4.984112E-2,1.9848917E0,2.5550942E0,1.7173715E0,2.9319823E-1,9.274947E-2,1.9134639E-1,8.3762586E-2],"categories":[],"categories_nodes":[],"categories_segments":[],"categories_sizes":[],"default_left":[0,0,0,0,0,0,0,0,0,0,0],"id":34,"left_children":[1,-1,3,-1,5,7,9,-1,-1,-1,-1],"loss_changes":[3.590191E2,0E0,1.4915436E2,0E0,1.12083435E1,1.6051819E1,1.0929031E1,0E0,0E0,0E0,0E0],"parents":[2147483647,0,0,2,2,4,4,5,5,6,6],"right_children":[2,-1,4,-1,6,8,10,-1,-1,-1,-1],"split_conditions":[1E0,-5.1282037E-2,1E0,-4.984112E-2,-1.5193727E2,1.7E1,2E0,2.9319823E-1,9.274947E-2,1.9134639E-1,8.3762586E-2],"split_indices":[35,0,17,0,2,36,14,0,0,0,0],"split_type":[0,0,0,0,0,0,0,0,0,0,0],"sum_hessian":[5.017014E2,3.692326E2,1.3246878E2,3.1224745E1,1.0124403E2,2.960077E1,7.1643265E1,2.3384441E1,6.2163305E0,5.7624035E1,1.4019229E1],"tree_param":{"num_deleted":"0","num_feature":"38","num_nodes":"11","size_leaf_vector":"1"}},{"base_weights":[1.0413555E-3,-6.5332316E-2,3.5988474E-1,5.255808E-1,-6.0615134E-1,7.6212484E-1,8.660817E-2,-6.118324E-1,-1.5265025E-1,7.11737E-2,8.872604E-2,2.6374469E-2,-1.5151967E-2,-6.146119E-2,-2.754278E-2,-4.9655605E-2,5.4184545E-2],"categories":[],"categories_nodes":[],"categories_segments":[],"categories_sizes":[],"default_left":[0,0,0,0,0,0,0,0,0,0,0,0,0,0,0,0,0],"id":35,"left_children":[1,-1,3,5,7,9,11,13,15,-1,-1,-1,-1,-1,-1,-1,-1],"loss_changes":[7.6635583E2,0E0,3.3770856E2,1.8681061E2,7.028351E-1,6.7418213E0,2.667029E1,1.1582947E-1,1.5005654E0,0E0,0E0,0E0,0E0,0E0,0E0,0E0,0E0],"parents":[2147483647,0,0,2,2,3,3,4,4,5,5,6,6,7,7,8,8],"right_children":[2,-1,4,6,8,10,12,14,16,-1,-1,-1,-1,-1,-1,-1,-1],"split_conditions":[1E0,-6.5332316E-2,1E0,1E0,7E0,5.8E1,2E0,6.9877344E2,1E0,7.11737E-2,8.872604E-2,2.6374469E-2,-1.5151967E-2,-6.146119E-2,-2.754278E-2,-4.9655605E-2,5.4184545E-2],"split_indices":[16,0,35,17,24,36,17,2,9,0,0,0,0,0,0,0,0],"split_type":[0,0,0,0,0,0,0,0,0,0,0,0,0,0,0,0,0],"sum_hessian":[3.2616653E3,1.154879E3,2.1067864E3,1.7987224E3,3.080638E2,1.1683898E3,6.3033264E2,3.0390765E2,4.156184E0,8.377459E2,3.306439E2,3.6139423E2,2.6893842E2,3.0059692E2,3.3107214E0,2.970327E0,1.1858575E0],"tree_param":{"num_deleted":"0","num_feature":"38","num_nodes":"17","size_leaf_vector":"1"}},{"base_weights":[2.551295E-3,-5.7068475E-2,3.11121E-1,4.568066E-1,-5.599802E-1,5.974542E-1,1.9960229E-1,-5.648755E-2,-3.3625507E-1,6.2034465E-2,-8.534584E-3,1.8618008E-2,1.1215883E-1,-4.7030352E-2,1.56903E-2],"categories":[],"categories_nodes":[],"categories_segments":[],"categories_sizes":[],"default_left":[0,0,0,0,0,0,0,0,0,0,0,0,0,0,0],"id":36,"left_children":[1,-1,3,5,7,9,11,-1,13,-1,-1,-1,-1,-1,-1],"loss_changes":[3.6072128E2,0E0,1.684958E2,4.0986557E1,1.8577576E-2,1.1526581E1,4.7808685E0,0E0,5.066335E-1,0E0,0E0,0E0,0E0,0E0,0E0],"parents":[2147483647,0,0,2,2,3,3,4,4,5,5,6,6,8,8],"right_children":[2,-1,4,6,8,10,12,-1,14,-1,-1,-1,-1,-1,-1],"split_conditions":[1E0,-5.7068475E-2,1E0,1E0,2.07E2,5.79E2,2.24E2,-5.648755E-2,1E-1,6.2034465E-2,-8.534584E-3,1.8618008E-2,1.1215883E-1,-4.7030352E-2,1.56903E-2],"split_indices":[16,0,35,17,7,8,8,0,25,0,0,0,0,0,0],"split_type":[0,0,0,0,0,0,0,0,0,0,0,0,0,0,0],"sum_hessian":[2.0373148E3,7.12619E2,1.3246958E3,1.1353003E3,1.893955E2,7.330966E2,4.022037E2,1.8384792E2,5.547584E0,7.094057E2,2.3690908E1,3.9761716E2,4.5865574E0,4.398377E0,1.1492071E0],"tree_param":{"num_deleted":"0","num_feature":"38","num_nodes":"15","size_leaf_vector":"1"}},{"base_weights":[1.1390631E-2,-4.100683E-2,1.02784395E-1],"categories":[],"categories_nodes":[],"categories_segments":[],"categories_sizes":[],"default_left":[0,0,0],"id":37,"left_children":[1,-1,-1],"loss_changes":[3.3525693E0,0E0,0E0],"parents":[2147483647,0,0],"right_children":[2,-1,-1],"split_conditions":[3E0,-4.100683E-2,1.02784395E-1],"split_indices":[26,0,0],"split_type":[0,0,0],"sum_hessian":[5.8420377E0,4.5514207E0,1.2906168E0],"tree_param":{"num_deleted":"0","num_feature":"38","num_nodes":"3","size_leaf_vector":"1"}},{"base_weights":[-6.035005E-3,-5.068604E-2,1.3717432E0,-4.85072E-2,1.9399195E0,2.2661972E0,1.0151955E0,2.4952208E-1,9.8173E-2,1.4404906E-1,-1.1322444E-2],"categories":[],"categories_nodes":[],"categories_segments":[],"categories_sizes":[],"default_left":[0,0,0,0,0,0,0,0,0,0,0],"id":38,"left_children":[1,-1,3,-1,5,7,9,-1,-1,-1,-1],"loss_changes":[2.2519737E2,0E0,9.273335E1,0E0,1.7860489E1,1.1841858E1,9.396307E0,0E0,0E0,0E0,0E0],"parents":[2147483647,0,0,2,2,4,4,5,5,6,6],"right_children":[2,-1,4,-1,6,8,10,-1,-1,-1,-1],"split_conditions":[1E0,-5.068604E-2,1E0,-4.85072E-2,6.666667E-1,2E0,9E1,2.4952208E-1,9.8173E-2,1.4404906E-1,-1.1322444E-2],"split_indices":[35,0,17,0,20,14,7,0,0,0,0],"split_type":[0,0,0,0,0,0,0,0,0,0,0],"sum_hessian":[3.2435297E2,2.3834584E2,8.600712E1,2.0185762E1,6.582135E1,4.758196E1,1.8239391E1,3.9581818E1,8.000144E0,1.3045906E1,5.1934853E0],"tree_param":{"num_deleted":"0","num_feature":"38","num_nodes":"11","size_leaf_vector":"1"}},{"base_weights":[-7.021712E-3,-5.157578E-2,1.409873E0,-5.038942E-2,2.0275536E0,2.4314597E-1,2.1678243E0,-4.2339113E-2,8.324725E-2,1.7443183E-1,2.6654738E-1],"categories":[],"categories_nodes":[],"categories_segments":[],"categories_sizes":[],"default_left":[0,0,0,0,0,0,0,0,0,0,0],"id":39,"left_children":[1,-1,3,-1,5,7,9,-1,-1,-1,-1],"loss_changes":[4.2771774E2,0E0,1.8633365E2,0E0,2.9186798E1,4.1933994E0,1.8520203E1,0E0,0E0,0E0,0E0],"parents":[2147483647,0,0,2,2,4,4,5,5,6,6],"right_children":[2,-1,4,-1,6,8,10,-1,-1,-1,-1],"split_conditions":[1E0,-5.157578E-2,1E0,-5.038942E-2,-1.375E3,-2.1438257E2,1.11477104E2,-4.2339113E-2,8.324725E-2,1.7443183E-1,2.6654738E-1],"split_indices":[35,0,16,0,37,3,2,0,0,0,0],"split_type":[0,0,0,0,0,0,0,0,0,0,0],"sum_hessian":[5.9136334E2,4.355979E2,1.5576544E2,3.8052174E1,1.1771327E2,8.778155E0,1.0893512E2,4.2513657E0,4.52679E0,6.1285492E1,4.7649628E1],"tree_param":{"num_deleted":"0","num_feature":"38","num_nodes":"11","size_leaf_vector":"1"}},{"base_weights":[-6.1010034E-3,-5.1114168E-2,1.3912207E0,-4.957328E-2,1.9962475E0,2.1202514E0,7.542556E-1,2.3409338E-1,1.4059407E-1,8.125036E-3,2.0720673E-1],"categories":[],"categories_nodes":[],"categories_segments":[],"categories_sizes":[],"default_left":[0,0,0,0,0,0,0,0,0,0,0],"id":40,"left_children":[1,-1,3,-1,5,7,9,-1,-1,-1,-1],"loss_changes":[3.1950943E2,0E0,1.3821484E2,0E0,1.2448914E1,9.695129E0,8.552048E0,0E0,0E0,0E0,0E0],"parents":[2147483647,0,0,2,2,4,4,5,5,6,6],"right_children":[2,-1,4,-1,6,8,10,-1,-1,-1,-1],"split_conditions":[1E0,-5.1114168E-2,1E0,-4.957328E-2,2E0,2.1818872E2,9.593253E1,2.3409338E-1,1.4059407E-1,8.125036E-3,2.0720673E-1],"split_indices":[35,0,16,0,17,1,0,0,0,0,0],"split_type":[0,0,0,0,0,0,0,0,0,0,0],"sum_hessian":[4.507449E2,3.315466E2,1.1919828E2,2.898396E1,9.0214325E1,8.1381805E1,8.8325205E0,6.0433895E1,2.0947906E1,6.549402E0,2.2831182E0],"tree_param":{"num_deleted":"0","num_feature":"38","num_nodes":"11","size_leaf_vector":"1"}},{"base_weights":[-4.988615E-3,-5.053234E-2,1.3778957E0,-4.8131075E-2,1.976209E0,2.0080985E-1,2.1027818E0,-3.177586E-2,5.474494E-2,2.1849196E-1,-3.2022413E-2],"categories":[],"categories_nodes":[],"categories_segments":[],"categories_sizes":[],"default_left":[0,0,0,0,0,0,0,0,0,0,0],"id":41,"left_children":[1,-1,3,-1,5,7,9,-1,-1,-1,-1],"loss_changes":[1.9593443E2,0E0,8.464354E1,0E0,1.2412506E1,1.0559298E0,1.1289307E1,0E0,0E0,0E0,0E0],"parents":[2147483647,0,0,2,2,4,4,5,5,6,6],"right_children":[2,-1,4,-1,6,8,10,-1,-1,-1,-1],"split_conditions":[1E0,-5.053234E-2,1E0,-4.8131075E-2,8E0,2E0,2.26E2,-3.177586E-2,5.474494E-2,2.1849196E-1,-3.2022413E-2],"split_indices":[35,0,16,0,8,23,36,0,0,0,0],"split_type":[0,0,0,0,0,0,0,0,0,0,0],"sum_hessian":[2.8117474E2,2.0693806E2,7.423668E1,1.812144E1,5.6115242E1,3.9064918E0,5.220875E1,1.5984892E0,2.3080027E0,5.0591984E1,1.6167659E0],"tree_param":{"num_deleted":"0","num_feature":"38","num_nodes":"11","size_leaf_vector":"1"}},{"base_weights":[1.1810801E-2,-4.691715E-2,2.6992792E-1,1.41432E-1,1.3654384E-1,6.0828257E-1,-1.770238E-1,-1.9714465E-2,1.067811E-1,-4.426171E-2,8.183013E-3],"categories":[],"categories_nodes":[],"categories_segments":[],"categories_sizes":[],"default_left":[0,0,0,0,0,0,0,0,0,0,0],"id":42,"left_children":[1,-1,3,5,-1,7,9,-1,-1,-1,-1],"loss_changes":[5.570508E0,0E0,3.9131658E0,4.1550593E0,0E0,4.3799195E0,1.2021189E0,0E0,0E0,0E0,0E0],"parents":[2147483647,0,0,2,2,3,3,5,5,6,6],"right_children":[2,-1,4,6,-1,8,10,-1,-1,-1,-1],"split_conditions":[1E0,-4.691715E-2,5.529509E2,3.5988417E-1,1.3654384E-1,-5.91E2,3.3658928E1,-1.9714465E-2,1.067811E-1,-4.426171E-2,8.183013E-3],"split_indices":[17,0,1,4,0,37,2,0,0,0,0],"split_type":[0,0,0,0,0,0,0,0,0,0,0],"sum_hessian":[4.2849186E1,1.4678747E1,2.8170439E1,2.622368E1,1.9467574E0,1.026511E1,1.59585705E1,3.936497E0,6.3286133E0,7.526354E0,8.432217E0],"tree_param":{"num_deleted":"0","num_feature":"38","num_nodes":"11","size_leaf_vector":"1"}},{"base_weights":[7.93738E-4,-6.2881425E-2,3.284032E-1,4.810777E-1,-6.0273486E-1,6.758319E-1,1.1625844E-1,1.1620219E-2,-6.0596406E-1,7.816189E-2,5.555981E-2,2.691449E-2,-1.5981171E-2,-6.1496224E-2,-4.6792816E-2],"categories":[],"categories_nodes":[],"categories_segments":[],"categories_sizes":[],"default_left":[0,0,0,0,0,0,0,0,0,0,0,0,0,0,0],"id":43,"left_children":[1,-1,3,5,7,9,11,-1,13,-1,-1,-1,-1,-1,-1],"loss_changes":[6.4048615E2,0E0,2.9064066E2,1.24632355E2,7.3937225E-1,1.4118286E1,2.5878456E1,0E0,6.87561E-2,0E0,0E0,0E0,0E0,0E0,0E0],"parents":[2147483647,0,0,2,2,3,3,4,4,5,5,6,6,8,8],"right_children":[2,-1,4,6,8,10,12,-1,14,-1,-1,-1,-1,-1,-1],"split_conditions":[1E0,-6.2881425E-2,1E0,1E0,8E-2,-1.8E1,5.4731857E1,1.1620219E-2,3E0,7.816189E-2,5.555981E-2,2.691449E-2,-1.5981171E-2,-6.1496224E-2,-4.6792816E-2],"split_indices":[17,0,35,16,6,36,0,0,11,0,0,0,0,0,0],"split_type":[0,0,0,0,0,0,0,0,0,0,0,0,0,0,0],"sum_hessian":[3.1031523E3,1.0617451E3,2.0414073E3,1.7542537E3,2.8715366E2,1.1431466E3,6.111071E2,1.1275711E0,2.860261E2,6.051811E2,5.379655E2,3.9331567E2,2.1779141E2,2.6527826E2,2.0747814E1],"tree_param":{"num_deleted":"0","num_feature":"38","num_nodes":"15","size_leaf_vector":"1"}},{"base_weights":[-8.800254E-3,-5.1489174E-2,1.1595476E0,-5.023237E-2,1.5693749E0,1.9734633E0,1.1934199E0,2.0219918E-1,-3.098501E-2,1.450382E-1,2.3771917E-2],"categories":[],"categories_nodes":[],"categories_segments":[],"categories_sizes":[],"default_left":[0,0,0,0,0,0,0,0,0,0,0],"id":44,"left_children":[1,-1,3,-1,5,7,9,-1,-1,-1,-1],"loss_changes":[3.5339032E2,0E0,1.2382007E2,0E0,1.969577E1,8.208649E0,1.8742142E1,0E0,0E0,0E0,0E0],"parents":[2147483647,0,0,2,2,4,4,5,5,6,6],"right_children":[2,-1,4,-1,6,8,10,-1,-1,-1,-1],"split_conditions":[1E0,-5.1489174E-2,1E0,-5.023237E-2,-1.5990077E2,6E0,1E0,2.0219918E-1,-3.098501E-2,1.450382E-1,2.3771917E-2],"split_indices":[35,0,17,0,3,21,16,0,0,0,0],"split_type":[0,0,0,0,0,0,0,0,0,0,0],"sum_hessian":[5.9564935E2,4.1600735E2,1.7964198E2,3.5492477E1,1.441495E2,6.742731E1,7.67222E1,6.613613E1,1.2911762E0,6.005691E1,1.6665287E1],"tree_param":{"num_deleted":"0","num_feature":"38","num_nodes":"11","size_leaf_vector":"1"}},{"base_weights":[1.1154085E-2,-4.781555E-2,2.6617727E-1,9.4849557E-1,1.6315877E-1,-3.109683E-2,1.6141869E0,1.15016475E-1,1.00015074E-1,2.3307084E-1,1.655597E-2,2.4735969E-2,-3.415252E-2],"categories":[],"categories_nodes":[],"categories_segments":[],"categories_sizes":[],"default_left":[0,0,0,0,0,0,0,0,0,0,0,0,0],"id":45,"left_children":[1,-1,3,5,7,-1,9,-1,11,-1,-1,-1,-1],"loss_changes":[7.789563E0,0E0,2.727756E0,4.8378806E0,2.1807323E0,0E0,3.2935781E0,0E0,2.4081626E0,0E0,0E0,0E0,0E0],"parents":[2147483647,0,0,2,2,3,3,4,4,6,6,8,8],"right_children":[2,-1,4,6,8,-1,10,-1,12,-1,-1,-1,-1],"split_conditions":[1E0,-4.781555E-2,-1E0,5E-1,-4.399374E2,-3.109683E-2,-1.1262763E1,1.15016475E-1,2E0,2.3307084E-1,1.655597E-2,2.4735969E-2,-3.415252E-2],"split_indices":[16,0,11,19,3,0,1,0,15,0,0,0,0],"split_type":[0,0,0,0,0,0,0,0,0,0,0,0,0],"sum_hessian":[6.040379E1,2.0395761E1,4.0008026E1,4.1715717E0,3.5836456E1,1.6267271E0,2.5448446E0,1.1196742E0,3.471678E1,1.2952691E0,1.2495755E0,2.6360054E1,8.356727E0],"tree_param":{"num_deleted":"0","num_feature":"38","num_nodes":"13","size_leaf_vector":"1"}},{"base_weights":[8.208421E-3,1.115249E0,-1.2084049E-1,1.6493411E0,-3.773466E-2,-4.965529E-2,-4.7389474E-2,2.0117307E0,-2.8514761E-2,-8.827953E-2,6.096831E-1,2.5251272E-1,3.374408E-2,-1.4664103E-2,3.6194522E-2,-2.8868908E-2,1.0251828E-1],"categories":[],"categories_nodes":[],"categories_segments":[],"categories_sizes":[],"default_left":[0,0,0,0,0,0,0,0,0,0,0,0,0,0,0,0,0],"id":46,"left_children":[1,3,5,7,-1,9,-1,11,-1,13,15,-1,-1,-1,-1,-1,-1],"loss_changes":[1.6463211E1,1.0212696E1,2.5717406E0,6.9153175E0,0E0,2.2707899E0,0E0,5.8036175E0,0E0,2.23687E0,2.1414032E0,0E0,0E0,0E0,0E0,0E0,0E0],"parents":[2147483647,0,0,1,1,2,2,3,3,5,5,7,7,9,9,10,10],"right_children":[2,4,6,8,-1,10,-1,12,-1,14,16,-1,-1,-1,-1,-1,-1],"split_conditions":[2.6E-1,9.7596245E1,3E0,1E0,-3.773466E-2,5E0,-4.7389474E-2,6E-1,-2.8514761E-2,1.35E2,-5.0422527E1,2.5251272E-1,3.374408E-2,-1.4664103E-2,3.6194522E-2,-2.8868908E-2,1.0251828E-1],"split_indices":[5,3,26,29,0,23,0,20,0,7,2,0,0,0,0,0,0],"split_type":[0,0,0,0,0,0,0,0,0,0,0,0,0,0,0,0,0],"sum_hessian":[1.1329493E2,1.1030258E1,1.0226467E2,8.046119E0,2.9841392E0,8.6054436E1,1.6210236E1,6.743015E0,1.3031042E0,8.211049E1,3.9439485E0,4.7716727E0,1.9713417E0,7.328503E1,8.8254595E0,1.3437535E0,2.600195E0],"tree_param":{"num_deleted":"0","num_feature":"38","num_nodes":"17","size_leaf_vector":"1"}},{"base_weights":[3.0060278E-3,-5.659103E-1,2.922869E-1,-5.673029E-2,-4.180931E-3,4.2835605E-1,-5.623711E-1,6.10686E-1,7.415241E-2,-2.5581175E-1,-5.674703E-2,2.0589365E-2,6.6924036E-2,-3.6317091E-3,2.1011168E-2,-4.2173997E-2,1.4714408E-2],"categories":[],"categories_nodes":[],"categories_segments":[],"categories_sizes":[],"default_left":[0,0,0,0,0,0,0,0,0,0,0,0,0,0,0,0,0],"id":47,"left_children":[1,3,5,-1,-1,7,9,11,13,15,-1,-1,-1,-1,-1,-1,-1],"loss_changes":[3.4086728E2,4.8583984E-1,1.5991272E2,0E0,0E0,7.648508E1,1.5029144E-1,1.840155E1,6.0730505E0,3.9056498E-1,0E0,0E0,0E0,0E0,0E0,0E0,0E0],"parents":[2147483647,0,0,1,1,2,2,5,5,6,6,7,7,8,8,9,9],"right_children":[2,4,6,-1,-1,8,10,12,14,16,-1,-1,-1,-1,-1,-1,-1],"split_conditions":[1E0,1E1,1E0,-5.673029E-2,-4.180931E-3,1E0,-2.9E2,-2.2330746E2,2E0,2E0,-5.674703E-2,2.0589365E-2,6.6924036E-2,-3.6317091E-3,2.1011168E-2,-4.2173997E-2,1.4714408E-2],"split_indices":[17,14,35,0,0,16,36,0,17,15,0,0,0,0,0,0,0],"split_type":[0,0,0,0,0,0,0,0,0,0,0,0,0,0,0,0,0],"sum_hessian":[2.0691719E3,6.9715356E2,1.3720183E3,6.952239E2,1.9296826E0,1.184012E3,1.8800641E2,7.8117163E2,4.0284024E2,3.9132497E0,1.8409317E2,9.9289474E1,6.818822E2,2.2265869E2,1.8018155E2,2.7388406E0,1.1744092E0],"tree_param":{"num_deleted":"0","num_feature":"38","num_nodes":"17","size_leaf_vector":"1"}},{"base_weights":[-6.7399447E-3,-5.119353E-2,1.1575365E0,-4.9703132E-2,1.5654596E0,1.5921714E0,-3.2974157E-2,1.7409316E-1,1.0929314E-1],"categories":[],"categories_nodes":[],"categories_segments":[],"categories_sizes":[],"default_left":[0,0,0,0,0,0,0,0,0],"id":48,"left_children":[1,-1,3,-1,5,7,-1,-1,-1],"loss_changes":[2.9546698E2,0E0,1.0337669E2,0E0,6.7106934E0,7.058441E0,0E0,0E0,0E0],"parents":[2147483647,0,0,2,2,4,4,5,5],"right_children":[2,-1,4,-1,6,8,-1,-1,-1],"split_conditions":[1E0,-5.119353E-2,1E0,-4.9703132E-2,5E0,1.6E1,-3.2974157E-2,1.7409316E-1,1.0929314E-1],"split_indices":[35,0,17,0,10,36,0,0,0],"split_type":[0,0,0,0,0,0,0,0,0],"sum_hessian":[5.003275E2,3.4931522E2,1.510123E2,2.9824272E1,1.21188034E2,1.1966136E2,1.5266675E0,9.027476E1,2.938661E1],"tree_param":{"num_deleted":"0","num_feature":"38","num_nodes":"9","size_leaf_vector":"1"}},{"base_weights":[6.2008144E-4,-6.399589E-2,3.3018586E-1,4.7829643E-1,-5.9223396E-1,6.855111E-1,8.174317E-2,-5.980488E-1,-1.4126383E-1,6.40547E-2,7.9672314E-2,2.4539283E-2,-1.4315675E-2,-6.009003E-2,-2.6131874E-2,-4.851986E-2,5.27624E-2],"categories":[],"categories_nodes":[],"categories_segments":[],"categories_sizes":[],"default_left":[0,0,0,0,0,0,0,0,0,0,0,0,0,0,0,0,0],"id":49,"left_children":[1,-1,3,5,7,9,11,13,15,-1,-1,-1,-1,-1,-1,-1,-1],"loss_changes":[6.8362714E2,0E0,2.9239905E2,1.5137756E2,6.9242096E-1,5.541748E0,2.3355429E1,1.235199E-1,1.4248384E0,0E0,0E0,0E0,0E0,0E0,0E0,0E0,0E0],"parents":[2147483647,0,0,2,2,3,3,4,4,5,5,6,6,7,7,8,8],"right_children":[2,-1,4,6,8,10,12,14,16,-1,-1,-1,-1,-1,-1,-1,-1],"split_conditions":[1E0,-6.399589E-2,1E0,1E0,7E0,5.8E1,2E0,6.9877344E2,1E0,6.40547E-2,7.9672314E-2,2.4539283E-2,-1.4315675E-2,-6.009003E-2,-2.6131874E-2,-4.851986E-2,5.27624E-2],"split_indices":[16,0,35,17,24,36,17,2,9,0,0,0,0,0,0,0,0],"split_type":[0,0,0,0,0,0,0,0,0,0,0,0,0,0,0,0,0],"sum_hessian":[3.236205E3,1.0990443E3,2.1371606E3,1.841894E3,2.9526666E2,1.2092728E3,6.326213E2,2.9118597E2,4.080707E0,8.6592883E2,3.433439E2,3.6612057E2,2.6650073E2,2.8796295E2,3.2230182E0,2.876342E0,1.2043649E0],"tree_param":{"num_deleted":"0","num_feature":"38","num_nodes":"17","size_leaf_vector":"1"}},{"base_weights":[3.8336008E-3,-5.656069E-2,2.8842777E-1,4.18637E-1,-5.5484384E-1,5.4193205E-1,1.8679346E-1,-5.599312E-2,-3.275425E-1,5.958742E-2,2.9505817E-2,2.7721126E-2,6.345664E-3,1.537242E-2,-4.6353128E-2],"categories":[],"categories_nodes":[],"categories_segments":[],"categories_sizes":[],"default_left":[0,0,0,0,0,0,0,0,0,0,0,0,0,0,0],"id":50,"left_children":[1,-1,3,5,7,9,11,-1,13,-1,-1,-1,-1,-1,-1],"loss_changes":[3.2908878E2,0E0,1.4890045E2,3.344162E1,2.6512146E-2,1.0018585E1,4.5425463E0,0E0,4.8903626E-1,0E0,0E0,0E0,0E0,0E0,0E0],"parents":[2147483647,0,0,2,2,3,3,4,4,5,5,6,6,8,8],"right_children":[2,-1,4,6,8,10,12,-1,14,-1,-1,-1,-1,-1,-1],"split_conditions":[1E0,-5.656069E-2,1E0,1E0,2.07E2,8.7E1,2E0,-5.599312E-2,2.22E2,5.958742E-2,2.9505817E-2,2.7721126E-2,6.345664E-3,1.537242E-2,-4.6353128E-2],"split_indices":[16,0,35,17,7,36,17,0,7,0,0,0,0,0,0],"split_type":[0,0,0,0,0,0,0,0,0,0,0,0,0,0,0],"sum_hessian":[2.0286602E3,6.7569135E2,1.3529688E3,1.1724368E3,1.8053195E2,7.645236E2,4.0791318E2,1.7514845E2,5.383503E0,6.262695E2,1.3825417E2,2.3464684E2,1.7326634E2,1.1573175E0,4.226186E0],"tree_param":{"num_deleted":"0","num_feature":"38","num_nodes":"15","size_leaf_vector":"1"}},{"base_weights":[1.6468596E-2,-4.0656038E-2,9.395649E-2],"categories":[],"categories_nodes":[],"categories_segments":[],"categories_sizes":[],"default_left":[0,0,0],"id":51,"left_children":[1,-1,-1],"loss_changes":[3.027511E0,0E0,0E0],"parents":[2147483647,0,0],"right_children":[2,-1,-1],"split_conditions":[3E0,-4.0656038E-2,9.395649E-2],"split_indices":[26,0,0],"split_type":[0,0,0],"sum_hessian":[5.7747645E0,4.343726E0,1.4310381E0],"tree_param":{"num_deleted":"0","num_feature":"38","num_nodes":"3","size_leaf_vector":"1"}},{"base_weights":[-6.575731E-3,-5.062406E-2,1.1337996E0,-4.836268E-2,1.5302325E0,1.691807E-1,1.6597114E0,1.1497053E-1,-2.7579093E-2,-1.0752949E-2,1.7283694E-1],"categories":[],"categories_nodes":[],"categories_segments":[],"categories_sizes":[],"default_left":[0,0,0,0,0,0,0,0,0,0,0],"id":52,"left_children":[1,-1,3,-1,5,7,9,-1,-1,-1,-1],"loss_changes":[1.8560988E2,0E0,6.43758E1,0E0,1.3808258E1,3.8330064E0,9.029953E0,0E0,0E0,0E0,0E0],"parents":[2147483647,0,0,2,2,4,4,5,5,6,6],"right_children":[2,-1,4,-1,6,8,10,-1,-1,-1,-1],"split_conditions":[1E0,-5.062406E-2,1E0,-4.836268E-2,-3.9677008E2,1E0,1.4E-1,1.1497053E-1,-2.7579093E-2,-1.0752949E-2,1.7283694E-1],"split_indices":[35,0,17,0,3,22,5,0,0,0,0],"split_type":[0,0,0,0,0,0,0,0,0,0,0],"sum_hessian":[3.2373523E2,2.2549068E2,9.824454E1,1.929638E1,7.894816E1,7.058406E0,7.1889755E1,1.7089185E0,5.349488E0,2.6673288E0,6.922243E1],"tree_param":{"num_deleted":"0","num_feature":"38","num_nodes":"11","size_leaf_vector":"1"}},{"base_weights":[-8.746043E-3,-5.1471926E-2,1.1643028E0,-5.024476E-2,1.5940901E0,2.2241826E-1,1.6856256E0,-4.2007983E-2,7.394194E-2,1.4255778E-1,2.1119443E-1],"categories":[],"categories_nodes":[],"categories_segments":[],"categories_sizes":[],"default_left":[0,0,0,0,0,0,0,0,0,0,0],"id":53,"left_children":[1,-1,3,-1,5,7,9,-1,-1,-1,-1],"loss_changes":[3.50962E2,0E0,1.2844987E2,0E0,1.7442139E1,3.6420565E0,1.1720184E1,0E0,0E0,0E0,0E0],"parents":[2147483647,0,0,2,2,4,4,5,5,6,6],"right_children":[2,-1,4,-1,6,8,10,-1,-1,-1,-1],"split_conditions":[1E0,-5.1471926E-2,1E0,-5.024476E-2,-1.375E3,-2.1438257E2,2.703236E2,-4.2007983E-2,7.394194E-2,1.4255778E-1,2.1119443E-1],"split_indices":[35,0,16,0,37,3,3,0,0,0,0],"split_type":[0,0,0,0,0,0,0,0,0,0,0],"sum_hessian":[5.89302E2,4.1210797E2,1.7719403E2,3.6289864E1,1.4090417E2,9.029261E0,1.3187491E2,4.1095834E0,4.919677E0,8.4608795E1,4.7266113E1],"tree_param":{"num_deleted":"0","num_feature":"38","num_nodes":"11","size_leaf_vector":"1"}},{"base_weights":[-6.943652E-3,-5.103388E-2,1.1496919E0,-4.9434286E-2,1.5701413E0,-1.2697542E-1,1.6155432E0,-3.4060102E-2,2.2679364E-2,1.6465783E-1,-3.1882074E-2],"categories":[],"categories_nodes":[],"categories_segments":[],"categories_sizes":[],"default_left":[0,0,0,0,0,0,0,0,0,0,0],"id":54,"left_children":[1,-1,3,-1,5,7,9,-1,-1,-1,-1],"loss_changes":[2.6295453E2,0E0,9.544316E1,0E0,8.627075E0,3.6254004E-1,6.920044E0,0E0,0E0,0E0,0E0],"parents":[2147483647,0,0,2,2,4,4,5,5,6,6],"right_children":[2,-1,4,-1,6,8,10,-1,-1,-1,-1],"split_conditions":[1E0,-5.103388E-2,1E0,-4.9434286E-2,-2.5914188E2,-2.3252953E1,5.5894836E2,-3.4060102E-2,2.2679364E-2,1.6465783E-1,-3.1882074E-2],"split_indices":[35,0,16,0,0,1,0,0,0,0,0],"split_type":[0,0,0,0,0,0,0,0,0,0,0],"sum_hessian":[4.4961432E2,3.1366058E2,1.3595374E2,2.7652315E1,1.08301414E2,2.7750206E0,1.0552639E2,1.7534258E0,1.0215948E0,1.04006485E2,1.5199078E0],"tree_param":{"num_deleted":"0","num_feature":"38","num_nodes":"11","size_leaf_vector":"1"}},{"base_weights":[-5.925689E-3,-5.047561E-2,1.1327406E0,-4.7978293E-2,1.5446812E0,1.6446829E0,2.3275104E-1,1.8846847E-1,9.593698E-2,9.863197E-2,-3.8644936E-2],"categories":[],"categories_nodes":[],"categories_segments":[],"categories_sizes":[],"default_left":[0,0,0,0,0,0,0,0,0,0,0],"id":55,"left_children":[1,-1,3,-1,5,7,9,-1,-1,-1,-1],"loss_changes":[1.6074336E2,0E0,5.8008156E1,0E0,8.657333E0,8.69548E0,3.2019079E0,0E0,0E0,0E0,0E0],"parents":[2147483647,0,0,2,2,4,4,5,5,6,6],"right_children":[2,-1,4,-1,6,8,10,-1,-1,-1,-1],"split_conditions":[1E0,-5.047561E-2,1E0,-4.7978293E-2,4.09E3,1E0,3.9E1,1.8846847E-1,9.593698E-2,9.863197E-2,-3.8644936E-2],"split_indices":[35,0,16,0,37,17,8,0,0,0,0],"split_type":[0,0,0,0,0,0,0,0,0,0,0],"sum_hessian":[2.8099158E2,1.9578027E2,8.521131E1,1.7305397E1,6.7905914E1,6.2860725E1,5.0451884E0,4.526017E1,1.7600554E1,2.00825E0,3.0369387E0],"tree_param":{"num_deleted":"0","num_feature":"38","num_nodes":"11","size_leaf_vector":"1"}},{"base_weights":[1.4410464E-2,-4.674962E-2,2.560108E-1,-3.5756305E-2,6.633258E-1,-2.4543928E-1,4.8528948E-1,1.2670237E0,1.7966181E-1,2.1150054E-2,-3.669649E-2,1.6743973E-1,-1.683323E-2,1.738979E-1,-2.6618052E-2,9.280785E-2,-2.4812877E-2],"categories":[],"categories_nodes":[],"categories_segments":[],"categories_sizes":[],"default_left":[0,0,0,0,0,0,0,0,0,0,0,0,0,0,0,0,0],"id":56,"left_children":[1,-1,3,5,7,9,11,13,15,-1,-1,-1,-1,-1,-1,-1,-1],"loss_changes":[5.1990995E0,0E0,3.553854E0,2.1136637E0,3.407195E0,8.3735025E-1,4.61448E0,4.350068E0,2.8161435E0,0E0,0E0,0E0,0E0,0E0,0E0,0E0,0E0],"parents":[2147483647,0,0,2,2,3,3,4,4,5,5,6,6,7,7,8,8],"right_children":[2,-1,4,6,8,10,12,14,16,-1,-1,-1,-1,-1,-1,-1,-1],"split_conditions":[1E0,-4.674962E-2,2E0,9.1E1,1E0,-2.108666E2,1E-1,2E0,1.2E1,2.1150054E-2,-3.669649E-2,1.6743973E-1,-1.683323E-2,1.738979E-1,-2.6618052E-2,9.280785E-2,-2.4812877E-2],"split_indices":[17,0,23,8,21,2,25,22,7,0,0,0,0,0,0,0,0],"split_type":[0,0,0,0,0,0,0,0,0,0,0,0,0,0,0,0,0],"sum_hessian":[4.2626785E1,1.3922117E1,2.8704666E1,1.7256056E1,1.1448611E1,1.2681588E1,4.5744667E0,4.3719773E0,7.0766344E0,2.5086422E0,1.0172946E1,1.0686297E0,3.505837E0,3.24032E0,1.1316572E0,2.148456E0,4.9281783E0],"tree_param":{"num_deleted":"0","num_feature":"38","num_nodes":"17","size_leaf_vector":"1"}},{"base_weights":[3.566668E-4,-6.181407E-2,3.021906E-1,4.3918478E-1,-5.915599E-1,6.110199E-1,1.0924073E-1,1.1569975E-2,-5.948936E-1,8.8305674E-2,5.7112724E-2,6.2435444E-2,3.4004957E-3,-6.0421027E-2,-4.5357514E-2],"categories":[],"categories_nodes":[],"categories_segments":[],"categories_sizes":[],"default_left":[0,0,0,0,0,0,0,0,0,0,0,0,0,0,0],"id":57,"left_children":[1,-1,3,5,7,9,11,-1,13,-1,-1,-1,-1,-1,-1],"loss_changes":[5.743525E2,0E0,2.5341362E2,1.016102E2,7.177582E-1,1.2290619E1,2.3827068E1,0E0,8.683014E-2,0E0,0E0,0E0,0E0,0E0,0E0],"parents":[2147483647,0,0,2,2,3,3,4,4,5,5,6,6,8,8],"right_children":[2,-1,4,6,8,10,12,-1,14,-1,-1,-1,-1,-1,-1],"split_conditions":[1E0,-6.181407E-2,1E0,1E0,8E-2,-2.2673381E2,-1.7236209E2,1.1569975E-2,3E0,8.8305674E-2,5.7112724E-2,6.2435444E-2,3.4004957E-3,-6.0421027E-2,-4.5357514E-2],"split_indices":[17,0,35,16,6,0,0,0,11,0,0,0,0,0,0],"split_type":[0,0,0,0,0,0,0,0,0,0,0,0,0,0,0],"sum_hessian":[3.0746104E3,1.00801245E3,2.066598E3,1.7923716E3,2.7422635E2,1.1780107E3,6.1436084E2,1.128397E0,2.7309793E2,1.4795285E2,1.0300579E3,7.736569E1,5.369952E2,2.5313414E2,1.9963799E1],"tree_param":{"num_deleted":"0","num_feature":"38","num_nodes":"15","size_leaf_vector":"1"}},{"base_weights":[-1.0037707E-2,-5.1389184E-2,9.8448604E-1,-5.008892E-2,1.2906278E0,1.3588557E0,4.3969672E-2,1.8585686E-1,1.22266464E-1,1.5429436E-1,-3.469685E-2],"categories":[],"categories_nodes":[],"categories_segments":[],"categories_sizes":[],"default_left":[0,0,0,0,0,0,0,0,0,0,0],"id":58,"left_children":[1,-1,3,-1,5,7,9,-1,-1,-1,-1],"loss_changes":[2.9775327E2,0E0,9.150929E1,0E0,1.4055389E1,8.433228E0,6.186999E0,0E0,0E0,0E0,0E0],"parents":[2147483647,0,0,2,2,4,4,5,5,6,6],"right_children":[2,-1,4,-1,6,8,10,-1,-1,-1,-1],"split_conditions":[1E0,-5.1389184E-2,1E0,-5.008892E-2,1.66E3,-4.150294E2,-2.9166803E2,1.8585686E-1,1.22266464E-1,1.5429436E-1,-3.469685E-2],"split_indices":[35,0,17,0,37,3,2,0,0,0,0],"split_type":[0,0,0,0,0,0,0,0,0,0,0],"sum_hessian":[5.9219574E2,3.93381E2,1.9881476E2,3.3865574E1,1.6494919E2,1.5630484E2,8.644347E0,3.0767136E1,1.255377E2,1.1785736E0,7.465774E0],"tree_param":{"num_deleted":"0","num_feature":"38","num_nodes":"11","size_leaf_vector":"1"}},{"base_weights":[1.4830812E-2,-4.768632E-2,2.5478125E-1,8.7124956E-1,1.5731956E-1,1.4822339E0,-3.149391E-2,1.0531241E-1,9.676647E-2,2.034558E-1,1.7527511E-2,2.3425194E-2,-3.3627816E-2],"categories":[],"categories_nodes":[],"categories_segments":[],"categories_sizes":[],"default_left":[0,0,0,0,0,0,0,0,0,0,0,0,0],"id":59,"left_children":[1,-1,3,5,7,9,-1,-1,11,-1,-1,-1,-1],"loss_changes":[7.3144345E0,0E0,2.3637629E0,4.425251E0,1.9138811E0,2.3722086E0,0E0,0E0,2.2167552E0,0E0,0E0,0E0,0E0],"parents":[2147483647,0,0,2,2,3,3,4,4,5,5,8,8],"right_children":[2,-1,4,6,8,10,-1,-1,12,-1,-1,-1,-1],"split_conditions":[1E0,-4.768632E-2,-1E0,4.9E1,-4.399374E2,-1.1262763E1,-3.149391E-2,1.0531241E-1,2E0,2.034558E-1,1.7527511E-2,2.3425194E-2,-3.3627816E-2],"split_indices":[16,0,11,8,3,1,0,0,15,0,0,0,0],"split_type":[0,0,0,0,0,0,0,0,0,0,0,0,0],"sum_hessian":[5.9966305E1,1.9342768E1,4.0623535E1,4.4618535E0,3.6161682E1,2.7802303E0,1.6816232E0,1.2517604E0,3.4909924E1,1.5629933E0,1.217237E0,2.6845818E1,8.064104E0],"tree_param":{"num_deleted":"0","num_feature":"38","num_nodes":"13","size_leaf_vector":"1"}},{"base_weights":[1.075645E-2,1.2667391E0,-8.5676156E-2,1.9480358E0,-3.4966525E-2,4.9878982E-1,-1.3480611E-1,2.5052712E0,1.1268819E-2,-4.073398E-2,1.5039612E0,-3.4606597E-1,1.659512E-2,3.2520097E-1,1.91163E-2,2.1598855E-1,-2.5865724E-2,-4.0655542E-2,6.7860098E-3,1.1500263E-2,-4.5428697E-2],"categories":[],"categories_nodes":[],"categories_segments":[],"categories_sizes":[],"default_left":[0,0,0,0,0,0,0,0,0,0,0,0,0,0,0,0,0,0,0,0,0],"id":60,"left_children":[1,3,5,7,-1,9,11,13,-1,-1,15,17,19,-1,-1,-1,-1,-1,-1,-1,-1],"loss_changes":[1.3879545E1,9.679014E0,3.1261935E0,5.7518177E0,0E0,8.330117E0,3.1740394E0,7.1179276E0,0E0,0E0,5.449356E0,1.0641398E0,2.770305E0,0E0,0E0,0E0,0E0,0E0,0E0,0E0,0E0],"parents":[2147483647,0,0,1,1,2,2,3,3,5,5,6,6,7,7,10,10,11,11,12,12],"right_children":[2,4,6,8,-1,10,12,14,-1,-1,16,18,20,-1,-1,-1,-1,-1,-1,-1,-1],"split_conditions":[1.2E-1,4E-1,2E-1,5.0440384E1,-3.4966525E-2,1.08E2,6E-1,1E0,1.1268819E-2,-4.073398E-2,5E-1,3E0,1E0,3.2520097E-1,1.91163E-2,2.1598855E-1,-2.5865724E-2,-4.0655542E-2,6.7860098E-3,1.1500263E-2,-4.5428697E-2],"split_indices":[6,5,19,3,0,8,19,21,0,0,20,22,35,0,0,0,0,0,0,0,0],"split_type":[0,0,0,0,0,0,0,0,0,0,0,0,0,0,0,0,0,0,0,0,0],"sum_hessian":[1.1269945E2,7.1705747E0,1.0552888E2,4.900079E0,2.2704957E0,7.473168E0,9.805571E1,3.4788446E0,1.4212341E0,4.242998E0,3.23017E0,4.039885E1,5.765686E1,2.3237107E0,1.155134E0,2.1898685E0,1.0403016E0,3.5263405E1,5.1354423E0,4.8315414E1,9.341447E0],"tree_param":{"num_deleted":"0","num_feature":"38","num_nodes":"21","size_leaf_vector":"1"}},{"base_weights":[4.0593278E-3,-5.6095046E-1,2.7119803E-1,-5.624112E-2,-3.6282986E-3,3.931785E-1,-5.575283E-1,5.530791E-1,7.070465E-2,-2.4646877E-1,-5.6285203E-2,1.3982336E-2,5.985676E-2,1.9205685E-4,2.561571E-2,-4.1530024E-2,1.5237318E-2],"categories":[],"categories_nodes":[],"categories_segments":[],"categories_sizes":[],"default_left":[0,0,0,0,0,0,0,0,0,0,0,0,0,0,0,0,0],"id":61,"left_children":[1,3,5,-1,-1,7,9,11,13,15,-1,-1,-1,-1,-1,-1,-1],"loss_changes":[3.1092517E2,4.8643494E-1,1.4160849E2,0E0,0E0,6.2858337E1,1.5912628E-1,1.5242722E1,5.1720567E0,3.8687837E-1,0E0,0E0,0E0,0E0,0E0,0E0,0E0],"parents":[2147483647,0,0,1,1,2,2,5,5,6,6,7,7,8,8,9,9],"right_children":[2,4,6,-1,-1,8,10,12,14,16,-1,-1,-1,-1,-1,-1,-1],"split_conditions":[1E0,1E1,1E0,-5.624112E-2,-3.6282986E-3,1E0,-2.9E2,-2.4175557E2,2.3E1,8.6E-1,-5.6285203E-2,1.3982336E-2,5.985676E-2,1.9205685E-4,2.561571E-2,-4.1530024E-2,1.5237318E-2],"split_indices":[17,14,35,0,0,16,36,0,36,5,0,0,0,0,0,0,0],"split_type":[0,0,0,0,0,0,0,0,0,0,0,0,0,0,0,0,0],"sum_hessian":[2.0579724E3,6.603032E2,1.3976693E3,6.583982E2,1.9049977E0,1.2187994E3,1.7886986E2,8.1430585E2,4.0449362E2,3.80564E0,1.7506422E2,8.114941E1,7.3315643E2,2.9579425E2,1.08699356E2,2.644814E0,1.1608261E0],"tree_param":{"num_deleted":"0","num_feature":"38","num_nodes":"17","size_leaf_vector":"1"}},{"base_weights":[-7.3541603E-3,-5.1108748E-2,9.807862E-1,-4.9563233E-2,1.2835604E0,1.408218E0,9.0458596E-1,-8.695704E-3,1.4442444E-1,5.6442957E-2,1.6665144E-1],"categories":[],"categories_nodes":[],"categories_segments":[],"categories_sizes":[],"default_left":[0,0,0,0,0,0,0,0,0,0,0],"id":62,"left_children":[1,-1,3,-1,5,7,9,-1,-1,-1,-1],"loss_changes":[2.4898924E2,0E0,7.613928E1,0E0,5.3607483E0,5.7212067E0,8.793198E0,0E0,0E0,0E0,0E0],"parents":[2147483647,0,0,2,2,4,4,5,5,6,6],"right_children":[2,-1,4,-1,6,8,10,-1,-1,-1,-1],"split_conditions":[1E0,-5.1108748E-2,1E0,-4.9563233E-2,7.2036575E1,-9.4393823E2,4.6733826E2,-8.695704E-3,1.4442444E-1,5.6442957E-2,1.6665144E-1],"split_indices":[35,0,17,0,2,1,1,0,0,0,0],"split_type":[0,0,0,0,0,0,0,0,0,0,0],"sum_hessian":[4.982132E2,3.3031055E2,1.6790265E2,2.8464447E1,1.394382E2,1.028812E2,3.6556995E1,2.3873425E0,1.00493866E2,2.647725E1,1.0079745E1],"tree_param":{"num_deleted":"0","num_feature":"38","num_nodes":"11","size_leaf_vector":"1"}},{"base_weights":[-3.4876986E-5,-6.281217E-2,3.039394E-1,4.3715563E-1,-5.792512E-1,6.207963E-1,7.72337E-2,-5.852376E-1,-1.2722273E-1,5.92404E-2,7.8269325E-2,-6.9358903E-3,3.007914E-2,-5.8817584E-2,-2.4722049E-2,-4.723994E-2,5.156852E-2],"categories":[],"categories_nodes":[],"categories_segments":[],"categories_sizes":[],"default_left":[0,0,0,0,0,0,0,0,0,0,0,0,0,0,0,0,0],"id":63,"left_children":[1,-1,3,5,7,9,11,13,15,-1,-1,-1,-1,-1,-1,-1,-1],"loss_changes":[6.121563E2,0E0,2.5446324E2,1.2408212E2,6.9301605E-1,5.25177E0,2.0851461E1,1.3231659E-1,1.3497996E0,0E0,0E0,0E0,0E0,0E0,0E0,0E0,0E0],"parents":[2147483647,0,0,2,2,3,3,4,4,5,5,6,6,7,7,8,8],"right_children":[2,-1,4,6,8,10,12,14,16,-1,-1,-1,-1,-1,-1,-1,-1],"split_conditions":[1E0,-6.281217E-2,1E0,1E0,7E0,3.4131888E2,5.3041935E1,6.9877344E2,1E0,5.92404E-2,7.8269325E-2,-6.9358903E-3,3.007914E-2,-5.8817584E-2,-2.4722049E-2,-4.723994E-2,5.156852E-2],"split_indices":[16,0,35,17,24,3,0,2,9,0,0,0,0,0,0,0,0],"split_type":[0,0,0,0,0,0,0,0,0,0,0,0,0,0,0,0,0],"sum_hessian":[3.2043125E3,1.0446788E3,2.1596335E3,1.8770182E3,2.8261536E2,1.2423944E3,6.346238E2,2.7863065E2,3.984707E0,1.0609856E3,1.8140884E2,3.837069E2,2.5091689E2,2.7549582E2,3.1348362E0,2.7652576E0,1.2194498E0],"tree_param":{"num_deleted":"0","num_feature":"38","num_nodes":"17","size_leaf_vector":"1"}},{"base_weights":[5.2441503E-3,-5.609013E-1,2.6852033E-1,-5.624485E-2,-3.526418E-1,3.8550717E-1,-5.499181E-1,-4.753698E-2,2.1235825E-2,4.94965E-1,1.7487368E-1,-5.5521466E-2,-3.187863E-1,5.3810455E-2,2.3302477E-2,1.642074E-2,1.14971876E-1,-4.58595E-2,1.6769951E-2],"categories":[],"categories_nodes":[],"categories_segments":[],"categories_sizes":[],"default_left":[0,0,0,0,0,0,0,0,0,0,0,0,0,0,0,0,0,0,0],"id":64,"left_children":[1,3,5,-1,7,9,11,-1,-1,13,15,-1,17,-1,-1,-1,-1,-1,-1],"loss_changes":[3.0113177E2,8.300781E-3,1.3224684E2,0E0,6.1476433E-1,2.77444E1,3.464508E-2,0E0,0E0,8.844482E0,4.119445E0,0E0,5.000357E-1,0E0,0E0,0E0,0E0,0E0,0E0],"parents":[2147483647,0,0,1,1,2,2,4,4,5,5,6,6,9,9,10,10,12,12],"right_children":[2,4,6,-1,8,10,12,-1,-1,14,16,-1,18,-1,-1,-1,-1,-1,-1],"split_conditions":[1E0,6E0,1E0,-5.624485E-2,4.0004294E2,1E0,2.07E2,-4.753698E-2,2.1235825E-2,3.3544757E2,2.98E2,-5.5521466E-2,1E-1,5.3810455E-2,2.3302477E-2,1.642074E-2,1.14971876E-1,-4.58595E-2,1.6769951E-2],"split_indices":[16,23,35,0,1,17,7,0,0,3,8,0,25,0,0,0,0,0,0],"split_type":[0,0,0,0,0,0,0,0,0,0,0,0,0,0,0,0,0,0,0],"sum_hessian":[2.0182952E3,6.4029126E2,1.3780039E3,6.338813E2,6.4099483E0,1.2061298E3,1.7187413E2,5.396394E0,1.0135546E0,7.927956E2,4.1333423E2,1.66653E2,5.2211246E0,6.797858E2,1.1300976E2,4.1001648E2,3.3177571E0,4.1001377E0,1.120987E0],"tree_param":{"num_deleted":"0","num_feature":"38","num_nodes":"19","size_leaf_vector":"1"}},{"base_weights":[2.0951077E-2,-4.0293783E-2,8.6089E-2],"categories":[],"categories_nodes":[],"categories_segments":[],"categories_sizes":[],"default_left":[0,0,0],"id":65,"left_children":[1,-1,-1],"loss_changes":[2.7382133E0,0E0,0E0],"parents":[2147483647,0,0],"right_children":[2,-1,-1],"split_conditions":[3E0,-4.0293783E-2,8.6089E-2],"split_indices":[26,0,0],"split_type":[0,0,0],"sum_hessian":[5.716445E0,4.1449203E0,1.5715245E0],"tree_param":{"num_deleted":"0","num_feature":"38","num_nodes":"3","size_leaf_vector":"1"}},{"base_weights":[-6.8431036E-3,-5.0563823E-2,9.606891E-1,-4.8213433E-2,1.2549527E0,8.475434E-1,1.5625198E0,6.0465455E-2,1.5892665E-1,1.7476436E-1,4.518824E-2],"categories":[],"categories_nodes":[],"categories_segments":[],"categories_sizes":[],"default_left":[0,0,0,0,0,0,0,0,0,0,0],"id":66,"left_children":[1,-1,3,-1,5,7,9,-1,-1,-1,-1],"loss_changes":[1.5669044E2,0E0,4.7497765E1,0E0,1.0205688E1,6.5638695E0,9.746918E0,0E0,0E0,0E0,0E0],"parents":[2147483647,0,0,2,2,4,4,5,5,6,6],"right_children":[2,-1,4,-1,6,8,10,-1,-1,-1,-1],"split_conditions":[1E0,-5.0563823E-2,1E0,-4.8213433E-2,-1.7E1,2.5893497E2,2.003E3,6.0465455E-2,1.5892665E-1,1.7476436E-1,4.518824E-2],"split_indices":[35,0,17,0,36,1,37,0,0,0,0],"split_type":[0,0,0,0,0,0,0,0,0,0,0],"sum_hessian":[3.2267294E2,2.1322548E2,1.0944745E2,1.8432306E1,9.1015144E1,4.0768314E1,5.0246834E1,3.2078808E1,8.689507E0,4.257652E1,7.6703115E0],"tree_param":{"num_deleted":"0","num_feature":"38","num_nodes":"11","size_leaf_vector":"1"}},{"base_weights":[-1.0005491E-2,-5.1372856E-2,9.8928076E-1,-5.0102066E-2,1.3101097E0,1.4571223E0,7.1207756E-1,1.6189532E-1,1.1479485E-1,-1.6464582E-2,1.1696904E-1],"categories":[],"categories_nodes":[],"categories_segments":[],"categories_sizes":[],"default_left":[0,0,0,0,0,0,0,0,0,0,0],"id":67,"left_children":[1,-1,3,-1,5,7,9,-1,-1,-1,-1],"loss_changes":[2.9580386E2,0E0,9.482532E1,0E0,1.3235046E1,4.613434E0,1.3828846E1,0E0,0E0,0E0,0E0],"parents":[2147483647,0,0,2,2,4,4,5,5,6,6],"right_children":[2,-1,4,-1,6,8,10,-1,-1,-1,-1],"split_conditions":[1E0,-5.1372856E-2,1E0,-5.0102066E-2,1E0,1E0,1.1963781E0,1.6189532E-1,1.1479485E-1,-1.6464582E-2,1.1696904E-1],"split_indices":[35,0,16,0,17,9,0,0,0,0,0],"split_type":[0,0,0,0,0,0,0,0,0,0,0],"sum_hessian":[5.856449E2,3.8969318E2,1.9595174E2,3.4611977E1,1.6133975E2,1.2835106E2,3.29887E1,8.1470566E1,4.6880493E1,1.153309E1,2.145561E1],"tree_param":{"num_deleted":"0","num_feature":"38","num_nodes":"11","size_leaf_vector":"1"}},{"base_weights":[-7.669862E-3,-5.0956737E-2,9.7271997E-1,-4.9295288E-2,1.2836121E0,1.311068E0,-3.5138547E-2,1.4418827E-1,8.7823056E-2],"categories":[],"categories_nodes":[],"categories_segments":[],"categories_sizes":[],"default_left":[0,0,0,0,0,0,0,0,0],"id":68,"left_children":[1,-1,3,-1,5,7,-1,-1,-1],"loss_changes":[2.2140485E2,0E0,7.005687E1,0E0,6.1156616E0,5.76062E0,0E0,0E0,0E0],"parents":[2147483647,0,0,2,2,4,4,5,5],"right_children":[2,-1,4,-1,6,8,-1,-1,-1],"split_conditions":[1E0,-5.0956737E-2,1E0,-4.9295288E-2,6E0,2.1818872E2,-3.5138547E-2,1.4418827E-1,8.7823056E-2],"split_indices":[35,0,16,0,24,1,0,0,0],"split_type":[0,0,0,0,0,0,0,0,0],"sum_hessian":[4.47952E2,2.965946E2,1.513574E2,2.6384495E1,1.24972916E2,1.231038E2,1.8691148E0,9.274322E1,3.0360584E1],"tree_param":{"num_deleted":"0","num_feature":"38","num_nodes":"9","size_leaf_vector":"1"}},{"base_weights":[-5.9613246E-3,-5.042013E-2,9.6060395E-1,-4.7822885E-2,1.2660456E0,1.3505627E0,2.378776E-1,1.7429368E-1,1.0292975E-1,-2.5749369E-2,1.257739E-1],"categories":[],"categories_nodes":[],"categories_segments":[],"categories_sizes":[],"default_left":[0,0,0,0,0,0,0,0,0,0,0],"id":69,"left_children":[1,-1,3,-1,5,7,9,-1,-1,-1,-1],"loss_changes":[1.358514E2,0E0,4.2775238E1,0E0,6.5806274E0,7.4306183E0,3.9850035E0,0E0,0E0,0E0,0E0],"parents":[2147483647,0,0,2,2,4,4,5,5,6,6],"right_children":[2,-1,4,-1,6,8,10,-1,-1,-1,-1],"split_conditions":[1E0,-5.042013E-2,1E0,-4.7822885E-2,4E0,5.8E1,3E0,1.7429368E-1,1.0292975E-1,-2.5749369E-2,1.257739E-1],"split_indices":[35,0,16,0,22,8,9,0,0,0,0],"split_type":[0,0,0,0,0,0,0,0,0,0,0],"sum_hessian":[2.800886E2,1.8513469E2,9.4953896E1,1.6528412E1,7.842548E1,7.217871E1,6.2467747E0,3.0501183E1,4.167753E1,4.707668E0,1.5391067E0],"tree_param":{"num_deleted":"0","num_feature":"38","num_nodes":"11","size_leaf_vector":"1"}},{"base_weights":[1.8749509E-2,-4.6573453E-2,2.4696648E-1,-2.4419561E-1,4.594438E-1,2.5108132E-1,-4.335278E-2,1.4398456E0,1.9474018E-1,6.4109914E-2,-2.6644727E-2,-2.6101176E-2,2.0786312E-1,1.06548265E-1,-3.7218012E-2],"categories":[],"categories_nodes":[],"categories_segments":[],"categories_sizes":[],"default_left":[0,0,0,0,0,0,0,0,0,0,0,0,0,0,0],"id":70,"left_children":[1,-1,3,5,7,9,-1,11,13,-1,-1,-1,-1,-1,-1],"loss_changes":[4.898225E0,0E0,3.2494211E0,1.0213026E0,5.2552867E0,8.418102E-1,0E0,5.299631E0,9.25859E0,0E0,0E0,0E0,0E0,0E0,0E0],"parents":[2147483647,0,0,2,2,3,3,4,4,5,5,7,7,8,8],"right_children":[2,-1,4,6,8,10,-1,12,14,-1,-1,-1,-1,-1,-1],"split_conditions":[1E0,-4.6573453E-2,-5.91E2,0E0,3.1E1,3E0,-4.335278E-2,-6.3526527E1,-5.9222332E1,6.4109914E-2,-2.6644727E-2,-2.6101176E-2,2.0786312E-1,1.06548265E-1,-3.7218012E-2],"split_indices":[17,0,37,11,8,10,0,3,0,0,0,0,0,0,0],"split_type":[0,0,0,0,0,0,0,0,0,0,0,0,0,0,0],"sum_hessian":[4.2260498E1,1.3199147E1,2.906135E1,8.730551E0,2.03308E1,2.3242824E0,6.406268E0,3.3784244E0,1.6952375E1,1.1892636E0,1.1350188E0,1.0838674E0,2.2945569E0,6.338123E0,1.0614252E1],"tree_param":{"num_deleted":"0","num_feature":"38","num_nodes":"15","size_leaf_vector":"1"}},{"base_weights":[-3.1618378E-4,-6.085613E-2,2.7857983E-1,4.0223625E-1,-5.813436E-1,5.553756E-1,1.02508105E-1,1.1798491E-2,-5.84798E-1,6.4799815E-2,4.5005213E-2,3.4752E-2,-4.1092187E-3,-5.9449036E-2,-4.3941375E-2],"categories":[],"categories_nodes":[],"categories_segments":[],"categories_sizes":[],"default_left":[0,0,0,0,0,0,0,0,0,0,0,0,0,0,0],"id":71,"left_children":[1,-1,3,5,7,9,11,-1,13,-1,-1,-1,-1,-1,-1],"loss_changes":[5.164171E2,0E0,2.2217717E2,8.3729004E1,7.0388794E-1,1.1491821E1,2.1775171E1,0E0,1.0752869E-1,0E0,0E0,0E0,0E0,0E0,0E0],"parents":[2147483647,0,0,2,2,3,3,4,4,5,5,6,6,8,8],"right_children":[2,-1,4,6,8,10,12,-1,14,-1,-1,-1,-1,-1,-1],"split_conditions":[1E0,-6.085613E-2,1E0,1E0,8E-2,-1.8E1,-5.3705112E1,1.1798491E-2,3E0,6.4799815E-2,4.5005213E-2,3.4752E-2,-4.1092187E-3,-5.9449036E-2,-4.3941375E-2],"split_indices":[17,0,35,16,6,36,0,0,11,0,0,0,0,0,0],"split_type":[0,0,0,0,0,0,0,0,0,0,0,0,0,0,0],"sum_hessian":[3.0422463E3,9.5603815E2,2.0862083E3,1.8243938E3,2.6181433E2,1.2069016E3,6.174922E2,1.1239465E0,2.606904E2,6.3942883E2,5.674728E2,2.2765149E2,3.898407E2,2.4150114E2,1.9189241E1],"tree_param":{"num_deleted":"0","num_feature":"38","num_nodes":"15","size_leaf_vector":"1"}},{"base_weights":[-1.09798005E-2,-5.129392E-2,8.5238665E-1,-4.994349E-2,1.0915918E0,1.142931E0,4.2691566E-2,1.570382E-1,1.0333233E-1,1.3765313E-1,-3.426318E-2],"categories":[],"categories_nodes":[],"categories_segments":[],"categories_sizes":[],"default_left":[0,0,0,0,0,0,0,0,0,0,0],"id":72,"left_children":[1,-1,3,-1,5,7,9,-1,-1,-1,-1],"loss_changes":[2.5554842E2,0E0,7.0648926E1,0E0,9.887299E0,6.6170044E0,5.4306493E0,0E0,0E0,0E0,0E0],"parents":[2147483647,0,0,2,2,4,4,5,5,6,6],"right_children":[2,-1,4,-1,6,8,10,-1,-1,-1,-1],"split_conditions":[1E0,-5.129392E-2,1E0,-4.994349E-2,1.66E3,-3.028E3,-2.9166803E2,1.570382E-1,1.0333233E-1,1.3765313E-1,-3.426318E-2],"split_indices":[35,0,17,0,37,37,2,0,0,0,0],"split_type":[0,0,0,0,0,0,0,0,0,0,0],"sum_hessian":[5.8766174E2,3.718657E2,2.1579604E2,3.2280598E1,1.8351544E2,1.748668E2,8.64863E0,3.2968407E1,1.4189839E2,1.3618903E0,7.2867403E0],"tree_param":{"num_deleted":"0","num_feature":"38","num_nodes":"11","size_leaf_vector":"1"}},{"base_weights":[1.8237878E-2,-4.7550976E-2,2.439477E-1,1.481026E-1,8.517273E-1,-1.8892111E-1,3.4136406E-1,1.7097552E0,-3.4261547E-2,-3.1486433E-2,7.419595E-2,1.3820694E-1,1.9036766E-2,5.805208E-2,2.1422708E-1],"categories":[],"categories_nodes":[],"categories_segments":[],"categories_sizes":[],"default_left":[0,0,0,0,0,0,0,0,0,0,0,0,0,0,0],"id":73,"left_children":[1,-1,3,5,7,9,11,13,-1,-1,-1,-1,-1,-1,-1],"loss_changes":[6.86561E0,0E0,2.3336058E0,2.5190005E0,6.2644114E0,1.9192271E0,3.556491E0,4.1286755E-1,0E0,0E0,0E0,0E0,0E0,0E0,0E0],"parents":[2147483647,0,0,2,2,3,3,4,4,5,5,6,6,7,7],"right_children":[2,-1,4,6,8,10,12,14,-1,-1,-1,-1,-1,-1,-1],"split_conditions":[1E0,-4.7550976E-2,3E0,-6.191008E1,6.2203956E-1,2.29E2,-4.6895523E1,2E0,-3.4261547E-2,-3.1486433E-2,7.419595E-2,1.3820694E-1,1.9036766E-2,5.805208E-2,2.1422708E-1],"split_indices":[16,0,16,1,4,8,2,21,0,0,0,0,0,0,0],"split_type":[0,0,0,0,0,0,0,0,0,0,0,0,0,0,0],"sum_hessian":[5.9565216E1,1.833973E1,4.122549E1,3.6684177E1,4.5413117E0,1.3377666E1,2.330651E1,2.39161E0,2.1497016E0,1.2366324E1,1.0113417E0,1.9200497E0,2.1386461E1,1.310994E0,1.0806159E0],"tree_param":{"num_deleted":"0","num_feature":"38","num_nodes":"15","size_leaf_vector":"1"}},{"base_weights":[1.39117185E-2,8.812875E-1,-1.0800559E-1,1.2376513E0,-3.7367046E-2,-3.8841277E-2,-4.712628E-2,1.46559E0,-2.842252E-2,7.116296E-2,-2.6880422E-1,1.7517556E-1,4.9699526E-3,1.3319274E-3,1.5312295E-1,7.287364E-2,-3.346637E-2],"categories":[],"categories_nodes":[],"categories_segments":[],"categories_sizes":[],"default_left":[0,0,0,0,0,0,0,0,0,0,0,0,0,0,0,0,0],"id":74,"left_children":[1,3,5,7,-1,9,-1,11,-1,13,15,-1,-1,-1,-1,-1,-1],"loss_changes":[1.2040645E1,6.737072E0,2.492412E0,4.2876015E0,0E0,2.170312E0,0E0,3.9112148E0,0E0,4.9044046E0,2.0653548E0,0E0,0E0,0E0,0E0,0E0,0E0],"parents":[2147483647,0,0,1,1,2,2,3,3,5,5,7,7,9,9,10,10],"right_children":[2,4,6,8,-1,10,-1,12,-1,14,16,-1,-1,-1,-1,-1,-1],"split_conditions":[2.6E-1,9.7596245E1,3E0,1E0,-3.7367046E-2,2E0,-4.712628E-2,4E1,-2.842252E-2,4.9749796E2,-3.4409863E2,1.7517556E-1,4.9699526E-3,1.3319274E-3,1.5312295E-1,7.287364E-2,-3.346637E-2],"split_indices":[5,3,26,29,0,14,0,37,0,3,2,0,0,0,0,0,0],"split_type":[0,0,0,0,0,0,0,0,0,0,0,0,0,0,0,0,0],"sum_hessian":[1.1196143E2,1.3030179E1,9.893126E1,1.0159134E1,2.8710456E0,8.403742E1,1.4893832E1,8.867928E0,1.2912061E0,5.731228E1,2.6725147E1,7.17964E0,1.6882879E0,5.609892E1,1.2133576E0,1.0318108E0,2.5693336E1],"tree_param":{"num_deleted":"0","num_feature":"38","num_nodes":"17","size_leaf_vector":"1"}},{"base_weights":[5.1942603E-3,-5.5633473E-1,2.524975E-1,-5.578682E-2,-3.1628564E-3,3.6249834E-1,-5.530253E-1,5.0408316E-1,6.765596E-2,-2.3859817E-1,-5.585788E-2,3.7531834E-2,6.327025E-2,-3.4271262E-3,1.9006673E-2,-4.0948402E-2,1.5458631E-2],"categories":[],"categories_nodes":[],"categories_segments":[],"categories_sizes":[],"default_left":[0,0,0,0,0,0,0,0,0,0,0,0,0,0,0,0,0],"id":75,"left_children":[1,3,5,-1,-1,7,9,11,13,15,-1,-1,-1,-1,-1,-1,-1],"loss_changes":[2.843182E2,4.860382E-1,1.26146904E2,0E0,0E0,5.219789E1,1.6562653E-1,1.3759445E1,5.0855193E0,3.8020507E-1,0E0,0E0,0E0,0E0,0E0,0E0,0E0],"parents":[2147483647,0,0,1,1,2,2,5,5,6,6,7,7,8,8,9,9],"right_children":[2,4,6,-1,-1,8,10,12,14,16,-1,-1,-1,-1,-1,-1,-1],"split_conditions":[1E0,1E1,1E0,-5.578682E-2,-3.1628564E-3,1E0,-2.9E2,-1.8E1,2E0,1.4199713E2,-5.585788E-2,3.7531834E-2,6.327025E-2,-3.4271262E-3,1.9006673E-2,-4.0948402E-2,1.5458631E-2],"split_indices":[17,14,35,0,0,16,36,36,17,1,0,0,0,0,0,0,0],"split_type":[0,0,0,0,0,0,0,0,0,0,0,0,0,0,0,0,0],"sum_hessian":[2.0453884E3,6.250025E2,1.4203859E3,6.231182E2,1.8842499E0,1.2502094E3,1.7017651E2,8.441396E2,4.060698E2,3.7165654E0,1.6645995E2,4.2378906E2,4.2035052E2,2.2196622E2,1.8410358E2,2.5617306E0,1.1548347E0],"tree_param":{"num_deleted":"0","num_feature":"38","num_nodes":"17","size_leaf_vector":"1"}},{"base_weights":[-7.649574E-3,-5.1027615E-2,8.475878E-1,-4.9420148E-2,1.0827365E0,1.3621175E0,9.4668114E-1,1.0042604E-1,1.9695993E-1,5.182289E-2,1.07170045E-1],"categories":[],"categories_nodes":[],"categories_segments":[],"categories_sizes":[],"default_left":[0,0,0,0,0,0,0,0,0,0,0],"id":76,"left_children":[1,-1,3,-1,5,7,9,-1,-1,-1,-1],"loss_changes":[2.1379253E2,0E0,5.8622803E1,0E0,4.6768494E0,8.70166E0,5.2743835E0,0E0,0E0,0E0,0E0],"parents":[2147483647,0,0,2,2,4,4,5,5,6,6],"right_children":[2,-1,4,-1,6,8,10,-1,-1,-1,-1],"split_conditions":[1E0,-5.1027615E-2,1E0,-4.9420148E-2,-1.5193727E2,-2.0659268E2,-7.0997406E1,1.0042604E-1,1.9695993E-1,5.182289E-2,1.07170045E-1],"split_indices":[35,0,17,0,2,1,2,0,0,0,0],"split_type":[0,0,0,0,0,0,0,0,0,0,0],"sum_hessian":[4.953419E2,3.122403E2,1.8310158E2,2.7139326E1,1.5596225E2,4.812633E1,1.07835915E2,3.1955215E1,1.6171116E1,2.5520416E1,8.2315506E1],"tree_param":{"num_deleted":"0","num_feature":"38","num_nodes":"11","size_leaf_vector":"1"}},{"base_weights":[-9.0524147E-4,-6.175792E-2,2.804586E-1,4.0095115E-1,-5.672074E-1,5.651736E-1,7.310001E-2,-5.733254E-1,-1.1974654E-1,5.260641E-2,6.619894E-2,2.2356225E-2,-1.3806137E-2,-5.7644915E-2,-2.422942E-2,-4.6260376E-2,4.9491566E-2],"categories":[],"categories_nodes":[],"categories_segments":[],"categories_sizes":[],"default_left":[0,0,0,0,0,0,0,0,0,0,0,0,0,0,0,0,0],"id":77,"left_children":[1,-1,3,5,7,9,11,13,15,-1,-1,-1,-1,-1,-1,-1,-1],"loss_changes":[5.499671E2,0E0,2.2253758E2,1.0259366E2,6.7404175E-1,4.460266E0,2.028035E1,1.3683319E-1,1.2665076E0,0E0,0E0,0E0,0E0,0E0,0E0,0E0,0E0],"parents":[2147483647,0,0,2,2,3,3,4,4,5,5,6,6,7,7,8,8],"right_children":[2,-1,4,6,8,10,12,14,16,-1,-1,-1,-1,-1,-1,-1,-1],"split_conditions":[1E0,-6.175792E-2,1E0,1E0,7E0,5.8E1,2E0,1E1,1E0,5.260641E-2,6.619894E-2,2.2356225E-2,-1.3806137E-2,-5.7644915E-2,-2.422942E-2,-4.6260376E-2,4.9491566E-2],"split_indices":[16,0,35,17,24,36,17,14,9,0,0,0,0,0,0,0,0],"split_type":[0,0,0,0,0,0,0,0,0,0,0,0,0,0,0,0,0],"sum_hessian":[3.1676633E3,9.9208484E2,2.1755784E3,1.9052773E3,2.7030106E2,1.2689362E3,6.363412E2,2.663777E2,3.92337E0,9.084099E2,3.605262E2,3.715418E2,2.647994E2,2.63153E2,3.224643E0,2.6773405E0,1.2460293E0],"tree_param":{"num_deleted":"0","num_feature":"38","num_nodes":"17","size_leaf_vector":"1"}},{"base_weights":[6.721785E-3,-5.565407E-1,2.50908E-1,-5.581617E-2,-3.427875E-1,3.565338E-1,-5.452284E-1,-4.6900667E-2,2.1590188E-2,4.5461392E-1,1.6403978E-1,-5.5075616E-2,-3.0974498E-1,4.725357E-2,-1.1441551E-2,2.4813354E-2,4.8290114E-3,1.7133005E-2,-4.5250874E-2],"categories":[],"categories_nodes":[],"categories_segments":[],"categories_sizes":[],"default_left":[0,0,0,0,0,0,0,0,0,0,0,0,0,0,0,0,0,0,0],"id":78,"left_children":[1,3,5,-1,7,9,11,-1,-1,13,15,-1,17,-1,-1,-1,-1,-1,-1],"loss_changes":[2.7629138E2,1.9165039E-2,1.18031746E2,0E0,6.0642815E-1,2.329396E1,4.3575287E-2,0E0,0E0,8.410278E0,4.069934E0,0E0,4.9364758E-1,0E0,0E0,0E0,0E0,0E0,0E0],"parents":[2147483647,0,0,1,1,2,2,4,4,5,5,6,6,9,9,10,10,12,12],"right_children":[2,4,6,-1,8,10,12,-1,-1,14,16,-1,18,-1,-1,-1,-1,-1,-1],"split_conditions":[1E0,6E0,1E0,-5.581617E-2,7.8649086E1,1E0,2.07E2,-4.6900667E-2,2.1590188E-2,5.79E2,2E0,-5.5075616E-2,3.8E-1,4.725357E-2,-1.1441551E-2,2.4813354E-2,4.8290114E-3,1.7133005E-2,-4.5250874E-2],"split_indices":[16,23,35,0,0,17,7,0,0,8,17,0,6,0,0,0,0,0,0],"split_type":[0,0,0,0,0,0,0,0,0,0,0,0,0,0,0,0,0,0,0],"sum_hessian":[2.0067788E3,6.0649713E2,1.4002816E3,6.003334E2,6.163754E0,1.2367505E3,1.6353125E2,5.1588006E0,1.0049533E0,8.183967E2,4.183537E2,1.5847244E2,5.0588064E0,7.935725E2,2.4824251E1,2.4164874E2,1.7670494E2,1.1119025E0,3.946904E0],"tree_param":{"num_deleted":"0","num_feature":"38","num_nodes":"19","size_leaf_vector":"1"}},{"base_weights":[2.4811355E-2,-3.9950628E-2,7.966426E-2],"categories":[],"categories_nodes":[],"categories_segments":[],"categories_sizes":[],"default_left":[0,0,0],"id":79,"left_children":[1,-1,-1],"loss_changes":[2.5017142E0,0E0,0E0],"parents":[2147483647,0,0],"right_children":[2,-1,-1],"split_conditions":[2E0,-3.9950628E-2,7.966426E-2],"split_indices":[22,0,0],"split_type":[0,0,0],"sum_hessian":[5.6669917E0,3.9679728E0,1.6990188E0],"tree_param":{"num_deleted":"0","num_feature":"38","num_nodes":"3","size_leaf_vector":"1"}},{"base_weights":[-6.541796E-3,-5.050528E-2,8.3142155E-1,-4.8058134E-2,1.0603085E0,1.1368392E-1,1.1361313E0,9.426285E-2,-2.8766153E-2,1.2895231E-1,6.0715433E-2],"categories":[],"categories_nodes":[],"categories_segments":[],"categories_sizes":[],"default_left":[0,0,0,0,0,0,0,0,0,0,0],"id":80,"left_children":[1,-1,3,-1,5,7,9,-1,-1,-1,-1],"loss_changes":[1.3496347E2,0E0,3.670027E1,0E0,7.258377E0,3.1802058E0,6.940155E0,0E0,0E0,0E0,0E0],"parents":[2147483647,0,0,2,2,4,4,5,5,6,6],"right_children":[2,-1,4,-1,6,8,10,-1,-1,-1,-1],"split_conditions":[1E0,-5.050528E-2,1E0,-4.8058134E-2,-3.9677008E2,1E0,4E0,9.426285E-2,-2.8766153E-2,1.2895231E-1,6.0715433E-2],"split_indices":[35,0,17,0,3,22,18,0,0,0,0],"split_type":[0,0,0,0,0,0,0,0,0,0,0],"sum_hessian":[3.2107953E2,2.015645E2,1.1951503E2,1.7589664E1,1.0192536E2,7.7439375E0,9.418143E1,2.0862648E0,5.6576724E0,7.1895515E1,2.2285915E1],"tree_param":{"num_deleted":"0","num_feature":"38","num_nodes":"11","size_leaf_vector":"1"}},{"base_weights":[-1.120617E-2,-5.127845E-2,8.5641426E-1,-4.9960718E-2,1.1071358E0,1.4560844E-1,1.1626536E0,-3.0994723E-2,7.6174095E-2,-3.7101746E-2,1.18179515E-1],"categories":[],"categories_nodes":[],"categories_segments":[],"categories_sizes":[],"default_left":[0,0,0,0,0,0,0,0,0,0,0],"id":81,"left_children":[1,-1,3,-1,5,7,9,-1,-1,-1,-1],"loss_changes":[2.5368459E2,0E0,7.3158005E1,0E0,9.468353E0,3.3231657E0,5.445038E0,0E0,0E0,0E0,0E0],"parents":[2147483647,0,0,2,2,4,4,5,5,6,6],"right_children":[2,-1,4,-1,6,8,10,-1,-1,-1,-1],"split_conditions":[1E0,-5.127845E-2,1E0,-4.9960718E-2,-2.6107132E2,-5.45E2,-3.9195993E2,-3.0994723E-2,7.6174095E-2,-3.7101746E-2,1.18179515E-1],"split_indices":[35,0,16,0,3,37,2,0,0,0,0],"split_type":[0,0,0,0,0,0,0,0,0,0,0],"sum_hessian":[5.8093317E2,3.6837918E2,2.1255397E2,3.301273E1,1.7954124E2,9.998422E0,1.6954282E2,6.033973E0,3.964448E0,1.8633525E0,1.6767947E2],"tree_param":{"num_deleted":"0","num_feature":"38","num_nodes":"11","size_leaf_vector":"1"}},{"base_weights":[-7.923857E-3,-5.0882686E-2,8.4038883E-1,-4.9155768E-2,1.0817456E0,7.222495E-1,1.2069249E0,8.843304E-2,-1.784656E-2,1.3248453E-1,6.2264394E-2],"categories":[],"categories_nodes":[],"categories_segments":[],"categories_sizes":[],"default_left":[0,0,0,0,0,0,0,0,0,0,0],"id":82,"left_children":[1,-1,3,-1,5,7,9,-1,-1,-1,-1],"loss_changes":[1.901627E2,0E0,5.3944313E1,0E0,5.472275E0,5.8367596E0,6.276657E0,0E0,0E0,0E0,0E0],"parents":[2147483647,0,0,2,2,4,4,5,5,6,6],"right_children":[2,-1,4,-1,6,8,10,-1,-1,-1,-1],"split_conditions":[1E0,-5.0882686E-2,1E0,-4.9155768E-2,-3.834434E1,6.56E2,5.1188132E2,8.843304E-2,-1.784656E-2,1.3248453E-1,6.2264394E-2],"split_indices":[35,0,16,0,0,37,3,0,0,0,0],"split_type":[0,0,0,0,0,0,0,0,0,0,0],"sum_hessian":[4.4551706E2,2.8036826E2,1.6514879E2,2.5176067E1,1.3997272E2,3.7899822E1,1.020729E2,3.2135353E1,5.764466E0,8.387723E1,1.8195677E1],"tree_param":{"num_deleted":"0","num_feature":"38","num_nodes":"11","size_leaf_vector":"1"}},{"base_weights":[-5.4349457E-3,-5.0365865E-2,8.3142155E-1,-4.7664396E-2,1.068792E0,1.1081604E0,-3.514343E-2,2.3660896E-2,1.18833005E-1],"categories":[],"categories_nodes":[],"categories_segments":[],"categories_sizes":[],"default_left":[0,0,0,0,0,0,0,0,0],"id":83,"left_children":[1,-1,3,-1,5,7,-1,-1,-1],"loss_changes":[1.17083305E2,0E0,3.3048347E1,0E0,5.3661118E0,5.7871094E0,0E0,0E0,0E0],"parents":[2147483647,0,0,2,2,4,4,5,5],"right_children":[2,-1,4,-1,6,8,-1,-1,-1],"split_conditions":[1E0,-5.0365865E-2,1E0,-4.7664396E-2,4.6133224E2,1.1E1,-3.514343E-2,2.3660896E-2,1.18833005E-1],"split_indices":[35,0,16,0,0,8,0,0,0],"split_type":[0,0,0,0,0,0,0,0,0],"sum_hessian":[2.788102E2,1.7501372E2,1.0379651E2,1.5787748E1,8.800876E1,8.584878E1,2.159979E0,7.564451E0,7.828433E1],"tree_param":{"num_deleted":"0","num_feature":"38","num_nodes":"9","size_leaf_vector":"1"}},{"base_weights":[2.1556227E-2,-4.6389457E-2,2.3585454E-1,1.1873296E-1,1.1662279E0,5.100159E-1,-1.7512986E-1,-2.5778785E-2,1.9536068E-1,-9.523212E-3,9.5653825E-2,-4.4064544E-2,7.102173E-3],"categories":[],"categories_nodes":[],"categories_segments":[],"categories_sizes":[],"default_left":[0,0,0,0,0,0,0,0,0,0,0,0,0],"id":84,"left_children":[1,-1,3,5,7,9,11,-1,-1,-1,-1,-1,-1],"loss_changes":[4.5852847E0,0E0,3.1862211E0,3.33334E0,4.201604E0,3.4304626E0,1.1329957E0,0E0,0E0,0E0,0E0,0E0,0E0],"parents":[2147483647,0,0,2,2,3,3,4,4,5,5,6,6],"right_children":[2,-1,4,6,8,10,12,-1,-1,-1,-1,-1,-1],"split_conditions":[1E0,-4.6389457E-2,5.529509E2,3.5988417E-1,-2.87E2,1E0,3.3658928E1,-2.5778785E-2,1.9536068E-1,-9.523212E-3,9.5653825E-2,-4.4064544E-2,7.102173E-3],"split_indices":[17,0,1,4,37,27,2,0,0,0,0,0,0],"split_type":[0,0,0,0,0,0,0,0,0,0,0,0,0],"sum_hessian":[4.2024303E1,1.2513258E1,2.9511044E1,2.721292E1,2.298124E0,1.1356287E1,1.5856632E1,1.0577419E0,1.2403821E0,5.155237E0,6.2010503E0,7.248152E0,8.60848E0],"tree_param":{"num_deleted":"0","num_feature":"38","num_nodes":"13","size_leaf_vector":"1"}},{"base_weights":[-1.0366937E-3,-5.9997566E-2,2.5757152E-1,3.6972758E-1,-5.717594E-1,5.073014E-1,9.647691E-2,1.1954647E-2,-5.7534325E-1,5.9865475E-2,4.1231345E-2,2.2626333E-2,-1.4847328E-2,-5.8543067E-2,-4.2594817E-2],"categories":[],"categories_nodes":[],"categories_segments":[],"categories_sizes":[],"default_left":[0,0,0,0,0,0,0,0,0,0,0,0,0,0,0],"id":85,"left_children":[1,-1,3,5,7,9,11,-1,13,-1,-1,-1,-1,-1,-1],"loss_changes":[4.6592548E2,0E0,1.9563069E2,6.954472E1,6.898346E-1,1.0436066E1,1.9781609E1,0E0,1.2671661E-1,0E0,0E0,0E0,0E0,0E0,0E0],"parents":[2147483647,0,0,2,2,3,3,4,4,5,5,6,6,8,8],"right_children":[2,-1,4,6,8,10,12,-1,14,-1,-1,-1,-1,-1,-1],"split_conditions":[1E0,-5.9997566E-2,1E0,1E0,8E-2,-6.188891E1,5.4731857E1,1.1954647E-2,3E0,5.9865475E-2,4.1231345E-2,2.2626333E-2,-1.4847328E-2,-5.8543067E-2,-4.2594817E-2],"split_indices":[17,0,35,16,6,3,0,0,11,0,0,0,0,0,0],"split_type":[0,0,0,0,0,0,0,0,0,0,0,0,0,0,0],"sum_hessian":[3.0060981E3,9.0614294E2,2.0999553E3,1.8502831E3,2.4967221E2,1.2301045E3,6.201785E2,1.1207931E0,2.4855142E2,6.24346E2,6.057585E2,4.0543555E2,2.14743E2,2.3009625E2,1.8455162E1],"tree_param":{"num_deleted":"0","num_feature":"38","num_nodes":"15","size_leaf_vector":"1"}},{"base_weights":[-1.1757321E-2,-5.1203173E-2,7.4856967E-1,-4.9800377E-2,9.418476E-1,1.0963033E0,6.624424E-1,1.1405511E-1,2.6445493E-2,7.7330485E-2,-3.386007E-2],"categories":[],"categories_nodes":[],"categories_segments":[],"categories_sizes":[],"default_left":[0,0,0,0,0,0,0,0,0,0,0],"id":86,"left_children":[1,-1,3,-1,5,7,9,-1,-1,-1,-1],"loss_changes":[2.2225409E2,0E0,5.633966E1,0E0,7.9527893E0,4.4092255E0,8.487778E0,0E0,0E0,0E0,0E0],"parents":[2147483647,0,0,2,2,4,4,5,5,6,6],"right_children":[2,-1,4,-1,6,8,10,-1,-1,-1,-1],"split_conditions":[1E0,-5.1203173E-2,1E0,-4.9800377E-2,-5.8992054E1,5.249993E2,2E0,1.1405511E-1,2.6445493E-2,7.7330485E-2,-3.386007E-2],"split_indices":[35,0,17,0,3,1,16,0,0,0,0],"split_type":[0,0,0,0,0,0,0,0,0,0,0],"sum_hessian":[5.822993E2,3.514086E2,2.308907E2,3.0781895E1,2.0010881E2,1.2698665E2,7.3122154E1,1.2022075E2,6.765905E0,6.603633E1,7.0858197E0],"tree_param":{"num_deleted":"0","num_feature":"38","num_nodes":"11","size_leaf_vector":"1"}},{"base_weights":[2.2954501E-2,-4.740834E-2,2.3665206E-1,8.1192154E-1,1.438563E-1,7.400593E-2,1.82223E-1,6.313705E-1,5.528991E-2,6.755628E-2,-3.4633406E-2,-1.4246953E-2,1.6473342E-1,-4.3545704E-2,1.922345E-2],"categories":[],"categories_nodes":[],"categories_segments":[],"categories_sizes":[],"default_left":[0,0,0,0,0,0,0,0,0,0,0,0,0,0,0],"id":87,