{"learner":{"attributes":{"scikit_learn":"{\"_estimator_type\": \"classifier\"}"},"feature_names":[],"feature_types":[],"gradient_booster":{"model":{"cats":{"enc":[],"feature_segments":[],"sorted_idx":[]},"gbtree_model_param":{"num_parallel_tree":"1","num_trees":"300"},"iteration_indptr":[0,1,2,3,4,5,6,7,8,9,10,11,12,13,14,15,16,17,18,19,20,21,22,23,24,25,26,27,28,29,30,31,32,33,34,35,36,37,38,39,40,41,42,43,44,45,46,47,48,49,50,51,52,53,54,55,56,57,58,59,60,61,62,63,64,65,66,67,68,69,70,71,72,73,74,75,76,77,78,79,80,81,82,83,84,85,86,87,88,89,90,91,92,93,94,95,96,97,98,99,100,101,102,103,104,105,106,107,108,109,110,111,112,113,114,115,116,117,118,119,120,121,122,123,124,125,126,127,128,129,130,131,132,133,134,135,136,137,138,139,140,141,142,143,144,145,146,147,148,149,150,151,152,153,154,155,156,157,158,159,160,161,162,163,164,165,166,167,168,169,170,171,172,173,174,175,176,177,178,179,180,181,182,183,184,185,186,187,188,189,190,191,192,193,194,195,196,197,198,199,200,201,202,203,204,205,206,207,208,209,210,211,212,213,214,215,216,217,218,219,220,221,222,223,224,225,226,227,228,229,230,231,232,233,234,235,236,237,238,239,240,241,242,243,244,245,246,247,248,249,250,251,252,253,254,255,256,257,258,259,260,261,262,263,264,265,266,267,268,269,270,271,272,273,274,275,276,277,278,279,280,281,282,283,284,285,286,287,288,289,290,291,292,293,294,295,296,297,298,299,300],"tree_info":[0,0,0,0,0,0,0,0,0,0,0,0,0,0,0,0,0,0,0,0,0,0,0,0,0,0,0,0,0,0,0,0,0,0,0,0,0,0,0,0,0,0,0,0,0,0,0,0,0,0,0,0,0,0,0,0,0,0,0,0,0,0,0,0,0,0,0,0,0,0,0,0,0,0,0,0,0,0,0,0,0,0,0,0,0,0,0,0,0,0,0,0,0,0,0,0,0,0,0,0,0,0,0,0,0,0,0,0,0,0,0,0,0,0,0,0,0,0,0,0,0,0,0,0,0,0,0,0,0,0,0,0,0,0,0,0,0,0,0,0,0,0,0,0,0,0,0,0,0,0,0,0,0,0,0,0,0,0,0,0,0,0,0,0,0,0,0,0,0,0,0,0,0,0,0,0,0,0,0,0,0,0,0,0,0,0,0,0,0,0,0,0,0,0,0,0,0,0,0,0,0,0,0,0,0,0,0,0,0,0,0,0,0,0,0,0,0,0,0,0,0,0,0,0,0,0,0,0,0,0,0,0,0,0,0,0,0,0,0,0,0,0,0,0,0,0,0,0,0,0,0,0,0,0,0,0,0,0,0,0,0,0,0,0,0,0,0,0,0,0,0,0,0,0,0,0,0,0,0,0,0,0,0,0,0,0,0,0,0,0,0,0,0,0,0,0,0,0,0,0],"trees":[{"base_weights":[2.9020471E-2,9.979101E-2,-1.2782692E0,-9.9782966E-2,-2.7518005E-3,-3.6714396E-1,5.826733E-1,-1.1812287E-2,-8.714414E-1,-1.6024303E-2,8.668954E-1,-7.861496E-2,6.702013E-2,-5.6761646E-1,-1.255107E0,-1.1608034E0,2.2836995E-1,9.4571936E-1,-8.510986E-1,2.5655061E-2,-1.0101834E-2,-3.0242126E-3,-4.0377032E-2,-7.202811E-3,-6.726445E-2,-7.647059E-2,-8.651176E-3,1.6883546E-2,-4.525858E-2,3.8182985E-2,7.616094E-2,-5.555556E-2,-1.0745902E-2],"categories":[],"categories_nodes":[],"categories_segments":[],"categories_sizes":[],"default_left":[0,0,0,0,0,0,0,0,0,0,0,0,0,0,0,0,0,0,0,0,0,0,0,0,0,0,0,0,0,0,0,0,0],"id":0,"left_children":[1,-1,3,-1,5,7,9,11,13,15,17,19,-1,21,23,25,27,29,31,-1,-1,-1,-1,-1,-1,-1,-1,-1,-1,-1,-1,-1,-1],"loss_changes":[3.081212E3,0E0,6.5872705E2,0E0,5.5708557E1,2.8831419E1,1.7062294E1,8.72629E0,7.041298E0,9.563141E0,1.000729E1,6.8143115E0,0E0,4.6899214E0,2.6688728E0,1.9240513E0,3.8023503E0,5.717888E0,3.4138155E-1,0E0,0E0,0E0,0E0,0E0,0E0,0E0,0E0,0E0,0E0,0E0,0E0,0E0,0E0],"parents":[2147483647,0,0,2,2,4,4,5,5,6,6,7,7,8,8,9,9,10,10,11,11,13,13,14,14,15,15,16,16,17,17,18,18],"right_children":[2,-1,4,-1,6,8,10,12,14,16,18,20,-1,22,24,26,28,30,32,-1,-1,-1,-1,-1,-1,-1,-1,-1,-1,-1,-1,-1,-1],"split_conditions":[1E0,9.979101E-2,1E0,-9.9782966E-2,2E0,2E0,-2.4041115E1,1.35E2,3E0,-5.4E1,8E0,2.5E-1,6.702013E-2,2E0,-2E0,-1.03939316E2,7E0,3.48E3,-1.3348593E2,2.5655061E-2,-1.0101834E-2,-3.0242126E-3,-4.0377032E-2,-7.202811E-3,-6.726445E-2,-7.647059E-2,-8.651176E-3,1.6883546E-2,-4.525858E-2,3.8182985E-2,7.616094E-2,-5.555556E-2,-1.0745902E-2],"split_indices":[17,0,16,0,16,17,0,36,17,36,15,19,0,24,11,0,15,37,1,0,0,0,0,0,0,0,0,0,0,0,0,0,0],"split_type":[0,0,0,0,0,0,0,0,0,0,0,0,0,0,0,0,0,0,0,0,0,0,0,0,0,0,0,0,0,0,0,0,0],"sum_hessian":[1.1963741E3,4.7748212E2,7.188921E2,4.5975E2,2.5914206E2,1.5995346E2,9.9188614E1,9.443634E1,6.551711E1,3.2233727E1,6.695489E1,9.088811E1,3.5482292E0,3.794663E1,2.7570488E1,5.01113E0,2.7222597E1,6.444747E1,2.5074198E0,1.5140978E1,7.574713E1,1.2589039E1,2.5357588E1,2.2648396E0,2.5305649E1,3.25E0,1.7611299E0,2.5468887E1,1.7537099E0,5.0765682E1,1.36817875E1,1.25E0,1.2574198E0],"tree_param":{"num_deleted":"0","num_feature":"38","num_nodes":"33","size_leaf_vector":"1"}},{"base_weights":[-7.3666116E-3,9.5049195E-2,-1.2471848E0,-9.5050864E-2,-1.1505188E-2,-3.8609973E-1,6.077184E-1,-5.3023733E-2,-8.6978424E-1,9.124346E-1,1.8683885E-1,-9.714642E-2,9.5959944E-1,-5.921161E-1,-1.247956E0,6.136687E-1,1.5477005E0,-5.0250846E-1,5.515992E-1,2.5154158E-4,-2.669228E-2,9.686402E-3,6.1877914E-2,-3.561465E-2,2.3852257E-2,-6.5045245E-2,2.0579793E-3,1.5846537E-2,5.5732638E-2,8.3740704E-2,3.306034E-2,-6.0341712E-2,2.192751E-3,-4.0185552E-2,3.3045106E-2],"categories":[],"categories_nodes":[],"categories_segments":[],"categories_sizes":[],"default_left":[0,0,0,0,0,0,0,0,0,0,0,0,0,0,0,0,0,0,0,0,0,0,0,0,0,0,0,0,0,0,0,0,0,0,0],"id":1,"left_children":[1,-1,3,-1,5,7,9,11,13,15,17,19,21,23,25,27,29,31,33,-1,-1,-1,-1,-1,-1,-1,-1,-1,-1,-1,-1,-1,-1,-1,-1],"loss_changes":[2.830999E3,0E0,5.8597314E2,0E0,5.868469E1,2.5346653E1,1.2060368E1,4.3112426E0,6.0037003E0,9.500477E0,1.0663846E1,4.0797772E0,6.189451E-1,5.341692E0,1.8475494E0,5.460189E0,8.031845E-1,5.7548723E0,4.6035786E0,0E0,0E0,0E0,0E0,0E0,0E0,0E0,0E0,0E0,0E0,0E0,0E0,0E0,0E0,0E0,0E0],"parents":[2147483647,0,0,2,2,4,4,5,5,6,6,7,7,8,8,9,9,10,10,11,11,12,12,13,13,14,14,15,15,16,16,17,17,18,18],"right_children":[2,-1,4,-1,6,8,10,12,14,16,18,20,22,24,26,28,30,32,34,-1,-1,-1,-1,-1,-1,-1,-1,-1,-1,-1,-1,-1,-1,-1,-1],"split_conditions":[1E0,9.5049195E-2,1E0,-9.5050864E-2,2E0,2E0,2E0,2.08E2,3E0,6E0,4.1054025E-1,2.2502011E2,-1.6164284E2,4E0,1.22E2,2E0,3.8E1,-1.208E3,2E0,2.5154158E-4,-2.669228E-2,9.686402E-3,6.1877914E-2,-3.561465E-2,2.3852257E-2,-6.5045245E-2,2.0579793E-3,1.5846537E-2,5.5732638E-2,8.3740704E-2,3.306034E-2,-6.0341712E-2,2.192751E-3,-4.0185552E-2,3.3045106E-2],"split_indices":[17,0,16,0,16,17,17,8,17,18,4,1,1,23,8,21,7,37,7,0,0,0,0,0,0,0,0,0,0,0,0,0,0,0,0],"split_type":[0,0,0,0,0,0,0,0,0,0,0,0,0,0,0,0,0,0,0,0,0,0,0,0,0,0,0,0,0,0,0,0,0,0,0],"sum_hessian":[1.1945281E3,4.7022144E2,7.243066E2,4.733209E2,2.5098572E2,1.5661758E2,9.4368126E1,9.340585E1,6.321174E1,5.406049E1,4.0307636E1,9.037216E1,3.0336914E0,3.792874E1,2.5282995E1,3.810547E1,1.5955019E1,1.381726E1,2.6490376E1,7.40376E1,1.6334564E1,1.2597146E0,1.7739767E0,3.439628E1,3.5324621E0,2.4276714E1,1.0062813E0,2.4956245E1,1.3149223E1,1.3176409E1,2.7786105E0,5.507983E0,8.309277E0,1.5028305E0,2.4987545E1],"tree_param":{"num_deleted":"0","num_feature":"38","num_nodes":"35","size_leaf_vector":"1"}},{"base_weights":[-3.6756569E-3,-9.0957575E-2,1.1904796E0,9.095539E-2,1.6673645E-2,-3.4772938E-1,6.0993034E-1,2.3175444E-2,-8.845179E-1,2.9697785E-1,9.8602897E-1,1.4837424E-1,-6.461352E-1,-6.376768E-1,-1.1902025E0,-8.771277E-2,8.1808066E-1,-3.4979367E-1,1.0589268E0,4.0905783E-3,5.6340165E-2,-5.4686453E-2,9.4215677E-4,-1.5495518E-2,-5.0522782E-2,-2.7191598E-2,-6.9641635E-2,-4.2279165E-2,5.932938E-3,5.50639E-2,4.1995696E-3,-2.5832862E-2,-4.4494876E-4,4.331828E-2,7.965141E-2],"categories":[],"categories_nodes":[],"categories_segments":[],"categories_sizes":[],"default_left":[0,0,0,0,0,0,0,0,0,0,0,0,0,0,0,0,0,0,0,0,0,0,0,0,0,0,0,0,0,0,0,0,0,0,0],"id":2,"left_children":[1,-1,3,-1,5,7,9,11,13,15,17,19,21,23,25,27,29,31,33,-1,-1,-1,-1,-1,-1,-1,-1,-1,-1,-1,-1,-1,-1,-1,-1],"loss_changes":[2.6074724E3,0E0,5.3531885E2,0E0,5.513261E1,3.1480679E1,1.1127777E1,8.00799E0,4.1149864E0,1.0975436E1,4.6198463E0,5.1410656E0,4.5047045E0,4.3164873E0,2.8709335E0,5.1357417E0,4.7300367E0,1.666125E-1,2.9012222E0,0E0,0E0,0E0,0E0,0E0,0E0,0E0,0E0,0E0,0E0,0E0,0E0,0E0,0E0,0E0,0E0],"parents":[2147483647,0,0,2,2,4,4,5,5,6,6,7,7,8,8,9,9,10,10,11,11,12,12,13,13,14,14,15,15,16,16,17,17,18,18],"right_children":[2,-1,4,-1,6,8,10,12,14,16,18,20,22,24,26,28,30,32,34,-1,-1,-1,-1,-1,-1,-1,-1,-1,-1,-1,-1,-1,-1,-1,-1],"split_conditions":[1E0,-9.0957575E-2,1E0,9.095539E-2,2E0,2E0,3E0,3E0,3E0,2E0,-2.7454883E2,1.35E2,-5.1650475E1,1E0,5E0,-1.208E3,4E0,1E0,2.3075641E2,4.0905783E-3,5.6340165E-2,-5.4686453E-2,9.4215677E-4,-1.5495518E-2,-5.0522782E-2,-2.7191598E-2,-6.9641635E-2,-4.2279165E-2,5.932938E-3,5.50639E-2,4.1995696E-3,-2.5832862E-2,-4.4494876E-4,4.331828E-2,7.965141E-2],"split_indices":[16,0,17,0,16,17,16,26,17,21,3,36,0,9,18,37,23,21,0,0,0,0,0,0,0,0,0,0,0,0,0,0,0,0,0],"split_type":[0,0,0,0,0,0,0,0,0,0,0,0,0,0,0,0,0,0,0,0,0,0,0,0,0,0,0,0,0,0,0,0,0,0,0],"sum_hessian":[1.200732E3,4.7621637E2,7.245157E2,4.7147107E2,2.5304463E2,1.5701396E2,9.603067E1,9.342021E1,6.359375E1,5.3392384E1,4.263829E1,7.935473E1,1.4065487E1,3.6890575E1,2.6703178E1,3.1195093E1,2.219729E1,2.0098715E0,4.0628418E1,7.5314674E1,4.040054E0,8.021496E0,6.043991E0,2.0604973E1,1.62856E1,7.2524443E0,1.9450733E1,6.013601E0,2.5181494E1,1.5656949E1,6.540341E0,1.0032176E0,1.0066539E0,3.1789383E1,8.839033E0],"tree_param":{"num_deleted":"0","num_feature":"38","num_nodes":"35","size_leaf_vector":"1"}},{"base_weights":[-8.236472E-3,8.738394E-2,-1.1550671E0,-6.9155914E-1,-1.3729862E0,-8.365307E-1,6.570802E-1,-1.586875E0,-1.2937502E0,-1.5947067E0,-6.4776987E-1,1.4636163E0,5.636477E-2,-1.6052004E0,-7.222902E-1,-7.501994E-2,-1.2116526E0,-2.3062332E-2,-8.1659876E-2,-1.1367418E0,-4.2163917E-1,1.2418837E-2,8.0638014E-2,-3.9837018E-1,6.1722875E-1,-9.074628E-1,-1.6295696E0,1.5320236E-2,-6.0918327E-2,-1.3560568E0,-1.0696914E0,-7.0994906E-2,-4.1989204E-2,-2.5342984E-2,1.9208865E-2,-4.210269E-2,3.439861E-2,-1.6617907E-2,5.418385E-2,-6.0866166E-2,3.3346654E-3,-8.1824414E-2,-2.6859744E-2,-2.504294E-2,-6.906687E-2,-5.8223784E-2,-2.9403323E-2],"categories":[],"categories_nodes":[],"categories_segments":[],"categories_sizes":[],"default_left":[0,0,0,0,0,0,0,0,0,0,0,0,0,0,0,0,0,0,0,0,0,0,0,0,0,0,0,0,0,0,0,0,0,0,0,0,0,0,0,0,0,0,0,0,0,0,0],"id":3,"left_children":[1,-1,3,5,7,9,11,13,15,17,19,21,23,25,27,-1,29,-1,-1,31,33,-1,-1,35,37,39,41,-1,-1,43,45,-1,-1,-1,-1,-1,-1,-1,-1,-1,-1,-1,-1,-1,-1,-1,-1],"loss_changes":[2.388508E3,0E0,7.1522095E1,4.580474E1,6.2009277E0,2.8940826E1,1.107381E1,8.5647583E-1,4.3029175E0,1.0382843E0,1.8248749E1,1.3736954E0,3.8770037E0,6.258545E-1,2.6487725E0,0E0,3.9491577E0,0E0,0E0,3.2616272E0,8.257137E0,0E0,0E0,4.6618967E0,3.3574815E0,2.0232534E0,1.5319824E-2,0E0,0E0,2.0504608E0,5.5949097E0,0E0,0E0,0E0,0E0,0E0,0E0,0E0,0E0,0E0,0E0,0E0,0E0,0E0,0E0,0E0,0E0],"parents":[2147483647,0,0,2,2,3,3,4,4,5,5,6,6,7,7,8,8,9,9,10,10,11,11,12,12,13,13,14,14,16,16,19,19,20,20,23,23,24,24,25,25,26,26,29,29,30,30],"right_children":[2,-1,4,6,8,10,12,14,16,18,20,22,24,26,28,-1,30,-1,-1,32,34,-1,-1,36,38,40,42,-1,-1,44,46,-1,-1,-1,-1,-1,-1,-1,-1,-1,-1,-1,-1,-1,-1,-1,-1],"split_conditions":[1E0,8.738394E-2,3.7E1,2.2737134E2,9.2E-1,1E0,2.8E1,3.22698E2,-7.1E1,-2E0,-6.685944E1,1E0,2.9919916E2,-3.9242853E2,5.8E1,-7.501994E-2,-5.9683674E1,-2.3062332E-2,-8.1659876E-2,-2.8028516E2,4E0,1.2418837E-2,8.0638014E-2,9.4E1,-2.2100482E2,-2.5729584E2,6E0,1.5320236E-2,-6.0918327E-2,-6.8E1,3E0,-7.0994906E-2,-4.1989204E-2,-2.5342984E-2,1.9208865E-2,-4.210269E-2,3.439861E-2,-1.6617907E-2,5.418385E-2,-6.0866166E-2,3.3346654E-3,-8.1824414E-2,-2.6859744E-2,-2.504294E-2,-6.906687E-2,-5.8223784E-2,-2.9403323E-2],"split_indices":[17,0,7,0,6,6,8,1,36,11,0,27,0,1,7,0,2,0,0,3,9,0,0,8,1,2,22,0,0,36,23,0,0,0,0,0,0,0,0,0,0,0,0,0,0,0,0],"split_type":[0,0,0,0,0,0,0,0,0,0,0,0,0,0,0,0,0,0,0,0,0,0,0,0,0,0,0,0,0,0,0,0,0,0,0,0,0,0,0,0,0,0,0,0,0,0,0],"sum_hessian":[1.1841046E3,4.676147E2,7.164899E2,2.3046681E2,4.8602313E2,2.084403E2,2.2026499E1,1.26235916E2,3.597872E2,4.0065422E1,1.683749E2,8.789301E0,1.3237197E1,1.22776955E2,3.4589646E0,9.738432E1,2.624029E2,1.7422974E0,3.8323124E1,5.1970333E1,1.1640456E2,1.2521346E0,7.537166E0,7.4702334E0,5.766964E0,5.433823E0,1.1734313E2,1.2497494E0,2.2092152E0,1.2584248E2,1.365604E2,2.4667654E1,2.7302677E1,1.0560692E2,1.0797637E1,5.4636455E0,2.0065877E0,1.9943576E0,3.7726066E0,3.9331455E0,1.5006775E0,1.1610964E2,1.2334876E0,4.2107716E0,1.2163171E2,1.1291987E2,2.3640532E1],"tree_param":{"num_deleted":"0","num_feature":"38","num_nodes":"47","size_leaf_vector":"1"}},{"base_weights":[1.7157514E-2,8.424766E-2,-1.0761404E0,-1.4934093E0,-5.2370536E-1,-8.470222E-2,-1.1460387E0,-9.1829485E-1,-8.3838105E-2,-9.3392736E-1,-8.32898E-2,-7.762762E-2,-8.144655E-1,-1.050139E0,4.1432697E-2,-1.3833694E0,-7.711001E-1,-3.692152E-1,-1.0157566E0,-1.2625669E0,-2.851108E-1,3.936158E-1,-3.739267E-1,-7.185184E-2,1.6228439E-3,-1.44194905E-2,-4.6963334E-2,-3.807079E-2,-1.5318034E-3,-6.206692E-2,-3.806831E-2,-6.814984E-2,-8.79924E-3,2.050097E-2,-4.4449683E-2,3.130814E-3,4.6931427E-2,-2.7466625E-2,5.268976E-2],"categories":[],"categories_nodes":[],"categories_segments":[],"categories_sizes":[],"default_left":[0,0,0,0,0,0,0,0,0,0,0,0,0,0,0,0,0,0,0,0,0,0,0,0,0,0,0,0,0,0,0,0,0,0,0,0,0,0,0],"id":4,"left_children":[1,-1,3,5,7,-1,9,11,13,15,-1,-1,17,19,21,23,25,27,29,31,33,35,37,-1,-1,-1,-1,-1,-1,-1,-1,-1,-1,-1,-1,-1,-1,-1,-1],"loss_changes":[2.1669617E3,0E0,1.6469366E2,2.6523193E1,5.3804695E1,0E0,1.5270187E1,9.505386E0,1.7946339E1,7.0318527E0,0E0,0E0,1.240889E1,2.404522E0,1.9439825E1,2.1871605E0,6.506775E0,6.0823107E0,4.6591263E0,1.1811962E0,2.458613E0,1.2904334E1,1.5862202E1,0E0,0E0,0E0,0E0,0E0,0E0,0E0,0E0,0E0,0E0,0E0,0E0,0E0,0E0,0E0,0E0],"parents":[2147483647,0,0,2,2,3,3,4,4,6,6,7,7,8,8,9,9,12,12,13,13,14,14,15,15,16,16,17,17,18,18,19,19,20,20,21,21,22,22],"right_children":[2,-1,4,6,8,-1,10,12,14,16,-1,-1,18,20,22,24,26,28,30,32,34,36,38,-1,-1,-1,-1,-1,-1,-1,-1,-1,-1,-1,-1,-1,-1,-1,-1],"split_conditions":[1E0,8.424766E-2,3E0,2E0,-1.3876393E1,-8.470222E-2,2E0,1E0,1E0,-9.79E2,-8.32898E-2,-7.762762E-2,2E0,1.1253172E2,2E0,9.828906E1,1E0,1E0,-9.880383E1,8.6E1,2E0,5E0,2.587486E2,-7.185184E-2,1.6228439E-3,-1.44194905E-2,-4.6963334E-2,-3.807079E-2,-1.5318034E-3,-6.206692E-2,-3.806831E-2,-6.814984E-2,-8.79924E-3,2.050097E-2,-4.4449683E-2,3.130814E-3,4.6931427E-2,-2.7466625E-2,5.268976E-2],"split_indices":[17,0,18,18,0,0,17,5,5,37,0,0,17,2,17,0,23,27,2,8,21,18,0,0,0,0,0,0,0,0,0,0,0,0,0,0,0,0,0],"split_type":[0,0,0,0,0,0,0,0,0,0,0,0,0,0,0,0,0,0,0,0,0,0,0,0,0,0,0,0,0,0,0,0,0,0,0,0,0,0,0],"sum_hessian":[1.1864253E3,4.6956924E2,7.168561E2,4.074186E2,3.0943747E2,2.5579758E2,1.5162103E2,1.6254047E2,1.46897E2,1.0966425E2,4.1956776E1,2.090234E1,1.4163812E2,1.6010893E1,1.3088611E2,2.7170702E1,8.249355E1,4.4979324E1,9.66588E1,1.2022275E1,3.9886184E0,7.085799E1,6.0028122E1,2.6163965E1,1.0067366E0,2.2015247E1,6.0478302E1,2.0260859E1,2.4718468E1,4.9173935E1,4.7484863E1,1.0772236E1,1.2500384E0,2.003461E0,1.9851576E0,4.477807E1,2.6079922E1,5.4008083E1,6.0200396E0],"tree_param":{"num_deleted":"0","num_feature":"38","num_nodes":"39","size_leaf_vector":"1"}},{"base_weights":[-1.4237541E-2,-8.259425E-2,1.0455104E0,8.146378E-2,2.4048254E-2,-2.720718E-1,5.00352E-1,3.854007E-2,-7.4081475E-1,8.244208E-1,1.217855E-1,8.0194265E-2,-6.4723976E-2,-4.7395796E-1,-1.0899608E0,5.017068E-1,1.1741444E0,-8.265297E-2,1.0831057E0,1.1918227E-3,4.3471906E-2,-9.50422E-3,-4.1731324E-2,4.0032896E-3,-6.1258346E-2,3.0544922E-2,-5.460289E-2,-4.5610406E-4,6.394329E-2,-2.1579068E-2,1.6733078E-2,6.7615315E-2,-4.114091E-3],"categories":[],"categories_nodes":[],"categories_segments":[],"categories_sizes":[],"default_left":[0,0,0,0,0,0,0,0,0,0,0,0,0,0,0,0,0,0,0,0,0,0,0,0,0,0,0,0,0,0,0,0,0],"id":5,"left_children":[1,-1,3,-1,5,7,9,11,13,15,17,19,-1,21,23,25,27,29,31,-1,-1,-1,-1,-1,-1,-1,-1,-1,-1,-1,-1,-1,-1],"loss_changes":[2.0183656E3,0E0,4.209956E2,0E0,3.6496178E1,2.3267677E1,1.206732E1,5.487015E0,5.415016E0,5.4222984E0,9.310285E0,4.202812E0,0E0,3.716918E0,4.3392754E0,5.7917886E0,3.0867004E0,5.9134436E0,2.7148008E0,0E0,0E0,0E0,0E0,0E0,0E0,0E0,0E0,0E0,0E0,0E0,0E0,0E0,0E0],"parents":[2147483647,0,0,2,2,4,4,5,5,6,6,7,7,8,8,9,9,10,10,11,11,13,13,14,14,15,15,16,16,17,17,18,18],"right_children":[2,-1,4,-1,6,8,10,12,14,16,18,20,-1,22,24,26,28,30,32,-1,-1,-1,-1,-1,-1,-1,-1,-1,-1,-1,-1,-1,-1],"split_conditions":[1E0,-8.259425E-2,1E0,8.146378E-2,2E0,2E0,2E0,5E0,3E0,5E0,3.9714355E2,2.1963605E2,-6.4723976E-2,1E0,1E0,5.3688525E2,-4E1,4E0,3E0,1.1918227E-3,4.3471906E-2,-9.50422E-3,-4.1731324E-2,4.0032896E-3,-6.1258346E-2,3.0544922E-2,-5.460289E-2,-4.5610406E-4,6.394329E-2,-2.1579068E-2,1.6733078E-2,6.7615315E-2,-4.114091E-3],"split_indices":[16,0,17,0,16,17,17,9,17,18,1,0,0,9,23,1,36,36,26,0,0,0,0,0,0,0,0,0,0,0,0,0,0],"split_type":[0,0,0,0,0,0,0,0,0,0,0,0,0,0,0,0,0,0,0,0,0,0,0,0,0,0,0,0,0,0,0,0,0],"sum_hessian":[1.1609971E3,4.5591098E2,7.050861E2,4.482923E2,2.5679385E2,1.5861253E2,9.8181305E1,9.594951E1,6.2663033E1,5.2263668E1,4.5917637E1,9.395348E1,1.9960186E0,3.6853165E1,2.5809868E1,2.8447647E1,2.3816023E1,3.8618816E1,7.298821E0,8.86532E1,5.3002887E0,2.1476534E1,1.5376633E1,2.7158313E0,2.3094036E1,2.7200768E1,1.246879E0,2.0106122E0,2.180541E1,2.1014128E1,1.7604687E1,5.7989025E0,1.4999186E0],"tree_param":{"num_deleted":"0","num_feature":"38","num_nodes":"33","size_leaf_vector":"1"}},{"base_weights":[-1.102591E-3,-8.001269E-2,1.0231656E0,7.898991E-2,4.2978797E-2,-3.06659E-1,5.917104E-1,1.2502925E-2,-7.544763E-1,4.1885844E-1,1.0741359E0,-4.088254E-2,5.871746E-2,-5.285309E-1,-1.0344447E0,6.895806E-1,-8.471882E-3,1.2449259E0,-3.0308986E-2,7.5640455E-3,-1.5368733E-2,-1.3487785E-2,-4.324619E-2,-6.8880925E-3,-5.4902088E-2,9.241473E-3,4.3662228E-2,-2.8727015E-2,1.4346458E-2,9.333141E-3,6.485336E-2],"categories":[],"categories_nodes":[],"categories_segments":[],"categories_sizes":[],"default_left":[0,0,0,0,0,0,0,0,0,0,0,0,0,0,0,0,0,0,0,0,0,0,0,0,0,0,0,0,0,0,0],"id":6,"left_children":[1,-1,3,-1,5,7,9,11,13,15,17,19,-1,21,23,25,27,29,-1,-1,-1,-1,-1,-1,-1,-1,-1,-1,-1,-1,-1],"loss_changes":[1.8548325E3,0E0,3.7655017E2,0E0,4.8346264E1,2.2019932E1,7.7259636E0,5.6861057E0,3.5080605E0,8.546165E0,7.993389E0,4.546453E0,0E0,3.0325365E0,1.4216747E0,4.029236E0,5.117482E0,1.0393715E0,0E0,0E0,0E0,0E0,0E0,0E0,0E0,0E0,0E0,0E0,0E0,0E0,0E0],"parents":[2147483647,0,0,2,2,4,4,5,5,6,6,7,7,8,8,9,9,10,10,11,11,13,13,14,14,15,15,16,16,17,17],"right_children":[2,-1,4,-1,6,8,10,12,14,16,18,20,-1,22,24,26,28,30,-1,-1,-1,-1,-1,-1,-1,-1,-1,-1,-1,-1,-1],"split_conditions":[1E0,-8.001269E-2,1E0,7.898991E-2,2E0,2E0,5E0,2.08E2,3E0,2E0,9E0,1.8E2,5.871746E-2,1E0,-2E0,-2.4041115E1,-6.355896E1,-5.670143E2,-3.0308986E-2,7.5640455E-3,-1.5368733E-2,-1.3487785E-2,-4.324619E-2,-6.8880925E-3,-5.4902088E-2,9.241473E-3,4.3662228E-2,-2.8727015E-2,1.4346458E-2,9.333141E-3,6.485336E-2],"split_indices":[16,0,17,0,16,17,14,8,17,17,15,37,0,10,11,0,1,1,0,0,0,0,0,0,0,0,0,0,0,0,0],"split_type":[0,0,0,0,0,0,0,0,0,0,0,0,0,0,0,0,0,0,0,0,0,0,0,0,0,0,0,0,0,0,0],"sum_hessian":[1.1304048E3,4.411272E2,6.892776E2,4.392326E2,2.5004497E2,1.5299902E2,9.704594E1,8.989934E1,6.309969E1,7.282216E1,2.4223778E1,8.687247E1,3.0268745E0,3.6516933E1,2.6582756E1,4.420422E1,2.861794E1,2.2224007E1,1.9997704E0,5.0726604E1,3.6145863E1,2.1658058E1,1.4858875E1,1.9702007E0,2.4612556E1,1.2328626E1,3.1875593E1,9.489169E0,1.912877E1,1.2586355E0,2.096537E1],"tree_param":{"num_deleted":"0","num_feature":"38","num_nodes":"31","size_leaf_vector":"1"}},{"base_weights":[-3.5122555E-2,-7.7715546E-2,9.696744E-1,7.6773524E-2,9.206249E-4,-2.792868E-1,4.6421456E-1,-1.488619E-1,-8.688081E-1,7.723193E-1,3.9682075E-2,-1.8806076E-1,9.1338784E-1,-1.3830005E0,-5.700403E-1,4.9800324E-1,1.0714415E0,-1.3767363E-1,1.1492418E0,7.2952695E-3,-1.4398999E-2,1.5322649E-3,5.7014316E-2,-2.1907754E-2,-7.3263235E-2,1.2486274E-2,-4.394295E-2,4.4181485E-2,5.4966444E-3,5.8621258E-2,4.9039563E-3,-3.803115E-2,7.341823E-3,8.942547E-3,6.9119215E-2],"categories":[],"categories_nodes":[],"categories_segments":[],"categories_sizes":[],"default_left":[0,0,0,0,0,0,0,0,0,0,0,0,0,0,0,0,0,0,0,0,0,0,0,0,0,0,0,0,0,0,0,0,0,0,0],"id":7,"left_children":[1,-1,3,-1,5,7,9,11,13,15,17,19,21,23,25,27,29,31,33,-1,-1,-1,-1,-1,-1,-1,-1,-1,-1,-1,-1,-1,-1,-1,-1],"loss_changes":[1.7102208E3,0E0,3.6963452E2,0E0,3.253825E1,1.1879436E1,1.2324892E1,5.547247E0,3.526558E0,3.9532967E0,8.182981E0,4.224302E0,9.194732E-1,1.0580826E-1,5.1475635E0,4.451056E0,2.3708382E0,6.5013866E0,1.0484138E0,0E0,0E0,0E0,0E0,0E0,0E0,0E0,0E0,0E0,0E0,0E0,0E0,0E0,0E0,0E0,0E0],"parents":[2147483647,0,0,2,2,4,4,5,5,6,6,7,7,8,8,9,9,10,10,11,11,12,12,13,13,14,14,15,15,16,16,17,17,18,18],"right_children":[2,-1,4,-1,6,8,10,12,14,16,18,20,22,24,26,28,30,32,34,-1,-1,-1,-1,-1,-1,-1,-1,-1,-1,-1,-1,-1,-1,-1,-1],"split_conditions":[1E0,-7.7715546E-2,1E0,7.6773524E-2,2E0,3E0,2E0,1.28E2,2.7911448E-1,5E0,6E0,1E0,7.3E2,-5.713062E2,1.3E1,1.3E1,1E0,4.1054025E-1,1.573189E1,7.2952695E-3,-1.4398999E-2,1.5322649E-3,5.7014316E-2,-2.1907754E-2,-7.3263235E-2,1.2486274E-2,-4.394295E-2,4.4181485E-2,5.4966444E-3,5.8621258E-2,4.9039563E-3,-3.803115E-2,7.341823E-3,8.942547E-3,6.9119215E-2],"split_indices":[16,0,17,0,16,17,17,36,4,18,16,23,37,3,8,36,12,4,3,0,0,0,0,0,0,0,0,0,0,0,0,0,0,0,0],"split_type":[0,0,0,0,0,0,0,0,0,0,0,0,0,0,0,0,0,0,0,0,0,0,0,0,0,0,0,0,0,0,0,0,0,0,0],"sum_hessian":[1.1183846E3,4.4501053E2,6.7337415E2,4.2472852E2,2.4864566E2,1.551847E2,9.346096E1,1.2809717E2,2.7087532E1,5.368199E1,3.977897E1,1.24332054E2,3.7651095E0,8.621146E0,1.8466385E1,2.9392181E1,2.428981E1,3.505205E1,4.726916E0,2.8526365E1,9.580569E1,1.0019829E0,2.7631266E0,1.1971762E0,7.42397E0,5.105385E0,1.3361001E1,1.4102004E1,1.5290178E1,2.1821392E1,2.4684184E0,1.0464986E1,2.4587067E1,1.2579945E0,3.4689214E0],"tree_param":{"num_deleted":"0","num_feature":"38","num_nodes":"35","size_leaf_vector":"1"}},{"base_weights":[-9.683037E-3,-7.561954E-2,9.512491E-1,7.4782334E-2,5.7174735E-2,3.2479936E-1,-3.162943E-1,1.8323782E-1,1.0487515E0,-6.058574E-1,7.631003E-2,5.8412457E-1,5.8758855E-2,1.1353196E0,-8.357375E-3,-3.603175E-1,-9.295779E-1,-6.440556E-1,3.9131534E-1,-3.7774534E-3,3.7766565E-2,-1.0225257E-2,1.2187138E-2,6.7408256E-2,2.6285753E-2,-4.7795024E-2,-5.640082E-3,1.4609145E-2,-5.1998086E-2,-7.2140293E-3,-5.8116563E-2,7.161643E-2,1.2844323E-2],"categories":[],"categories_nodes":[],"categories_segments":[],"categories_sizes":[],"default_left":[0,0,0,0,0,0,0,0,0,0,0,0,0,0,0,0,0,0,0,0,0,0,0,0,0,0,0,0,0,0,0,0,0],"id":8,"left_children":[1,-1,3,-1,5,7,9,11,13,15,17,19,21,23,-1,25,27,29,31,-1,-1,-1,-1,-1,-1,-1,-1,-1,-1,-1,-1,-1,-1],"loss_changes":[1.5862482E3,0E0,3.2604767E2,0E0,2.5552147E1,1.5059851E1,1.218753E1,6.2380643E0,2.729601E0,4.5596066E0,1.0740588E1,3.4079933E0,4.774893E0,2.2306595E0,0E0,5.2949815E0,3.800478E0,3.5727172E0,4.2195044E0,0E0,0E0,0E0,0E0,0E0,0E0,0E0,0E0,0E0,0E0,0E0,0E0,0E0,0E0],"parents":[2147483647,0,0,2,2,4,4,5,5,6,6,7,7,8,8,9,9,10,10,11,11,12,12,13,13,15,15,16,16,17,17,18,18],"right_children":[2,-1,4,-1,6,8,10,12,14,16,18,20,22,24,-1,26,28,30,32,-1,-1,-1,-1,-1,-1,-1,-1,-1,-1,-1,-1,-1,-1],"split_conditions":[1E0,-7.561954E-2,1E0,7.4782334E-2,2E0,3E0,2E0,1E0,1E0,3E0,-1E1,9.6E-1,-5.383804E0,3.6E1,-8.357375E-3,2E-1,-6.5E1,4E0,-6E0,-3.7774534E-3,3.7766565E-2,-1.0225257E-2,1.2187138E-2,6.7408256E-2,2.6285753E-2,-4.7795024E-2,-5.640082E-3,1.4609145E-2,-5.1998086E-2,-7.2140293E-3,-5.8116563E-2,7.161643E-2,1.2844323E-2],"split_indices":[16,0,17,0,17,16,16,23,12,17,36,6,0,7,0,25,36,15,36,0,0,0,0,0,0,0,0,0,0,0,0,0,0],"split_type":[0,0,0,0,0,0,0,0,0,0,0,0,0,0,0,0,0,0,0,0,0,0,0,0,0,0,0,0,0,0,0,0,0],"sum_hessian":[1.0965134E3,4.2746652E2,6.6904694E2,4.1542426E2,2.5362267E2,1.4782376E2,1.0579889E2,1.2469418E2,2.3129585E1,6.0577286E1,4.5221603E1,2.8669851E1,9.602433E1,2.165415E1,1.4754349E0,3.5650024E1,2.4927263E1,1.3440589E1,3.1781015E1,6.022683E0,2.264717E1,3.9583977E1,5.6440353E1,1.5152178E1,6.5019727E0,9.625872E0,2.6024153E1,1.929045E0,2.2998219E1,7.493228E0,5.947361E0,2.5304408E0,2.9250574E1],"tree_param":{"num_deleted":"0","num_feature":"38","num_nodes":"33","size_leaf_vector":"1"}},{"base_weights":[5.679075E-3,-7.371705E-2,9.34917E-1,7.2944276E-2,3.939191E-1,7.4010897E-1,9.235891E-2,-4.1954543E-2,7.642076E-1,-1.3597722E-1,4.6105242E-1,5.5180043E-1,9.524281E-1,-6.9324857E-1,5.7541723E-3,6.615031E-1,-1.6295132E-1,5.88909E-3,3.1599574E-2,2.9654542E-2,5.7696503E-2,5.0196745E-3,-4.138392E-2,-3.4346376E-3,3.685643E-2,6.0535683E-3,4.4841606E-2,-4.2350903E-2,1.7853292E-2],"categories":[],"categories_nodes":[],"categories_segments":[],"categories_sizes":[],"default_left":[0,0,0,0,0,0,0,0,0,0,0,0,0,0,0,0,0,0,0,0,0,0,0,0,0,0,0,0,0],"id":9,"left_children":[1,-1,3,-1,5,7,9,-1,11,13,15,17,19,21,23,25,27,-1,-1,-1,-1,-1,-1,-1,-1,-1,-1,-1,-1],"loss_changes":[1.4711228E3,0E0,1.8569275E2,0E0,3.382623E1,6.3880615E0,1.4766819E1,0E0,5.441818E0,8.584234E0,8.491784E0,2.4489632E0,4.9459E0,2.4340076E0,4.820283E0,6.368534E0,6.3849897E0,0E0,0E0,0E0,0E0,0E0,0E0,0E0,0E0,0E0,0E0,0E0,0E0],"parents":[2147483647,0,0,2,2,4,4,5,5,6,6,8,8,9,9,10,10,11,11,12,12,13,13,14,14,15,15,16,16],"right_children":[2,-1,4,-1,6,8,10,-1,12,14,16,18,20,22,24,26,28,-1,-1,-1,-1,-1,-1,-1,-1,-1,-1,-1,-1],"split_conditions":[1E0,-7.371705E-2,1E0,7.2944276E-2,2E0,-2.18E2,2E0,-4.1954543E-2,5.43554E-1,2.8276145E-1,5E0,2.5E-1,2E0,-6.2E1,4E0,-1E1,-1.9402515E1,5.88909E-3,3.1599574E-2,2.9654542E-2,5.7696503E-2,5.0196745E-3,-4.138392E-2,-3.4346376E-3,3.685643E-2,6.0535683E-3,4.4841606E-2,-4.2350903E-2,1.7853292E-2],"split_indices":[16,0,15,0,15,36,16,0,4,4,15,20,14,36,14,36,2,0,0,0,0,0,0,0,0,0,0,0,0],"split_type":[0,0,0,0,0,0,0,0,0,0,0,0,0,0,0,0,0,0,0,0,0,0,0,0,0,0,0,0,0],"sum_hessian":[1.0676791E3,4.115719E2,6.5610724E2,3.3243747E2,3.236698E2,1.5000752E2,1.7366226E2,1.7463894E0,1.4826114E2,1.076343E2,6.602797E1,7.150233E1,7.6758804E1,2.1035172E1,8.659913E1,4.992902E1,1.609895E1,1.1535794E1,5.9966534E1,2.89952E1,4.7763607E1,3.083587E0,1.7951584E1,7.942091E1,7.178212E0,1.5605516E1,3.43235E1,6.6812034E0,9.417747E0],"tree_param":{"num_deleted":"0","num_feature":"38","num_nodes":"29","size_leaf_vector":"1"}},{"base_weights":[6.4432463E-3,-7.2022244E-2,8.8881457E-1,7.121475E-2,6.1009675E-1,1.9150287E-1,8.0768675E-1,5.010379E-1,-1.3672647E-1,1.1853004E0,5.169001E-1,5.3678644E-1,-3.5803374E-2,-6.3340753E-1,1.86336E-2,7.035745E-2,9.676007E-1,1.2935153E-1,9.402321E-1,1.9523436E-2,4.4207316E-2,-4.129048E-2,1.9812041E-3,-8.085187E-3,3.3400245E-2,3.510664E-2,6.873514E-2,1.1374823E-2,-5.414481E-2,-6.035472E-2,5.04768E-2],"categories":[],"categories_nodes":[],"categories_segments":[],"categories_sizes":[],"default_left":[0,0,0,0,0,0,0,0,0,0,0,0,0,0,0,0,0,0,0,0,0,0,0,0,0,0,0,0,0,0,0],"id":10,"left_children":[1,-1,3,-1,5,7,9,11,13,15,17,19,-1,21,23,-1,25,27,29,-1,-1,-1,-1,-1,-1,-1,-1,-1,-1,-1,-1],"loss_changes":[1.3489673E3,0E0,9.708856E1,0E0,3.5692642E1,1.4321878E1,3.168303E1,3.5351849E0,5.326509E0,4.7809143E0,2.7430275E1,3.2593403E0,0E0,2.1614866E0,6.36567E0,0E0,6.3181114E0,1.0815356E1,1.3139412E1,0E0,0E0,0E0,0E0,0E0,0E0,0E0,0E0,0E0,0E0,0E0,0E0],"parents":[2147483647,0,0,2,2,4,4,5,5,6,6,7,7,8,8,9,9,10,10,11,11,13,13,14,14,16,16,17,17,18,18],"right_children":[2,-1,4,-1,6,8,10,12,14,16,18,20,-1,22,24,-1,26,28,30,-1,-1,-1,-1,-1,-1,-1,-1,-1,-1,-1,-1],"split_conditions":[1E0,-7.2022244E-2,2E0,7.121475E-2,2E0,3E0,4E0,2.81E2,-2.0763539E2,3E0,4E0,7.7E1,-3.5803374E-2,3.5E-1,1E0,7.035745E-2,3E0,1E0,-3.1051315E2,1.9523436E-2,4.4207316E-2,-4.129048E-2,1.9812041E-3,-8.085187E-3,3.3400245E-2,3.510664E-2,6.873514E-2,1.1374823E-2,-5.414481E-2,-6.035472E-2,5.04768E-2],"split_indices":[16,0,18,0,14,18,18,7,1,18,14,7,0,25,11,0,14,12,3,0,0,0,0,0,0,0,0,0,0,0,0],"split_type":[0,0,0,0,0,0,0,0,0,0,0,0,0,0,0,0,0,0,0,0,0,0,0,0,0,0,0,0,0,0,0],"sum_hessian":[1.0546082E3,3.9926767E2,6.553405E2,2.2293034E2,4.3241016E2,1.3929123E2,2.9311893E2,7.141613E1,6.787511E1,1.261827E2,1.6693623E2,6.992138E1,1.4947505E0,1.5439262E1,5.243585E1,5.978975E1,6.639295E1,8.783306E1,7.910317E1,5.0692413E1,1.9228964E1,1.1830292E1,3.60897E0,4.1626663E1,1.0809185E1,4.183645E1,2.4556503E1,8.2006096E1,5.8269706E0,1.9598975E0,7.714327E1],"tree_param":{"num_deleted":"0","num_feature":"38","num_nodes":"31","size_leaf_vector":"1"}},{"base_weights":[1.3167785E-3,-7.0499115E-2,8.6130846E-1,7.0218585E-2,1.5587743E-2,-1.3301589E-1,6.9052076E-1,-4.900187E-3,-7.5251985E-1,-5.20845E-2,7.7191764E-1,-4.4321757E-2,9.6675986E-1,-3.6450666E-1,-1.1245754E0,5.781273E-1,1.3266667E0,1.3918139E-2,-7.050582E-3,8.7827846E-4,5.648574E-2,-3.397833E-2,1.4037537E-2,-6.686505E-2,-9.024012E-3,5.5153437E-2,1.6805748E-2,7.01065E-2,2.3920743E-2],"categories":[],"categories_nodes":[],"categories_segments":[],"categories_sizes":[],"default_left":[0,0,0,0,0,0,0,0,0,0,0,0,0,0,0,0,0,0,0,0,0,0,0,0,0,0,0,0,0],"id":11,"left_children":[1,-1,3,-1,5,7,9,11,13,-1,15,17,19,21,23,25,27,-1,-1,-1,-1,-1,-1,-1,-1,-1,-1,-1,-1],"loss_changes":[1.2425114E3,0E0,2.9213098E2,0E0,2.5141438E1,1.630842E1,7.181139E0,6.6048226E0,4.6735363E0,0E0,3.9388142E0,5.2056594E0,1.0200696E0,3.9957511E0,3.2725487E0,3.9757109E0,5.1670074E-3,0E0,0E0,0E0,0E0,0E0,0E0,0E0,0E0,0E0,0E0,0E0,0E0],"parents":[2147483647,0,0,2,2,4,4,5,5,6,6,7,7,8,8,10,10,11,11,12,12,13,13,14,14,15,15,16,16],"right_children":[2,-1,4,-1,6,8,10,12,14,-1,16,18,20,22,24,26,28,-1,-1,-1,-1,-1,-1,-1,-1,-1,-1,-1,-1],"split_conditions":[1E0,-7.0499115E-2,1E0,7.0218585E-2,3E0,3E0,-3.3804758E2,1.28E2,-9.6949265E1,-5.20845E-2,2.3075641E2,1E0,7.3E2,-1.03939316E2,3.6756757E2,5E-1,7.778E3,1.3918139E-2,-7.050582E-3,8.7827846E-4,5.648574E-2,-3.397833E-2,1.4037537E-2,-6.686505E-2,-9.024012E-3,5.5153437E-2,1.6805748E-2,7.01065E-2,2.3920743E-2],"split_indices":[16,0,17,0,16,17,3,36,3,0,0,23,37,0,1,20,37,0,0,0,0,0,0,0,0,0,0,0,0],"split_type":[0,0,0,0,0,0,0,0,0,0,0,0,0,0,0,0,0,0,0,0,0,0,0,0,0,0,0,0,0],"sum_hessian":[1.0217334E3,3.866226E2,6.3511084E2,3.8635797E2,2.4875287E2,2.0452452E2,4.4228344E1,1.703114E2,3.4213116E1,1.4555274E0,4.2772816E1,1.6458823E2,5.7231827E0,1.7716478E1,1.6496637E1,3.3212757E1,9.560058E0,3.7513832E1,1.2707439E2,1.0008917E0,4.722291E0,1.1868347E1,5.8481317E0,1.3123199E1,3.3734376E0,9.357595E0,2.3855164E1,8.179426E0,1.3806317E0],"tree_param":{"num_deleted":"0","num_feature":"38","num_nodes":"29","size_leaf_vector":"1"}},{"base_weights":[-4.6713892E-3,-6.9089174E-2,8.3898497E-1,6.883053E-2,-2.5533645E-3,-1.3184771E-1,5.8228683E-1,9.242127E-2,-4.5059678E-1,-7.9593116E-1,6.8153846E-1,-1.1486002E-1,2.3651618E-1,-8.6279255E-1,-3.1943777E-1,-5.4619104E-2,-1.7642773E-3,4.767787E-1,6.406199E-2,-2.3834143E-2,1.6609648E-2,6.1173006E-3,4.062732E-2,-4.978023E-2,1.6441379E-2,-3.473062E-3,-2.5205819E-2,3.1218374E-2,-1.0577796E-2],"categories":[],"categories_nodes":[],"categories_segments":[],"categories_sizes":[],"default_left":[0,0,0,0,0,0,0,0,0,0,0,0,0,0,0,0,0,0,0,0,0,0,0,0,0,0,0,0,0],"id":12,"left_children":[1,-1,3,-1,5,7,9,11,13,15,17,19,21,23,25,-1,-1,27,-1,-1,-1,-1,-1,-1,-1,-1,-1,-1,-1],"loss_changes":[1.1740105E3,0E0,2.835076E2,0E0,1.8623077E1,1.4458656E1,6.642003E0,3.5878549E0,4.2367153E0,7.40927E-1,4.562931E0,8.175047E0,4.547078E0,3.4228554E0,2.961327E0,0E0,0E0,3.4847846E0,0E0,0E0,0E0,0E0,0E0,0E0,0E0,0E0,0E0,0E0,0E0],"parents":[2147483647,0,0,2,2,4,4,5,5,6,6,7,7,8,8,9,9,10,10,11,11,12,12,13,13,14,14,17,17],"right_children":[2,-1,4,-1,6,8,10,12,14,16,18,20,22,24,26,-1,-1,28,-1,-1,-1,-1,-1,-1,-1,-1,-1,-1,-1],"split_conditions":[1E0,-6.9089174E-2,1E0,6.883053E-2,3E0,2E0,3E0,1E0,2.6387146E-1,5.5891067E-1,2.3075641E2,4.4143433E1,8.9E1,5.812756E0,-9.2479095E1,-5.4619104E-2,-1.7642773E-3,4E0,6.406199E-2,-2.3834143E-2,1.6609648E-2,6.1173006E-3,4.062732E-2,-4.978023E-2,1.6441379E-2,-3.473062E-3,-2.5205819E-2,3.1218374E-2,-1.0577796E-2],"split_indices":[16,0,17,0,16,17,8,22,4,4,0,2,8,0,3,0,0,21,0,0,0,0,0,0,0,0,0,0,0],"split_type":[0,0,0,0,0,0,0,0,0,0,0,0,0,0,0,0,0,0,0,0,0,0,0,0,0,0,0,0,0],"sum_hessian":[1.00850397E3,3.8288217E2,6.256218E2,3.8135397E2,2.4426782E2,2.0067735E2,4.359046E1,1.1821347E2,8.246389E1,2.4567308E0,4.113373E1,4.856104E1,6.9652435E1,1.8559233E1,6.390466E1,1.4539497E0,1.0027812E0,3.2002083E1,9.131648E0,2.6802294E1,2.1758745E1,5.914265E1,1.050978E1,1.684614E1,1.7130915E0,2.7736845E1,3.6167812E1,2.642839E1,5.573694E0],"tree_param":{"num_deleted":"0","num_feature":"38","num_nodes":"29","size_leaf_vector":"1"}},{"base_weights":[6.0232584E-3,-6.780148E-2,8.173581E-1,6.756239E-2,4.008694E-2,-1.08226836E-1,7.321874E-1,1.12092696E-1,-4.2536443E-1,-5.0635766E-2,8.1339854E-1,-1.4859499E-2,3.854656E-1,-5.2311784E-1,1.5902749E-1,6.5702057E-1,6.663718E-2,-1.3998399E-2,1.0500992E-2,-1.7714201E-3,2.8459648E-2,-5.2538197E-2,-2.116112E-2,-2.3793412E-2,2.9903103E-2,3.6198813E-2,-2.103048E-2],"categories":[],"categories_nodes":[],"categories_segments":[],"categories_sizes":[],"default_left":[0,0,0,0,0,0,0,0,0,0,0,0,0,0,0,0,0,0,0,0,0,0,0,0,0,0,0],"id":13,"left_children":[1,-1,3,-1,5,7,9,11,13,-1,15,17,19,21,23,25,-1,-1,-1,-1,-1,-1,-1,-1,-1,-1,-1],"loss_changes":[1.0908097E3,0E0,2.5664966E2,0E0,2.6040623E1,1.4661592E1,7.16687E0,4.3163643E0,4.9930143E0,0E0,2.6430912E0,5.172837E0,3.068965E0,3.448597E0,3.9314537E0,2.8495188E0,0E0,0E0,0E0,0E0,0E0,0E0,0E0,0E0,0E0,0E0,0E0],"parents":[2147483647,0,0,2,2,4,4,5,5,6,6,7,7,8,8,10,10,11,11,12,12,13,13,14,14,15,15],"right_children":[2,-1,4,-1,6,8,10,12,14,-1,16,18,20,22,24,26,-1,-1,-1,-1,-1,-1,-1,-1,-1,-1,-1],"split_conditions":[1E0,-6.780148E-2,1E0,6.756239E-2,3E0,2E0,-3.3804758E2,5.7E2,3.6756757E2,-5.0635766E-2,4.0210403E2,5.4E1,1E1,1.1E1,5E-1,3.5640994E2,6.663718E-2,-1.3998399E-2,1.0500992E-2,-1.7714201E-3,2.8459648E-2,-5.2538197E-2,-2.116112E-2,-2.3793412E-2,2.9903103E-2,3.6198813E-2,-2.103048E-2],"split_indices":[16,0,17,0,16,17,3,37,1,0,3,7,7,7,20,2,0,0,0,0,0,0,0,0,0,0,0],"split_type":[0,0,0,0,0,0,0,0,0,0,0,0,0,0,0,0,0,0,0,0,0,0,0,0,0,0,0],"sum_hessian":[9.850828E2,3.6748495E2,6.1759784E2,3.6568134E2,2.5191649E2,2.0815376E2,4.3762722E1,1.2320691E2,8.494686E1,1.4361196E0,4.2326603E1,8.478095E1,3.8425957E1,7.2863556E1,1.2083303E1,3.4272144E1,8.054458E0,3.879769E1,4.598326E1,1.192184E1,2.6504116E1,1.0083584E1,6.2779976E1,4.90549E0,7.177814E0,3.2576283E1,1.6958631E0],"tree_param":{"num_deleted":"0","num_feature":"38","num_nodes":"27","size_leaf_vector":"1"}},{"base_weights":[5.591575E-3,-6.6607565E-2,7.921113E-1,6.61119E-2,2.9401305E-1,4.0806258E-1,-2.7905303E-1,2.684121E-1,7.729903E-1,-7.747156E-1,1.2079854E-1,4.3031806E-1,5.2436482E-2,4.4744486E-1,1.0143111E0,-3.5838184E-1,-1.1050854E0,-3.710228E-1,5.4579335E-1,-3.3166964E-2,2.2799825E-2,-1.7393906E-2,6.910879E-3,3.652771E-2,-6.8826303E-3,3.4625083E-2,6.0618497E-2,-3.000035E-2,2.4911616E-2,-7.145601E-2,-2.059178E-2,-4.0809512E-2,8.442058E-3,3.5602342E-2,-2.0469436E-2],"categories":[],"categories_nodes":[],"categories_segments":[],"categories_sizes":[],"default_left":[0,0,0,0,0,0,0,0,0,0,0,0,0,0,0,0,0,0,0,0,0,0,0,0,0,0,0,0,0,0,0,0,0,0,0],"id":14,"left_children":[1,-1,3,-1,5,7,9,11,13,15,17,19,21,23,25,27,29,31,33,-1,-1,-1,-1,-1,-1,-1,-1,-1,-1,-1,-1,-1,-1,-1,-1],"loss_changes":[1.02636E3,0E0,1.6181967E2,0E0,2.0897839E1,1.3329399E1,1.067242E1,6.748625E0,5.2798653E0,2.9006042E0,6.558621E0,3.4066944E0,2.9362206E0,5.543625E0,1.7816086E0,2.8001385E0,2.305585E0,3.6686184E0,2.9462662E0,0E0,0E0,0E0,0E0,0E0,0E0,0E0,0E0,0E0,0E0,0E0,0E0,0E0,0E0,0E0,0E0],"parents":[2147483647,0,0,2,2,4,4,5,5,6,6,7,7,8,8,9,9,10,10,11,11,12,12,13,13,14,14,15,15,16,16,17,17,18,18],"right_children":[2,-1,4,-1,6,8,10,12,14,16,18,20,22,24,26,28,30,32,34,-1,-1,-1,-1,-1,-1,-1,-1,-1,-1,-1,-1,-1,-1,-1,-1],"split_conditions":[1E0,-6.6607565E-2,1E0,6.61119E-2,4E0,3E0,4.457951E-1,2E0,2E0,2E0,2E0,-2.18E2,-5.3E1,1.245E3,6.666667E-1,3E0,1E0,6.666667E-1,5E0,-3.3166964E-2,2.2799825E-2,-1.7393906E-2,6.910879E-3,3.652771E-2,-6.8826303E-3,3.4625083E-2,6.0618497E-2,-3.000035E-2,2.4911616E-2,-7.145601E-2,-2.059178E-2,-4.0809512E-2,8.442058E-3,3.5602342E-2,-2.0469436E-2],"split_indices":[16,0,15,0,15,14,4,15,26,23,16,36,36,37,19,16,28,20,23,0,0,0,0,0,0,0,0,0,0,0,0,0,0,0,0],"split_type":[0,0,0,0,0,0,0,0,0,0,0,0,0,0,0,0,0,0,0,0,0,0,0,0,0,0,0,0,0,0,0,0,0,0,0],"sum_hessian":[9.7347516E2,3.6017758E2,6.1329755E2,2.9629538E2,3.170022E2,2.6462534E2,5.2376846E1,1.9264104E2,7.1984314E1,2.2967924E1,2.940892E1,1.0953544E2,8.310559E1,3.18595E1,4.0124813E1,1.1084264E1,1.1883659E1,1.3691525E1,1.5717396E1,1.9431516E0,1.07592285E2,1.4126421E1,6.897917E1,2.1303055E1,1.0556446E1,1.6999763E1,2.3125051E1,8.879252E0,2.2050114E0,7.375E0,4.5086594E0,7.223358E0,6.4681673E0,1.360409E1,2.1133065E0],"tree_param":{"num_deleted":"0","num_feature":"38","num_nodes":"35","size_leaf_vector":"1"}},{"base_weights":[2.5433954E-3,6.505989E-2,-5.6083244E-1,-6.508298E-2,-2.540311E-1,2.3655853E-1,-5.199905E-1,-7.896432E-3,5.006446E-1,-6.466293E-2,-3.350844E-1,3.4821156E-1,-1.5879372E-1,2.3800449E-1,9.748588E-1,-5.154597E-1,5.486125E-2,2.2094447E-2,-3.382904E-2,-5.54495E-3,-5.5732977E-2,-2.785225E-2,1.5308851E-2,1.6049383E-2,5.618344E-2,-3.4150712E-2,-1.1944547E-2,-4.5727496E-3,2.9242499E-2],"categories":[],"categories_nodes":[],"categories_segments":[],"categories_sizes":[],"default_left":[0,0,0,0,0,0,0,0,0,0,0,0,0,0,0,0,0,0,0,0,0,0,0,0,0,0,0,0,0],"id":15,"left_children":[1,-1,3,-1,5,7,9,11,13,-1,15,17,19,21,23,25,27,-1,-1,-1,-1,-1,-1,-1,-1,-1,-1,-1,-1],"loss_changes":[6.8590454E2,0E0,1.482817E2,0E0,6.0613834E1,1.0569845E1,4.2596504E1,4.6753364E0,9.568655E0,0E0,1.720587E1,2.785572E0,2.6724558E0,2.9871001E0,2.337019E0,7.5792274E0,6.113176E0,0E0,0E0,0E0,0E0,0E0,0E0,0E0,0E0,0E0,0E0,0E0,0E0],"parents":[2147483647,0,0,2,2,4,4,5,5,6,6,7,7,8,8,10,10,11,11,12,12,13,13,14,14,15,15,16,16],"right_children":[2,-1,4,-1,6,8,10,12,14,-1,16,18,20,22,24,26,28,-1,-1,-1,-1,-1,-1,-1,-1,-1,-1,-1,-1],"split_conditions":[1E0,6.505989E-2,2E0,-6.508298E-2,2E0,3E0,3E0,1E0,6.5560037E-1,-6.466293E-2,4.096774E1,4E0,6E0,1.6944492E-1,5E-1,4.457951E-1,3.2997318E2,2.2094447E-2,-3.382904E-2,-5.54495E-3,-5.5732977E-2,-2.785225E-2,1.5308851E-2,1.6049383E-2,5.618344E-2,-3.4150712E-2,-1.1944547E-2,-4.5727496E-3,2.9242499E-2],"split_indices":[15,0,18,0,15,18,18,23,4,0,0,22,21,4,19,4,3,0,0,0,0,0,0,0,0,0,0,0,0],"split_type":[0,0,0,0,0,0,0,0,0,0,0,0,0,0,0,0,0,0,0,0,0,0,0,0,0,0,0,0,0],"sum_hessian":[9.355037E2,2.8264972E2,6.52854E2,1.9024075E2,4.6261322E2,1.6266724E2,2.9994598E2,8.4977104E1,7.769013E1,5.67261E1,2.432199E2,2.490211E1,6.0074997E1,5.096527E1,2.6724861E1,1.660767E2,7.714319E1,2.3337595E1,1.5645127E0,5.827127E1,1.803728E0,3.4586232E0,4.7506645E1,5.539838E0,2.1185022E1,1.0250575E2,6.357095E1,6.110195E1,1.6041237E1],"tree_param":{"num_deleted":"0","num_feature":"38","num_nodes":"29","size_leaf_vector":"1"}},{"base_weights":[3.3117558E-3,6.466692E-2,-7.5909996E-1,-6.476131E-2,-2.7839333E-2,-2.2032338E-1,2.9750016E-1,5.8815605E-4,-5.488217E-1,3.617731E-2,5.99576E-1,-7.3259674E-2,7.263435E-1,-9.647202E-1,-4.3694705E-1,-2.829372E-1,5.636902E-1,8.151116E-1,3.5230663E-2,1.2975357E-3,-2.7872369E-2,7.8512944E-2,-1.605518E-2,-5.7982165E-2,2.3887014E-2,-2.508973E-2,2.0941716E-2,1.5879942E-2,-2.5047049E-2,8.775567E-3,4.5238417E-2,4.9355324E-2,1.5127762E-2,-5.1226277E-2,1.7319018E-2],"categories":[],"categories_nodes":[],"categories_segments":[],"categories_sizes":[],"default_left":[0,0,0,0,0,0,0,0,0,0,0,0,0,0,0,0,0,0,0,0,0,0,0,0,0,0,0,0,0,0,0,0,0,0,0],"id":16,"left_children":[1,-1,3,-1,5,7,9,11,13,15,17,19,21,23,25,27,29,31,33,-1,-1,-1,-1,-1,-1,-1,-1,-1,-1,-1,-1,-1,-1,-1,-1],"loss_changes":[9.1153687E2,0E0,2.2834271E2,0E0,1.5560968E1,1.13238125E1,7.2725925E0,5.1070213E0,2.4977608E0,8.678691E0,5.176795E0,4.1693854E0,8.283329E0,4.060693E0,3.0554228E0,4.374487E0,2.4110208E0,2.427431E0,4.599523E0,0E0,0E0,0E0,0E0,0E0,0E0,0E0,0E0,0E0,0E0,0E0,0E0,0E0,0E0,0E0,0E0],"parents":[2147483647,0,0,2,2,4,4,5,5,6,6,7,7,8,8,9,9,10,10,11,11,12,12,13,13,14,14,15,15,16,16,17,17,18,18],"right_children":[2,-1,4,-1,6,8,10,12,14,16,18,20,22,24,26,28,30,32,34,-1,-1,-1,-1,-1,-1,-1,-1,-1,-1,-1,-1,-1,-1,-1,-1],"split_conditions":[1E0,6.466692E-2,1E0,-6.476131E-2,2E0,2E0,2E0,1.07E2,-2.8646066E2,3E0,3E0,3E0,1E0,8.4062164E1,5E0,1E0,2E0,4E0,-4.6266977E2,1.2975357E-3,-2.7872369E-2,7.8512944E-2,-1.605518E-2,-5.7982165E-2,2.3887014E-2,-2.508973E-2,2.0941716E-2,1.5879942E-2,-2.5047049E-2,8.775567E-3,4.5238417E-2,4.9355324E-2,1.5127762E-2,-5.1226277E-2,1.7319018E-2],"split_indices":[17,0,16,0,16,17,21,7,1,16,17,26,22,0,24,23,24,23,1,0,0,0,0,0,0,0,0,0,0,0,0,0,0,0,0],"split_type":[0,0,0,0,0,0,0,0,0,0,0,0,0,0,0,0,0,0,0,0,0,0,0,0,0,0,0,0,0,0,0,0,0,0,0],"sum_hessian":[9.2480176E2,3.4327402E2,5.815277E2,3.350866E2,2.4644112E2,1.5503746E2,9.140366E1,9.329548E1,6.1741985E1,4.9608013E1,4.1795647E1,8.549514E1,7.8003345E0,1.1471815E1,5.0270172E1,3.1198427E1,1.8409588E1,2.9923046E1,1.18726E1,7.174164E1,1.3753506E1,4.0434484E0,3.756886E0,1.0278873E1,1.1929426E0,4.711373E1,3.1564388E0,8.187482E0,2.3010946E1,9.318659E0,9.090929E0,2.1711592E1,8.211454E0,2.1743143E0,9.698285E0],"tree_param":{"num_deleted":"0","num_feature":"38","num_nodes":"35","size_leaf_vector":"1"}},{"base_weights":[-1.0129127E-2,6.37567E-2,-7.307163E-1,-1.0789093E0,-3.4371862E-1,-6.318995E-2,-8.056666E-1,-4.4087604E-2,-6.00743E-1,-6.611174E-1,-6.157596E-2,-5.215127E-1,3.0322975E-1,-6.546071E-1,6.758397E-1,-1.0169532E0,-5.600109E-1,-1.0955148E0,-2.4795212E-1,1.0944881E-1,7.949767E-1,-8.917812E-1,-4.6072495E-1,9.791815E-1,-1.821593E-2,-6.1390664E-2,-1.833927E-2,-2.124324E-2,-4.7597498E-2,-1.9944793E-2,-5.8787942E-2,-1.7791033E-2,3.0845536E-2,-8.045371E-3,2.20442E-2,5.157682E-2,-1.040035E-2,-4.9381733E-2,-4.08381E-3,-2.8223554E-2,9.645383E-3,4.9261055E-3,5.9799273E-2],"categories":[],"categories_nodes":[],"categories_segments":[],"categories_sizes":[],"default_left":[0,0,0,0,0,0,0,0,0,0,0,0,0,0,0,0,0,0,0,0,0,0,0,0,0,0,0,0,0,0,0,0,0,0,0,0,0,0,0,0,0,0,0],"id":17,"left_children":[1,-1,3,5,7,-1,9,11,13,15,-1,17,19,21,23,25,27,29,31,33,35,37,39,41,-1,-1,-1,-1,-1,-1,-1,-1,-1,-1,-1,-1,-1,-1,-1,-1,-1,-1,-1],"loss_changes":[8.323512E2,0E0,7.722583E1,1.4272064E1,2.1090244E1,0E0,6.8744507E0,2.1330603E1,1.0585751E1,2.8630867E0,0E0,8.229446E0,7.0165973E0,6.121113E0,2.396349E0,2.2758503E0,3.6489677E0,4.9142456E-1,3.7606034E0,4.966421E0,5.1764174E0,4.797615E0,5.549221E0,8.8949347E-1,0E0,0E0,0E0,0E0,0E0,0E0,0E0,0E0,0E0,0E0,0E0,0E0,0E0,0E0,0E0,0E0,0E0,0E0,0E0],"parents":[2147483647,0,0,2,2,3,3,4,4,6,6,7,7,8,8,9,9,11,11,12,12,13,13,14,14,15,15,16,16,17,17,18,18,19,19,20,20,21,21,22,22,23,23],"right_children":[2,-1,4,6,8,-1,10,12,14,16,-1,18,20,22,24,26,28,30,32,34,36,38,40,42,-1,-1,-1,-1,-1,-1,-1,-1,-1,-1,-1,-1,-1,-1,-1,-1,-1,-1,-1],"split_conditions":[1E0,6.37567E-2,3E0,2E0,2E0,-6.318995E-2,2E0,1E0,2.587486E2,7.6E-1,-6.157596E-2,1E0,9.7660774E1,4.1054025E-1,3.7E1,4.802675E1,6.3275087E-1,-2.2508595E2,7.7E1,4E0,4E0,1.9E1,9E0,-2.3225612E2,-1.821593E-2,-6.1390664E-2,-1.833927E-2,-2.124324E-2,-4.7597498E-2,-1.9944793E-2,-5.8787942E-2,-1.7791033E-2,3.0845536E-2,-8.045371E-3,2.20442E-2,5.157682E-2,-1.040035E-2,-4.9381733E-2,-4.08381E-3,-2.8223554E-2,9.645383E-3,4.9261055E-3,5.9799273E-2],"split_indices":[17,0,18,18,17,0,17,27,0,5,0,5,2,4,36,2,4,0,36,18,24,36,18,1,0,0,0,0,0,0,0,0,0,0,0,0,0,0,0,0,0,0,0],"split_type":[0,0,0,0,0,0,0,0,0,0,0,0,0,0,0,0,0,0,0,0,0,0,0,0,0,0,0,0,0,0,0,0,0,0,0,0,0,0,0,0,0,0,0],"sum_hessian":[8.967216E2,3.218643E2,5.748573E2,3.0165854E2,2.7319876E2,1.7775516E2,1.2390338E2,1.26684944E2,1.4651382E2,9.4409836E1,2.949355E1,5.313863E1,7.354631E1,1.410496E2,5.4642243E0,1.8885525E1,7.552431E1,1.6181318E1,3.6957314E1,5.363366E1,1.9912651E1,6.1822784E1,7.922682E1,4.275872E0,1.1883519E0,1.3589706E1,5.2958193E0,5.7709328E1,1.7814983E1,2.2881718E0,1.3893146E1,3.338234E1,3.5749736E0,2.9821976E1,2.3811684E1,1.6089403E1,3.8232489E0,5.5085766E1,6.737017E0,6.849201E1,1.0734806E1,1.1320212E0,3.1438513E0],"tree_param":{"num_deleted":"0","num_feature":"38","num_nodes":"43","size_leaf_vector":"1"}},{"base_weights":[-6.294525E-3,6.289271E-2,-7.097549E-1,-6.2782936E-2,-2.5010586E-1,-5.3184086E-1,1.776738E-2,-7.938176E-1,-3.763861E-1,1.5142179E-1,-6.236584E-1,-8.511282E-1,-1.8852797E-1,-2.741774E-1,-7.611372E-1,2.106036E-2,9.179536E-1,-9.591207E-1,3.418853E-2,-3.171149E-2,-5.303455E-2,4.1271534E-2,-3.6971E-2,1.4113312E-2,-1.6867964E-2,-1.8567786E-2,-6.6757075E-2,-3.8156386E-2,3.8920797E-3,2.0059166E-2,5.6564745E-2,3.1107262E-4,-5.1702082E-2,-3.2532606E-2,1.5737383E-2],"categories":[],"categories_nodes":[],"categories_segments":[],"categories_sizes":[],"default_left":[0,0,0,0,0,0,0,0,0,0,0,0,0,0,0,0,0,0,0,0,0,0,0,0,0,0,0,0,0,0,0,0,0,0,0],"id":18,"left_children":[1,-1,3,-1,5,7,9,11,13,15,17,19,21,23,25,27,29,31,33,-1,-1,-1,-1,-1,-1,-1,-1,-1,-1,-1,-1,-1,-1,-1,-1],"loss_changes":[7.86978E2,0E0,1.4235254E2,0E0,2.3398615E1,5.854122E0,1.3796914E1,1.7600365E0,3.5948076E0,1.3278547E1,6.1582966E0,1.6131287E0,4.0026236E0,2.8368535E0,3.9202042E0,5.169254E0,1.6760273E0,1.3384552E0,2.1914527E0,0E0,0E0,0E0,0E0,0E0,0E0,0E0,0E0,0E0,0E0,0E0,0E0,0E0,0E0,0E0,0E0],"parents":[2147483647,0,0,2,2,4,4,5,5,6,6,7,7,8,8,9,9,10,10,11,11,12,12,13,13,14,14,15,15,16,16,17,17,18,18],"right_children":[2,-1,4,-1,6,8,10,12,14,16,18,20,22,24,26,28,30,32,34,-1,-1,-1,-1,-1,-1,-1,-1,-1,-1,-1,-1,-1,-1,-1,-1],"split_conditions":[1E0,6.289271E-2,1E0,-6.2782936E-2,2E0,1E0,5E0,1.18E2,4E0,5E0,5.9514225E-1,-2.45E2,3.23E2,9.4E-1,9.85611E1,1E0,2E0,-5.96039E2,-1.2E1,-3.171149E-2,-5.303455E-2,4.1271534E-2,-3.6971E-2,1.4113312E-2,-1.6867964E-2,-1.8567786E-2,-6.6757075E-2,-3.8156386E-2,3.8920797E-3,2.0059166E-2,5.6564745E-2,3.1107262E-4,-5.1702082E-2,-3.2532606E-2,1.5737383E-2],"split_indices":[17,0,14,0,14,31,15,8,24,14,4,37,37,6,1,5,26,1,36,0,0,0,0,0,0,0,0,0,0,0,0,0,0,0,0],"split_type":[0,0,0,0,0,0,0,0,0,0,0,0,0,0,0,0,0,0,0,0,0,0,0,0,0,0,0,0,0,0,0,0,0,0,0],"sum_hessian":[8.8295856E2,3.1539392E2,5.6756464E2,2.5864825E2,3.0891638E2,1.5008229E2,1.5883409E2,5.4362556E1,9.5719734E1,1.3207703E2,2.6757065E1,4.9289528E1,5.07303E0,7.698213E1,1.8737606E1,1.13758064E2,1.8318966E1,1.7417315E1,9.33975E0,2.6199436E1,2.3090092E1,1.6104753E0,3.4625545E0,7.4961247E0,6.948601E1,1.2140485E1,6.597122E0,6.8408875E0,1.06917175E2,6.194554E0,1.2124412E1,1.3204554E0,1.6096859E1,2.3309088E0,7.008841E0],"tree_param":{"num_deleted":"0","num_feature":"38","num_nodes":"35","size_leaf_vector":"1"}},{"base_weights":[2.0940732E-3,-6.2400173E-2,7.0070064E-1,6.2075105E-2,2.7018933E-2,-1.598508E-1,3.3641312E-1,7.704479E-3,-4.2254618E-1,5.9664047E-1,1.9413501E-2,-1.6616116E-1,2.7430573E-1,-9.860632E-1,-3.3330527E-1,3.353135E-1,9.4126314E-1,-1.2083759E-1,5.0731808E-2,-1.5556559E-2,3.103891E-2,-1.8183516E-2,2.2690067E-2,-6.489273E-2,3.5612234E-3,4.940421E-4,-2.7176827E-2,1.00455E-3,4.480091E-2,5.2244913E-2,-1.5772384E-2,-1.2738495E-2,3.2443058E-2],"categories":[],"categories_nodes":[],"categories_segments":[],"categories_sizes":[],"default_left":[0,0,0,0,0,0,0,0,0,0,0,0,0,0,0,0,0,0,0,0,0,0,0,0,0,0,0,0,0,0,0,0,0],"id":19,"left_children":[1,-1,3,-1,5,7,9,11,13,15,17,19,21,23,25,27,29,31,-1,-1,-1,-1,-1,-1,-1,-1,-1,-1,-1,-1,-1,-1,-1],"loss_changes":[7.394036E2,0E0,1.9784286E2,0E0,1.4095833E1,6.6979303E0,7.559264E0,4.3956327E0,2.65094E0,4.2204876E0,6.0420637E0,6.744369E0,4.4502993E0,2.5943894E0,3.8047194E0,5.3196177E0,3.0866184E0,4.089243E0,0E0,0E0,0E0,0E0,0E0,0E0,0E0,0E0,0E0,0E0,0E0,0E0,0E0,0E0,0E0],"parents":[2147483647,0,0,2,2,4,4,5,5,6,6,7,7,8,8,9,9,10,10,11,11,12,12,13,13,14,14,15,15,16,16,17,17],"right_children":[2,-1,4,-1,6,8,10,12,14,16,18,20,22,24,26,28,30,32,-1,-1,-1,-1,-1,-1,-1,-1,-1,-1,-1,-1,-1,-1,-1],"split_conditions":[1E0,-6.2400173E-2,1E0,6.2075105E-2,2E0,2E0,2E0,5.4E1,1E1,2E0,2.5108076E2,5E0,-2.108119E2,2E0,3.8E1,3E0,1E0,3.9714355E2,5.0731808E-2,-1.5556559E-2,3.103891E-2,-1.8183516E-2,2.2690067E-2,-6.489273E-2,3.5612234E-3,4.940421E-4,-2.7176827E-2,1.00455E-3,4.480091E-2,5.2244913E-2,-1.5772384E-2,-1.2738495E-2,3.2443058E-2],"split_indices":[16,0,17,0,16,17,17,7,7,21,0,23,1,10,7,16,13,1,0,0,0,0,0,0,0,0,0,0,0,0,0,0,0],"split_type":[0,0,0,0,0,0,0,0,0,0,0,0,0,0,0,0,0,0,0,0,0,0,0,0,0,0,0,0,0,0,0,0,0],"sum_hessian":[8.446508E2,3.025237E2,5.421271E2,3.002539E2,2.418732E2,1.5109642E2,9.077677E1,9.284663E1,5.8249798E1,4.9368034E1,4.140874E1,5.6425278E1,3.642135E1,6.589644E0,5.1660152E1,2.9199257E1,2.0168777E1,3.706409E1,4.34465E0,4.8158203E1,8.267076E0,7.771888E0,2.8649462E1,4.913217E0,1.6764271E0,1.9986597E1,3.1673557E1,1.93543E1,9.844958E0,1.8787968E1,1.380811E0,3.2140453E1,4.9236355E0],"tree_param":{"num_deleted":"0","num_feature":"38","num_nodes":"33","size_leaf_vector":"1"}},{"base_weights":[-1.435834E-2,-6.123674E-2,4.858678E-1,6.0853966E-2,-3.2349406E-3,-7.51365E-2,6.94361E-1,5.7845723E-2,-3.6778864E-1,9.3157136E-1,1.5287077E-1,-9.5145874E-2,2.4885504E-1,-5.2704364E-1,1.7744863E-1,3.855023E-1,1.0540712E0,4.4788995E-1,-4.5945086E-2,-2.242432E-3,-5.057767E-2,9.812334E-3,4.033603E-2,-3.5511024E-2,-1.5383698E-2,2.1433784E-2,-5.259205E-2,3.809456E-2,-2.0814491E-2,5.0030085E-3,5.591097E-2,4.676509E-2,-8.832421E-3],"categories":[],"categories_nodes":[],"categories_segments":[],"categories_sizes":[],"default_left":[0,0,0,0,0,0,0,0,0,0,0,0,0,0,0,0,0,0,0,0,0,0,0,0,0,0,0,0,0,0,0,0,0],"id":20,"left_children":[1,-1,3,-1,5,7,9,11,13,15,17,19,21,23,25,27,29,31,-1,-1,-1,-1,-1,-1,-1,-1,-1,-1,-1,-1,-1,-1,-1],"loss_changes":[4.896945E2,0E0,2.0468063E2,0E0,1.7302608E1,1.2190279E1,3.997882E0,6.3316364E0,8.588242E0,1.0798912E0,3.894555E0,5.512496E0,2.6672697E0,2.8340797E0,7.511738E0,2.0215194E0,9.6339226E-1,2.9992614E0,0E0,0E0,0E0,0E0,0E0,0E0,0E0,0E0,0E0,0E0,0E0,0E0,0E0,0E0,0E0],"parents":[2147483647,0,0,2,2,4,4,5,5,6,6,7,7,8,8,9,9,10,10,11,11,12,12,13,13,14,14,15,15,16,16,17,17],"right_children":[2,-1,4,-1,6,8,10,12,14,16,18,20,22,24,26,28,30,32,-1,-1,-1,-1,-1,-1,-1,-1,-1,-1,-1,-1,-1,-1,-1],"split_conditions":[1E0,-6.123674E-2,1E0,6.0853966E-2,1.9525636E2,3E0,1.2E1,2E0,4E0,-2.1785468E2,3E0,5.2109247E2,4.076816E2,6.666667E-1,9E0,4.201557E-1,2.1150824E2,5E-1,-4.5945086E-2,-2.242432E-3,-5.057767E-2,9.812334E-3,4.033603E-2,-3.5511024E-2,-1.5383698E-2,2.1433784E-2,-5.259205E-2,3.809456E-2,-2.0814491E-2,5.0030085E-3,5.591097E-2,4.676509E-2,-8.832421E-3],"split_indices":[14,0,15,0,0,15,7,14,14,1,15,1,1,20,15,4,0,20,0,0,0,0,0,0,0,0,0,0,0,0,0,0,0],"split_type":[0,0,0,0,0,0,0,0,0,0,0,0,0,0,0,0,0,0,0,0,0,0,0,0,0,0,0,0,0,0,0,0,0],"sum_hessian":[8.0681195E2,2.3550995E2,5.71302E2,2.2838167E2,3.4292035E2,3.1168692E2,3.1233433E1,2.1485732E2,9.682961E1,2.1218061E1,1.0015371E1,1.1957995E2,9.527736E1,7.4966484E1,2.186313E1,4.6475573E0,1.6570505E1,8.310031E0,1.7053398E0,1.1435262E2,5.2273293E0,8.8302E1,6.975358E0,3.9633987E1,3.5332497E1,1.869397E1,3.169161E0,3.1966867E0,1.4508705E0,1.2052878E0,1.5365217E1,4.3879395E0,3.922092E0],"tree_param":{"num_deleted":"0","num_feature":"38","num_nodes":"33","size_leaf_vector":"1"}},{"base_weights":[-6.5361513E-3,6.082043E-2,-6.669721E-1,-6.1047573E-2,-9.929537E-3,-2.009868E-1,2.9444468E-1,-3.0639064E-1,3.116764E-1,4.062947E-1,-1.412065E-1,-1.4172943E-1,-5.2052754E-1,-7.098623E-2,8.251743E-1,2.0536219E-1,6.913465E-1,-3.0863205E-1,3.8475405E-2,8.361433E-5,-3.86987E-2,-3.706526E-2,1.1412892E-2,1.3965423E-2,-2.793535E-2,5.0000213E-3,6.460816E-2,-1.9596673E-3,3.1284016E-2,3.9088026E-2,-8.766186E-3,2.2093024E-2,-2.6807621E-2],"categories":[],"categories_nodes":[],"categories_segments":[],"categories_sizes":[],"default_left":[0,0,0,0,0,0,0,0,0,0,0,0,0,0,0,0,0,0,0,0,0,0,0,0,0,0,0,0,0,0,0,0,0],"id":21,"left_children":[1,-1,3,-1,5,7,9,11,13,15,17,19,21,23,25,27,29,31,-1,-1,-1,-1,-1,-1,-1,-1,-1,-1,-1,-1,-1,-1,-1],"loss_changes":[6.531659E2,0E0,1.911212E2,0E0,1.4086712E1,8.135584E0,4.6099205E0,4.2956343E0,5.1419334E0,4.1308165E0,3.2609262E0,6.477187E0,9.012394E0,2.8458889E0,3.6384974E0,4.6684937E0,2.5208263E0,3.2188013E0,0E0,0E0,0E0,0E0,0E0,0E0,0E0,0E0,0E0,0E0,0E0,0E0,0E0,0E0,0E0],"parents":[2147483647,0,0,2,2,4,4,5,5,6,6,7,7,8,8,9,9,10,10,11,11,12,12,13,13,14,14,15,15,16,16,17,17],"right_children":[2,-1,4,-1,6,8,10,12,14,16,18,20,22,24,26,28,30,32,-1,-1,-1,-1,-1,-1,-1,-1,-1,-1,-1,-1,-1,-1,-1],"split_conditions":[1E0,6.082043E-2,1E0,-6.1047573E-2,2E0,8.5E1,3E0,-2.08E2,7.680325E1,3E0,2.4616954E2,1E0,4E0,5.9E1,-5.2129986E1,2E0,3E0,1E0,3.8475405E-2,8.361433E-5,-3.86987E-2,-3.706526E-2,1.1412892E-2,1.3965423E-2,-2.793535E-2,5.0000213E-3,6.460816E-2,-1.9596673E-3,3.1284016E-2,3.9088026E-2,-8.766186E-3,2.2093024E-2,-2.6807621E-2],"split_indices":[17,0,16,0,16,8,17,37,3,16,3,35,23,36,1,21,11,23,0,0,0,0,0,0,0,0,0,0,0,0,0,0,0],"split_type":[0,0,0,0,0,0,0,0,0,0,0,0,0,0,0,0,0,0,0,0,0,0,0,0,0,0,0,0,0,0,0,0,0],"sum_hessian":[8.066927E2,2.825838E2,5.241089E2,2.8389078E2,2.402181E2,1.4778952E2,9.242857E1,1.2291955E2,2.486997E1,7.359979E1,1.8828781E1,7.042664E1,5.249291E1,1.4744221E1,1.012575E1,4.4178726E1,2.9421062E1,1.6463285E1,2.3654964E0,5.8219105E1,1.2207537E1,4.0547546E1,1.1945363E1,8.82976E0,5.9144616E0,4.442012E0,5.6837378E0,2.8502022E1,1.5676704E1,2.6730427E1,2.6906347E0,3.6107833E0,1.2852503E1],"tree_param":{"num_deleted":"0","num_feature":"38","num_nodes":"33","size_leaf_vector":"1"}},{"base_weights":[3.0955682E-3,-6.0388006E-2,6.5647763E-1,6.0141373E-2,5.436334E-2,-1.130991E-1,3.145608E-1,-1.0001971E-2,-6.378832E-1,2.2705528E-1,1.008275E0,-7.2680163E-1,4.580356E-2,2.7718632E-2,-7.5436693E-1,4.2221722E-1,1.5830588E-2,2.5880092E-1,6.0676593E-2,-1.9423161E-3,-6.461969E-2,-6.819962E-3,1.4777832E-2,-6.260822E-3,-4.4918295E-2,1.0474432E-2,3.9005432E-2,-5.126457E-3,3.478056E-2,-2.3551786E-2,4.1990086E-2],"categories":[],"categories_nodes":[],"categories_segments":[],"categories_sizes":[],"default_left":[0,0,0,0,0,0,0,0,0,0,0,0,0,0,0,0,0,0,0,0,0,0,0,0,0,0,0,0,0,0,0],"id":22,"left_children":[1,-1,3,-1,5,7,9,11,13,15,17,19,21,-1,23,25,27,29,-1,-1,-1,-1,-1,-1,-1,-1,-1,-1,-1,-1,-1],"loss_changes":[6.159885E2,0E0,1.662955E2,0E0,1.0563966E1,7.987188E0,5.5306168E0,5.013528E0,3.7851162E0,3.5196404E0,1.2761183E0,3.4719787E0,5.339433E0,0E0,1.926795E0,3.218658E0,3.4602125E0,1.8769047E0,0E0,0E0,0E0,0E0,0E0,0E0,0E0,0E0,0E0,0E0,0E0,0E0,0E0],"parents":[2147483647,0,0,2,2,4,4,5,5,6,6,7,7,8,8,9,9,10,10,11,11,12,12,14,14,15,15,16,16,17,17],"right_children":[2,-1,4,-1,6,8,10,12,14,16,18,20,22,-1,24,26,28,30,-1,-1,-1,-1,-1,-1,-1,-1,-1,-1,-1,-1,-1],"split_conditions":[1E0,-6.0388006E-2,1E0,6.0141373E-2,2E0,3E0,4.1500876E2,1.5272991E-1,-4.755428E2,2E0,5E0,-6.451849E2,5.4E1,2.7718632E-2,1E0,2E0,3.9714355E2,3E0,6.0676593E-2,-1.9423161E-3,-6.461969E-2,-6.819962E-3,1.4777832E-2,-6.260822E-3,-4.4918295E-2,1.0474432E-2,3.9005432E-2,-5.126457E-3,3.478056E-2,-2.3551786E-2,4.1990086E-2],"split_indices":[16,0,17,0,16,17,3,4,3,17,18,1,7,0,24,15,1,23,0,0,0,0,0,0,0,0,0,0,0,0,0],"split_type":[0,0,0,0,0,0,0,0,0,0,0,0,0,0,0,0,0,0,0,0,0,0,0,0,0,0,0,0,0,0,0],"sum_hessian":[7.765954E2,2.7188547E2,5.0470996E2,2.6408517E2,2.4062477E2,1.4674524E2,9.387953E1,1.23501625E2,2.324361E1,8.454259E1,9.336947E0,8.052079E0,1.1544955E2,1.7341992E0,2.150941E1,4.3422905E1,4.111968E1,2.4934037E0,6.843544E0,4.1152263E0,3.936853E0,6.701433E1,4.843522E1,4.3543305E0,1.715508E1,2.822906E1,1.5193848E1,3.5745106E1,5.374572E0,1.1890373E0,1.3043664E0],"tree_param":{"num_deleted":"0","num_feature":"38","num_nodes":"31","size_leaf_vector":"1"}},{"base_weights":[1.2812073E-2,-5.976159E-2,6.428051E-1,5.9546657E-2,4.6179723E-2,-1.2829714E-1,3.2593402E-1,1.3624537E-1,-3.378797E-1,4.3826374E-1,-7.817372E-2,2.3120174E-1,-5.169549E-1,-6.608815E-1,-1.7595017E-1,2.9796E-1,9.8823464E-1,-8.402639E-1,1.3676302E-1,-3.5884422E-3,2.401494E-2,1.1636188E-2,-4.0305626E-2,1.7586607E-2,-3.8801823E-2,1.5388982E-2,-2.4697823E-2,1.8675692E-2,-2.0037184E-2,5.6736916E-2,-1.664359E-3,-5.65476E-2,-5.3230515E-3,-2.6838413E-2,1.9262059E-2],"categories":[],"categories_nodes":[],"categories_segments":[],"categories_sizes":[],"default_left":[0,0,0,0,0,0,0,0,0,0,0,0,0,0,0,0,0,0,0,0,0,0,0,0,0,0,0,0,0,0,0,0,0,0,0],"id":23,"left_children":[1,-1,3,-1,5,7,9,11,13,15,17,19,21,23,25,27,29,31,33,-1,-1,-1,-1,-1,-1,-1,-1,-1,-1,-1,-1,-1,-1,-1,-1],"loss_changes":[5.7778613E2,0E0,1.6311836E2,0E0,1.17539835E1,8.279387E0,4.2309265E0,4.2352633E0,4.232457E0,5.299365E0,3.5477939E0,4.4588237E0,2.0802476E0,3.4681063E0,8.88081E0,3.2743268E0,2.1783485E0,8.9290524E-1,3.0865326E0,0E0,0E0,0E0,0E0,0E0,0E0,0E0,0E0,0E0,0E0,0E0,0E0,0E0,0E0,0E0,0E0],"parents":[2147483647,0,0,2,2,4,4,5,5,6,6,7,7,8,8,9,9,10,10,11,11,12,12,13,13,14,14,15,15,16,16,17,17,18,18],"right_children":[2,-1,4,-1,6,8,10,12,14,16,18,20,22,24,26,28,30,32,34,-1,-1,-1,-1,-1,-1,-1,-1,-1,-1,-1,-1,-1,-1,-1,-1],"split_conditions":[1E0,-5.976159E-2,1E0,5.9546657E-2,2E0,2E0,3E0,3E0,3.405877E-1,5E0,5E-1,1E0,-1.037E3,-5.713062E2,5.23133E-1,2.0461221E2,1E0,3E0,1E0,-3.5884422E-3,2.401494E-2,1.1636188E-2,-4.0305626E-2,1.7586607E-2,-3.8801823E-2,1.5388982E-2,-2.4697823E-2,1.8675692E-2,-2.0037184E-2,5.6736916E-2,-1.664359E-3,-5.65476E-2,-5.3230515E-3,-2.6838413E-2,1.9262059E-2],"split_indices":[16,0,17,0,16,24,17,17,4,14,19,22,37,3,4,0,20,16,22,0,0,0,0,0,0,0,0,0,0,0,0,0,0,0,0],"split_type":[0,0,0,0,0,0,0,0,0,0,0,0,0,0,0,0,0,0,0,0,0,0,0,0,0,0,0,0,0,0,0,0,0,0,0],"sum_hessian":[7.5717725E2,2.5921738E2,4.9795984E2,2.590088E2,2.3895107E2,1.4749988E2,9.145118E1,6.535563E1,8.214426E1,7.14936E1,1.995758E1,5.7624714E1,7.7309146E0,2.640091E1,5.5743347E1,5.8190365E1,1.3303237E1,3.7504494E0,1.620713E1,2.632191E1,3.1302803E1,2.2062058E0,5.5247087E0,2.4859867E0,2.3914925E1,2.2123192E1,3.3620155E1,5.293202E1,5.2583466E0,1.1537702E1,1.7655349E0,2.2986453E0,1.4518042E0,4.055086E0,1.2152045E1],"tree_param":{"num_deleted":"0","num_feature":"38","num_nodes":"35","size_leaf_vector":"1"}},{"base_weights":[1.4781954E-2,-5.917851E-2,6.284221E-1,5.8960438E-2,3.264753E-2,-1.19268306E-1,2.804244E-1,-1.6191907E-1,8.665223E-1,3.292011E-1,-8.333321E-1,-3.3084843E-1,8.790072E-2,6.887993E-2,3.736159E-1,1.0566215E-1,5.810891E-1,-8.352283E-3,-5.5952203E-2,-2.4919527E-2,3.1572063E-3,1.023117E-2,-3.999297E-2,-1.3024691E-2,3.390239E-2,-2.6074404E-2,1.917228E-2,1.2741807E-2,4.5507185E-2],"categories":[],"categories_nodes":[],"categories_segments":[],"categories_sizes":[],"default_left":[0,0,0,0,0,0,0,0,0,0,0,0,0,0,0,0,0,0,0,0,0,0,0,0,0,0,0,0,0],"id":24,"left_children":[1,-1,3,-1,5,7,9,11,13,15,17,19,21,-1,23,25,27,-1,-1,-1,-1,-1,-1,-1,-1,-1,-1,-1,-1],"loss_changes":[5.4761084E2,0E0,1.61566E2,0E0,8.977241E0,6.362849E0,5.1966634E0,6.051423E0,1.0711265E0,4.8667603E0,5.906851E-1,5.6650915E0,6.210882E0,0E0,1.0601194E0,8.491296E0,4.1621027E0,0E0,0E0,0E0,0E0,0E0,0E0,0E0,0E0,0E0,0E0,0E0,0E0],"parents":[2147483647,0,0,2,2,4,4,5,5,6,6,7,7,8,8,9,9,10,10,11,11,12,12,14,14,15,15,16,16],"right_children":[2,-1,4,-1,6,8,10,12,14,16,18,20,22,-1,24,26,28,-1,-1,-1,-1,-1,-1,-1,-1,-1,-1,-1,-1],"split_conditions":[1E0,-5.917851E-2,1E0,5.8960438E-2,2E0,1.28E2,9E0,5.4E1,1.78E2,2E0,0E0,2E0,3E0,6.887993E-2,-1.2630502E2,-5.6370605E1,1.2992436E2,-8.352283E-3,-5.5952203E-2,-2.4919527E-2,3.1572063E-3,1.023117E-2,-3.999297E-2,-1.3024691E-2,3.390239E-2,-2.6074404E-2,1.917228E-2,1.2741807E-2,4.5507185E-2],"split_indices":[16,0,17,0,16,36,15,7,36,21,36,10,10,0,1,0,1,0,0,0,0,0,0,0,0,0,0,0,0],"split_type":[0,0,0,0,0,0,0,0,0,0,0,0,0,0,0,0,0,0,0,0,0,0,0,0,0,0,0,0,0],"sum_hessian":[7.4267566E2,2.5119624E2,4.914794E2,2.54873E2,2.366064E2,1.4699817E2,8.960822E1,1.4170306E2,5.295113E0,8.652337E1,3.0848508E0,8.434453E1,5.7358532E1,1.7184591E0,3.5766542E0,4.6593376E1,3.9929993E1,1.4014059E0,1.683445E0,5.8993187E1,2.5351341E1,5.1373455E1,5.985074E0,1.2069639E0,2.3696902E0,1.4033253E1,3.2560123E1,2.0941372E1,1.8988623E1],"tree_param":{"num_deleted":"0","num_feature":"38","num_nodes":"29","size_leaf_vector":"1"}},{"base_weights":[-4.8328303E-3,-5.8650494E-2,5.858598E-1,5.8445066E-2,1.2524139E-2,1.1783773E-1,-4.7676167E-1,5.5103455E-2,8.6607426E-1,-5.9437424E-1,6.471579E-1,-5.7434636E-1,8.983464E-2,1.0275431E0,-1.1593877E-2,1.8108912E-1,-7.4324644E-1,-1.5735304E-2,5.3459357E-2,1.8518402E-3,-5.3035446E-2,1.9476725E-2,2.1474683E-4,5.7143517E-2,-7.3174997E-3,-2.18338E-2,4.330854E-2,3.7752327E-2,-4.14907E-2],"categories":[],"categories_nodes":[],"categories_segments":[],"categories_sizes":[],"default_left":[0,0,0,0,0,0,0,0,0,0,0,0,0,0,0,0,0,0,0,0,0,0,0,0,0,0,0,0,0],"id":25,"left_children":[1,-1,3,-1,5,7,9,11,13,15,17,19,21,23,-1,25,27,-1,-1,-1,-1,-1,-1,-1,-1,-1,-1,-1,-1],"loss_changes":[5.0026645E2,0E0,1.6094595E2,0E0,1.2618291E1,9.406586E0,6.118593E0,4.1375093E0,2.9884338E0,4.7280903E0,2.198895E0,2.9856355E0,4.561348E0,2.0230684E0,0E0,3.4307196E0,4.9816036E0,0E0,0E0,0E0,0E0,0E0,0E0,0E0,0E0,0E0,0E0,0E0,0E0],"parents":[2147483647,0,0,2,2,4,4,5,5,6,6,7,7,8,8,9,9,10,10,11,11,12,12,13,13,15,15,16,16],"right_children":[2,-1,4,-1,6,8,10,12,14,16,18,20,22,24,-1,26,28,-1,-1,-1,-1,-1,-1,-1,-1,-1,-1,-1,-1],"split_conditions":[1E0,-5.8650494E-2,1E0,5.8445066E-2,3E0,5E0,2.791353E2,6E0,1E0,1E0,6.666667E-1,3E0,1E0,8.808E3,-1.1593877E-2,1.6E1,-2E0,-1.5735304E-2,5.3459357E-2,1.8518402E-3,-5.3035446E-2,1.9476725E-2,2.1474683E-4,5.7143517E-2,-7.3174997E-3,-2.18338E-2,4.330854E-2,3.7752327E-2,-4.14907E-2],"split_indices":[16,0,17,0,17,14,3,8,20,23,19,22,23,37,0,8,11,0,0,0,0,0,0,0,0,0,0,0,0],"split_type":[0,0,0,0,0,0,0,0,0,0,0,0,0,0,0,0,0,0,0,0,0,0,0,0,0,0,0,0,0],"sum_hessian":[7.229927E2,2.4247627E2,4.8051642E2,2.3772662E2,2.4278981E2,2.0041234E2,4.237747E1,1.8589963E2,1.4512708E1,3.87895E1,3.587967E0,8.908565E0,1.7699107E2,1.2707956E1,1.8047515E0,6.2125297E0,3.2576973E1,1.1717306E0,2.4162364E0,4.3563075E0,4.552257E0,3.85105E1,1.3848058E2,1.1595229E1,1.112727E0,3.4574256E0,2.755104E0,1.3576156E0,3.1219357E1],"tree_param":{"num_deleted":"0","num_feature":"38","num_nodes":"29","size_leaf_vector":"1"}},{"base_weights":[-6.854615E-3,-5.812169E-2,5.6554323E-1,5.7955127E-2,2.1122831E-3,-1.6632591E-1,2.8381726E-1,1.3958925E-2,-4.3800473E-1,5.09582E-2,5.531959E-1,5.356567E-2,-5.9348743E-2,-5.079411E-1,6.50387E-1,-5.699391E-2,1.6144367E-1,9.2815477E-1,2.2167093E-1,1.7992167E-2,-3.646382E-3,-5.3482395E-2,-1.8349556E-2,5.604143E-2,-1.5764302E-2,2.5057096E-2,-8.537269E-3,5.479444E-2,-2.8931549E-2,2.0117436E-4,4.6931867E-2],"categories":[],"categories_nodes":[],"categories_segments":[],"categories_sizes":[],"default_left":[0,0,0,0,0,0,0,0,0,0,0,0,0,0,0,0,0,0,0,0,0,0,0,0,0,0,0,0,0,0,0],"id":26,"left_children":[1,-1,3,-1,5,7,9,11,13,15,17,19,-1,21,23,-1,25,27,29,-1,-1,-1,-1,-1,-1,-1,-1,-1,-1,-1,-1],"loss_changes":[4.597596E2,0E0,1.5545341E2,0E0,1.1410196E1,7.377339E0,5.615858E0,4.4126153E0,4.9022083E0,6.678533E0,4.967473E0,3.492534E0,0E0,4.120098E0,2.2000403E0,0E0,5.2816505E0,5.4904976E0,3.647861E0,0E0,0E0,0E0,0E0,0E0,0E0,0E0,0E0,0E0,0E0,0E0,0E0],"parents":[2147483647,0,0,2,2,4,4,5,5,6,6,7,7,8,8,9,9,10,10,11,11,13,13,14,14,16,16,17,17,18,18],"right_children":[2,-1,4,-1,6,8,10,12,14,16,18,20,-1,22,24,-1,26,28,30,-1,-1,-1,-1,-1,-1,-1,-1,-1,-1,-1,-1],"split_conditions":[1E0,-5.812169E-2,1E0,5.7955127E-2,2E0,4E0,2E0,6E0,5.8E1,-1.975E3,2E0,3.4E1,-5.9348743E-2,1E1,2E0,-5.699391E-2,4.2E1,1E0,3.9714355E2,1.7992167E-2,-3.646382E-3,-5.3482395E-2,-1.8349556E-2,5.604143E-2,-1.5764302E-2,2.5057096E-2,-8.537269E-3,5.479444E-2,-2.8931549E-2,2.0117436E-4,4.6931867E-2],"split_indices":[16,0,17,0,16,18,21,21,36,37,17,7,0,7,17,0,8,12,1,0,0,0,0,0,0,0,0,0,0,0,0],"split_type":[0,0,0,0,0,0,0,0,0,0,0,0,0,0,0,0,0,0,0,0,0,0,0,0,0,0,0,0,0,0,0],"sum_hessian":[6.930835E2,2.2924463E2,4.6383884E2,2.2536533E2,2.3847351E2,1.494959E2,8.8977615E1,9.043335E1,5.9062542E1,4.8361572E1,4.0616047E1,8.847098E1,1.9623725E0,5.5997635E1,3.064909E0,3.3149817E0,4.504659E1,1.8215E1,2.2401047E1,2.5319714E1,6.3151264E1,9.911194E0,4.608644E1,1.9528693E0,1.1120396E0,2.2020107E1,2.3026482E1,1.6635815E1,1.5791857E0,1.7955853E1,4.4451947E0],"tree_param":{"num_deleted":"0","num_feature":"38","num_nodes":"31","size_leaf_vector":"1"}},{"base_weights":[6.8835304E-3,-5.7640612E-2,5.746348E-1,5.747831E-2,4.1388664E-2,2.036839E-1,-1.9781856E-1,1.4428923E-1,1.0425667E0,-2.7225763E-1,4.4031474E-1,5.423943E-1,1.8993387E-2,1.0034088E-2,6.0896527E-2,-2.1496354E-1,-1.0423666E0,-2.8143972E-2,7.6671416E-1,-3.0496016E-3,3.6727052E-2,3.0860815E-2,-3.453709E-3,-3.5655137E-2,-6.226518E-3,-6.563133E-2,1.3901098E-3,5.2825868E-2,6.5299617E-3],"categories":[],"categories_nodes":[],"categories_segments":[],"categories_sizes":[],"default_left":[0,0,0,0,0,0,0,0,0,0,0,0,0,0,0,0,0,0,0,0,0,0,0,0,0,0,0,0,0],"id":27,"left_children":[1,-1,3,-1,5,7,9,11,13,15,17,19,21,-1,-1,23,25,-1,27,-1,-1,-1,-1,-1,-1,-1,-1,-1,-1],"loss_changes":[4.5231058E2,0E0,1.4133961E2,0E0,9.369223E0,7.0073533E0,4.7580204E0,6.7395782E0,1.1342306E0,3.6613173E0,3.8966107E0,3.7963057E0,5.519784E0,0E0,0E0,3.6601548E0,1.7249484E0,0E0,1.4119658E0,0E0,0E0,0E0,0E0,0E0,0E0,0E0,0E0,0E0,0E0],"parents":[2147483647,0,0,2,2,4,4,5,5,6,6,7,7,8,8,9,9,10,10,11,11,12,12,15,15,16,16,18,18],"right_children":[2,-1,4,-1,6,8,10,12,14,16,18,20,22,-1,-1,24,26,-1,28,-1,-1,-1,-1,-1,-1,-1,-1,-1,-1],"split_conditions":[1E0,-5.7640612E-2,1E0,5.747831E-2,2E0,5E0,4E0,1E0,7E0,1E0,-1.1653653E2,5.5E1,2.5E-1,1.0034088E-2,6.0896527E-2,9E0,3E0,-2.8143972E-2,4E0,-3.0496016E-3,3.6727052E-2,3.0860815E-2,-3.453709E-3,-3.5655137E-2,-6.226518E-3,-6.563133E-2,1.3901098E-3,5.2825868E-2,6.5299617E-3],"split_indices":[16,0,17,0,17,14,16,23,18,12,2,7,19,0,0,7,23,0,17,0,0,0,0,0,0,0,0,0,0],"split_type":[0,0,0,0,0,0,0,0,0,0,0,0,0,0,0,0,0,0,0,0,0,0,0,0,0,0,0,0,0],"sum_hessian":[6.849588E2,2.2478326E2,4.6017557E2,2.2087665E2,2.392989E2,1.4265804E2,9.664088E1,1.343199E2,8.33813E0,8.7058716E1,9.582159E0,3.1357658E1,1.0296224E2,1.8070823E0,6.531048E0,8.222083E1,4.8378806E0,2.1744473E0,7.4077115E0,7.7387433E0,2.3618916E1,1.2441504E1,9.052074E1,1.1575166E1,7.064567E1,3.6815765E0,1.1563044E0,4.635133E0,2.7725785E0],"tree_param":{"num_deleted":"0","num_feature":"38","num_nodes":"29","size_leaf_vector":"1"}},{"base_weights":[2.2004154E-2,-5.7210725E-2,5.728418E-1,5.7023097E-2,7.5083025E-2,2.5819707E-1,-1.82251E-1,2.1096526E-1,9.1162056E-1,-2.355461E-1,5.669387E-1,2.807705E-1,-2.6623324E-1,2.1580465E-3,1.0834471E0,-1.4198516E-1,-5.829196E-1,-7.713031E-3,8.2056624E-1,7.2601424E-3,2.8271234E-2,-3.799031E-2,2.0183112E-2,5.8591284E-2,1.342155E-2,-1.5134739E-2,9.42714E-3,2.2216102E-2,-3.5551198E-2,5.320337E-2,-3.549096E-3],"categories":[],"categories_nodes":[],"categories_segments":[],"categories_sizes":[],"default_left":[0,0,0,0,0,0,0,0,0,0,0,0,0,0,0,0,0,0,0,0,0,0,0,0,0,0,0,0,0,0,0],"id":28,"left_children":[1,-1,3,-1,5,7,9,11,13,15,17,19,21,-1,23,25,27,-1,29,-1,-1,-1,-1,-1,-1,-1,-1,-1,-1,-1,-1],"loss_changes":[4.23166E2,0E0,1.2631624E2,0E0,1.13293E1,4.1377125E0,4.131446E0,4.476614E0,1.3196473E0,2.9782796E0,1.3966122E0,4.3853683E0,6.0522E0,0E0,2.330761E-1,4.0687017E0,2.9034252E0,0E0,1.2250414E0,0E0,0E0,0E0,0E0,0E0,0E0,0E0,0E0,0E0,0E0,0E0,0E0],"parents":[2147483647,0,0,2,2,4,4,5,5,6,6,7,7,8,8,9,9,10,10,11,11,12,12,14,14,15,15,16,16,18,18],"right_children":[2,-1,4,-1,6,8,10,12,14,16,18,20,22,-1,24,26,28,-1,30,-1,-1,-1,-1,-1,-1,-1,-1,-1,-1,-1,-1],"split_conditions":[1E0,-5.7210725E-2,1E0,5.7023097E-2,2E0,5E0,2.587486E2,3E0,2E0,4E0,4E0,2E0,3E0,2.1580465E-3,5E1,3E0,-4E1,-7.713031E-3,6.58E3,7.2601424E-3,2.8271234E-2,-3.799031E-2,2.0183112E-2,5.8591284E-2,1.342155E-2,-1.5134739E-2,9.42714E-3,2.2216102E-2,-3.5551198E-2,5.320337E-2,-3.549096E-3],"split_indices":[16,0,17,0,17,14,0,10,26,17,14,16,23,0,8,23,36,0,37,0,0,0,0,0,0,0,0,0,0,0,0],"split_type":[0,0,0,0,0,0,0,0,0,0,0,0,0,0,0,0,0,0,0,0,0,0,0,0,0,0,0,0,0,0,0],"sum_hessian":[6.567093E2,2.1032906E2,4.4638022E2,2.0795134E2,2.384289E2,1.3930133E2,9.9127556E1,1.3114459E2,8.156746E0,9.31843E1,5.9432497E0,1.14767815E2,1.637677E1,1.5539308E0,6.6028147E0,7.452155E1,1.8662754E1,1.6482296E0,4.29502E0,7.8765526E1,3.6002293E1,9.352049E0,7.024721E0,5.5618997E0,1.0409151E0,5.0198296E1,2.4323256E1,1.7956192E0,1.6867136E1,3.2216203E0,1.0733998E0],"tree_param":{"num_deleted":"0","num_feature":"38","num_nodes":"31","size_leaf_vector":"1"}},{"base_weights":[7.6911002E-3,-5.6782853E-2,5.344828E-1,5.6188315E-2,1.8921588E-1,1.3493504E-1,7.704027E-1,3.094588E-1,-2.6705984E-3,4.3663207E-2,8.715772E-1,3.522963E-1,-5.655322E-1,-1.4392114E-1,2.4261528E-1,4.670608E-2,-3.4204334E-2,9.2821765E-1,-3.4550389E-3,1.8568184E-2,-3.8862668E-2,-4.566216E-2,1.7330194E-2,5.0932188E-3,-1.8199949E-2,-4.552805E-4,3.0166844E-2,4.9193468E-2,1.697221E-2],"categories":[],"categories_nodes":[],"categories_segments":[],"categories_sizes":[],"default_left":[0,0,0,0,0,0,0,0,0,0,0,0,0,0,0,0,0,0,0,0,0,0,0,0,0,0,0,0,0],"id":29,"left_children":[1,-1,3,-1,5,7,9,11,13,15,17,19,21,23,25,-1,-1,27,-1,-1,-1,-1,-1,-1,-1,-1,-1,-1,-1],"loss_changes":[3.8617773E2,0E0,8.9090126E1,0E0,8.665092E0,6.1351867E0,1.6921244E0,4.4204807E0,5.017625E0,3.1847012E0,1.1618624E0,2.614256E0,2.1053405E0,5.007511E0,4.8112297E0,0E0,0E0,3.0503845E-1,0E0,0E0,0E0,0E0,0E0,0E0,0E0,0E0,0E0,0E0,0E0],"parents":[2147483647,0,0,2,2,4,4,5,5,6,6,7,7,8,8,9,9,10,10,11,11,12,12,13,13,14,14,17,17],"right_children":[2,-1,4,-1,6,8,10,12,14,16,18,20,22,24,26,-1,-1,28,-1,-1,-1,-1,-1,-1,-1,-1,-1,-1,-1],"split_conditions":[1E0,-5.6782853E-2,1E0,5.6188315E-2,2.2737134E2,2E0,4.61E2,3.5170975E2,2E0,2.0919676E2,5E0,2.33E2,5.2E1,-9.2479095E1,6E0,4.670608E-2,-3.4204334E-2,4E0,-3.4550389E-3,1.8568184E-2,-3.8862668E-2,-4.566216E-2,1.7330194E-2,5.0932188E-3,-1.8199949E-2,-4.552805E-4,3.0166844E-2,4.9193468E-2,1.697221E-2],"split_indices":[16,0,15,0,0,15,37,3,16,1,9,7,36,3,36,0,0,22,0,0,0,0,0,0,0,0,0,0,0],"split_type":[0,0,0,0,0,0,0,0,0,0,0,0,0,0,0,0,0,0,0,0,0,0,0,0,0,0,0,0,0],"sum_hessian":[6.391572E2,2.0123695E2,4.379203E2,1.6095534E2,2.7696494E2,2.5443387E2,2.253107E1,1.1161936E2,1.4281451E2,2.928332E0,1.960274E1,1.0697928E2,4.640082E0,9.088858E1,5.1925922E1,1.1894152E0,1.7389169E0,1.850194E1,1.100799E0,1.0586347E2,1.1158031E0,3.3585656E0,1.2815163E0,4.31903E1,4.7698284E1,3.1157894E1,2.076803E1,1.6291039E1,2.2109017E0],"tree_param":{"num_deleted":"0","num_feature":"38","num_nodes":"29","size_leaf_vector":"1"}},{"base_weights":[2.2395844E-2,-5.6367755E-2,5.498733E-1,5.6315225E-2,5.8759995E-2,1.5846409E-1,-3.9442092E-1,1.0863968E-1,7.6268786E-1,-5.5937773E-1,4.2029387E-1,1.4415878E-1,-5.7000446E-1,8.868807E-1,-1.809912E-2,1.17998384E-1,-7.0690125E-1,-3.8520996E-2,9.4235116E-1,-3.1800405E-3,1.2493224E-2,-5.03384E-2,5.6011457E-4,2.7120844E-2,5.7998013E-2,-4.3689914E-2,2.6520675E-2,1.3057317E-2,-3.973077E-2,5.992778E-2,-9.999821E-4],"categories":[],"categories_nodes":[],"categories_segments":[],"categories_sizes":[],"default_left":[0,0,0,0,0,0,0,0,0,0,0,0,0,0,0,0,0,0,0,0,0,0,0,0,0,0,0,0,0,0,0],"id":30,"left_children":[1,-1,3,-1,5,7,9,11,13,15,17,19,21,23,-1,25,27,-1,29,-1,-1,-1,-1,-1,-1,-1,-1,-1,-1,-1,-1],"loss_changes":[3.7688608E2,0E0,1.205246E2,0E0,1.0502935E1,5.640402E0,5.873622E0,4.343742E0,2.3206568E0,3.6129084E0,5.472357E0,3.7229385E0,2.2945864E0,6.1082745E-1,0E0,3.3976777E0,2.6823864E0,0E0,1.4436426E0,0E0,0E0,0E0,0E0,0E0,0E0,0E0,0E0,0E0,0E0,0E0,0E0],"parents":[2147483647,0,0,2,2,4,4,5,5,6,6,7,7,8,8,9,9,10,10,11,11,12,12,13,13,15,15,16,16,18,18],"right_children":[2,-1,4,-1,6,8,10,12,14,16,18,20,22,24,-1,26,28,-1,30,-1,-1,-1,-1,-1,-1,-1,-1,-1,-1,-1,-1],"split_conditions":[1E0,-5.6367755E-2,1E0,5.6315225E-2,3E0,5E0,4E0,5.3688525E2,6E0,1E0,-1.8634764E2,-9.842219E1,2E0,1E0,-1.809912E-2,-3.8431863E2,2.5E-1,-3.8520996E-2,2E1,-3.1800405E-3,1.2493224E-2,-5.03384E-2,5.6011457E-4,2.7120844E-2,5.7998013E-2,-4.3689914E-2,2.6520675E-2,1.3057317E-2,-3.973077E-2,5.992778E-2,-9.999821E-4],"split_indices":[16,0,17,0,17,14,16,1,22,23,1,1,26,9,0,1,20,0,36,0,0,0,0,0,0,0,0,0,0,0,0],"split_type":[0,0,0,0,0,0,0,0,0,0,0,0,0,0,0,0,0,0,0,0,0,0,0,0,0,0,0,0,0,0,0],"sum_hessian":[6.194224E2,1.9444667E2,4.2497577E2,1.9491089E2,2.3006487E2,1.8910934E2,4.095552E1,1.7579321E2,1.3316143E1,3.4320076E1,6.635444E0,1.677985E2,7.994715E0,1.2182327E1,1.1338153E0,6.173531E0,2.8146547E1,1.8774952E0,4.7579494E0,5.6718754E1,1.11079735E2,4.1465073E0,3.848208E0,6.707612E0,5.4747157E0,1.484587E0,4.688944E0,2.1741803E0,2.5972366E1,3.5637376E0,1.1942115E0],"tree_param":{"num_deleted":"0","num_feature":"38","num_nodes":"31","size_leaf_vector":"1"}},{"base_weights":[2.1571865E-2,-5.5982735E-2,5.270415E-1,5.5941064E-2,5.1977348E-2,1.3558838E-1,-3.4163356E-1,8.830716E-2,7.4411374E-1,-8.780011E-1,-1.3956945E-1,1.1525467E-1,-8.1261253E-1,9.2364955E-1,-1.99771E-2,6.5163746E-5,-1.0902705E0,4.984647E-1,-4.2641076E-1,2.5635238E-3,1.897333E-2,2.1665213E-3,-5.2267935E-2,4.055047E-3,5.123068E-2,1.3634433E-2,-1.2960302E-2,-1.1963126E-2,-5.862531E-2,3.8102844E-3,7.172396E-2,2.6767781E-2,-3.481573E-2],"categories":[],"categories_nodes":[],"categories_segments":[],"categories_sizes":[],"default_left":[0,0,0,0,0,0,0,0,0,0,0,0,0,0,0,0,0,0,0,0,0,0,0,0,0,0,0,0,0,0,0,0,0],"id":31,"left_children":[1,-1,3,-1,5,7,9,11,13,15,17,19,21,23,-1,25,27,29,31,-1,-1,-1,-1,-1,-1,-1,-1,-1,-1,-1,-1,-1,-1],"loss_changes":[3.518162E2,0E0,1.1876192E2,0E0,7.7963934E0,5.5433083E0,4.379922E0,4.512849E0,3.2272725E0,2.0836535E0,5.952666E0,2.9832313E0,1.1232102E0,9.660835E-1,0E0,2.9519162E-1,3.4949112E-1,3.9175425E0,6.1292896E0,0E0,0E0,0E0,0E0,0E0,0E0,0E0,0E0,0E0,0E0,0E0,0E0,0E0,0E0],"parents":[2147483647,0,0,2,2,4,4,5,5,6,6,7,7,8,8,9,9,10,10,11,11,12,12,13,13,15,15,16,16,17,17,18,18],"right_children":[2,-1,4,-1,6,8,10,12,14,16,18,20,22,24,-1,26,28,30,32,-1,-1,-1,-1,-1,-1,-1,-1,-1,-1,-1,-1,-1,-1],"split_conditions":[1E0,-5.5982735E-2,1E0,5.5941064E-2,3E0,5E0,3.0075037E-1,5E0,1E0,-3.4017685E2,9E0,7.5E1,2E0,2E0,-1.99771E-2,-2.5E1,-7.270093E2,2.9E1,1E0,2.5635238E-3,1.897333E-2,2.1665213E-3,-5.2267935E-2,4.055047E-3,5.123068E-2,1.3634433E-2,-1.2960302E-2,-1.1963126E-2,-5.862531E-2,3.8102844E-3,7.172396E-2,2.6767781E-2,-3.481573E-2],"split_indices":[16,0,17,0,17,14,4,9,20,0,8,8,23,7,0,36,1,7,23,0,0,0,0,0,0,0,0,0,0,0,0,0,0],"split_type":[0,0,0,0,0,0,0,0,0,0,0,0,0,0,0,0,0,0,0,0,0,0,0,0,0,0,0,0,0,0,0,0,0],"sum_hessian":[6.078633E2,1.8621666E2,4.2164664E2,1.8715526E2,2.3449138E2,1.9394832E2,4.054307E1,1.8102792E2,1.2920396E1,1.0178821E1,3.0364252E1,1.7661717E2,4.410747E0,1.1333575E1,1.586821E0,2.1762621E0,8.002559E0,9.188372E0,2.1175882E1,1.4314565E2,3.3471527E1,1.1169395E0,3.2938075E0,1.4057555E0,9.92782E0,1.0355896E0,1.1406726E0,1.0496662E0,6.9528923E0,7.0771227E0,2.1112485E0,4.4248853E0,1.6750996E1],"tree_param":{"num_deleted":"0","num_feature":"38","num_nodes":"33","size_leaf_vector":"1"}},{"base_weights":[1.0453277E-2,-5.5645525E-2,4.9777517E-1,5.56013E-2,2.9326746E-2,-6.1713602E-2,3.4050792E-1,-8.15022E-4,-5.49976E-1,9.2594516E-1,1.5890452E-1,-4.823731E-2,7.2577167E-1,-6.8146074E-1,2.323004E-2,1.0924134E0,-1.7722731E-2,8.287427E-1,-4.37026E-3,-3.6614418E-3,6.8023406E-2,6.582863E-3,6.3346416E-2,-6.0409945E-2,-2.2816783E-2,7.4988054E-3,6.750547E-2,6.550696E-2,1.2341658E-2,-1.5787376E-2,1.4899387E-2],"categories":[],"categories_nodes":[],"categories_segments":[],"categories_sizes":[],"default_left":[0,0,0,0,0,0,0,0,0,0,0,0,0,0,0,0,0,0,0,0,0,0,0,0,0,0,0,0,0,0,0],"id":32,"left_children":[1,-1,3,-1,5,7,9,11,13,15,17,19,21,23,-1,25,-1,27,29,-1,-1,-1,-1,-1,-1,-1,-1,-1,-1,-1,-1],"loss_changes":[3.2278033E2,0E0,1.18291214E2,0E0,6.659326E0,5.415098E0,5.507932E0,5.649146E0,3.0107331E0,3.0272627E0,4.575663E0,5.5174127E0,3.0627766E0,1.6168108E0,0E0,2.51904E0,0E0,1.9731479E0,3.3521729E0,0E0,0E0,0E0,0E0,0E0,0E0,0E0,0E0,0E0,0E0,0E0,0E0],"parents":[2147483647,0,0,2,2,4,4,5,5,6,6,7,7,8,8,9,9,10,10,11,11,12,12,13,13,15,15,17,17,18,18],"right_children":[2,-1,4,-1,6,8,10,12,14,16,18,20,22,24,-1,26,-1,28,30,-1,-1,-1,-1,-1,-1,-1,-1,-1,-1,-1,-1],"split_conditions":[1E0,-5.5645525E-2,1E0,5.56013E-2,6.833687E-1,5E0,0E0,5E0,4E0,5.695399E2,1.8125046E2,3.5774582E2,2.8E1,1E0,2.323004E-2,8E0,-1.7722731E-2,1E0,2E0,-3.6614418E-3,6.8023406E-2,6.582863E-3,6.3346416E-2,-6.0409945E-2,-2.2816783E-2,7.4988054E-3,6.750547E-2,6.550696E-2,1.2341658E-2,-1.5787376E-2,1.4899387E-2],"split_indices":[16,0,17,0,4,15,11,14,9,1,1,1,8,22,0,7,0,22,16,0,0,0,0,0,0,0,0,0,0,0,0],"split_type":[0,0,0,0,0,0,0,0,0,0,0,0,0,0,0,0,0,0,0,0,0,0,0,0,0,0,0,0,0,0,0],"sum_hessian":[5.876061E2,1.7739508E2,4.10211E2,1.7689041E2,2.3332059E2,1.8113014E2,5.2190445E1,1.6193451E2,1.9195631E1,1.1386125E1,4.080432E1,1.5288947E2,9.045058E0,1.7284025E1,1.9116051E0,1.020603E1,1.1800953E0,7.198122E0,3.3606197E1,1.5115585E2,1.7336053E0,4.90421E0,4.140848E0,3.867718E0,1.3416307E1,2.531157E0,7.674873E0,3.2544029E0,3.9437194E0,1.653435E1,1.7071848E1],"tree_param":{"num_deleted":"0","num_feature":"38","num_nodes":"31","size_leaf_vector":"1"}},{"base_weights":[-6.699162E-3,-5.5313617E-2,4.629842E-1,5.5258673E-2,6.865232E-3,-7.561396E-2,4.5426422E-1,-2.990677E-3,-4.7473934E-1,6.602228E-1,-1.8933535E-1,-9.447933E-1,1.8930545E-2,6.2274267E-3,-7.9922247E-1,4.1717705E-1,9.8225E-1,-5.499049E-2,1.5782262E-1,-6.1553236E-2,-2.4527982E-3,3.8630757E-3,-1.7654784E-2,2.7985761E-2,-3.153567E-2,-5.0532617E-2,8.4944576E-4,-1.5309355E-2,3.111569E-2,1.1200233E-2,5.530823E-2,4.053639E-2,-2.0147927E-2],"categories":[],"categories_nodes":[],"categories_segments":[],"categories_sizes":[],"default_left":[0,0,0,0,0,0,0,0,0,0,0,0,0,0,0,0,0,0,0,0,0,0,0,0,0,0,0,0,0,0,0,0,0],"id":33,"left_children":[1,-1,3,-1,5,7,9,11,13,15,17,19,21,23,25,27,29,-1,31,-1,-1,-1,-1,-1,-1,-1,-1,-1,-1,-1,-1,-1,-1],"loss_changes":[3.0184253E2,0E0,1.1995151E2,0E0,8.907775E0,5.9085608E0,5.105452E0,3.6000898E0,4.9026012E0,1.8354692E0,3.2982967E0,9.566827E-1,3.7281985E0,5.159796E0,3.2523842E0,2.874374E0,8.4215546E-1,0E0,3.2673178E0,0E0,0E0,0E0,0E0,0E0,0E0,0E0,0E0,0E0,0E0,0E0,0E0,0E0,0E0],"parents":[2147483647,0,0,2,2,4,4,5,5,6,6,7,7,8,8,9,9,10,10,11,11,12,12,13,13,14,14,15,15,16,16,18,18],"right_children":[2,-1,4,-1,6,8,10,12,14,16,18,20,22,24,26,28,30,-1,32,-1,-1,-1,-1,-1,-1,-1,-1,-1,-1,-1,-1,-1,-1],"split_conditions":[1E0,-5.5313617E-2,1E0,5.5258673E-2,3E0,3E0,5E0,-2E2,1.2E1,3.5E-1,-1.9402515E1,5.0894855E1,1E0,8E0,3.4E1,1E0,1E1,-5.499049E-2,7.79E2,-6.1553236E-2,-2.4527982E-3,3.8630757E-3,-1.7654784E-2,2.7985761E-2,-3.153567E-2,-5.0532617E-2,8.4944576E-4,-1.5309355E-2,3.111569E-2,1.1200233E-2,5.530823E-2,4.053639E-2,-2.0147927E-2],"split_indices":[16,0,17,0,16,17,15,36,8,25,2,0,35,18,36,24,8,0,37,0,0,0,0,0,0,0,0,0,0,0,0,0,0],"split_type":[0,0,0,0,0,0,0,0,0,0,0,0,0,0,0,0,0,0,0,0,0,0,0,0,0,0,0,0,0,0,0,0,0],"sum_hessian":[5.824633E2,1.7392743E2,4.085359E2,1.6907086E2,2.3946504E2,2.028923E2,3.657274E1,1.7251047E2,3.0381832E1,2.7686834E1,8.885904E0,2.966377E0,1.6954408E2,1.2634736E1,1.7747095E1,1.7086496E1,1.0600338E1,1.8544058E0,7.031499E0,1.9642556E0,1.0021214E0,1.4724887E2,2.2295214E1,6.825109E0,5.8096275E0,1.3906546E1,3.8405495E0,3.6661444E0,1.3420353E1,1.8833947E0,8.716943E0,3.0429492E0,3.98855E0],"tree_param":{"num_deleted":"0","num_feature":"38","num_nodes":"33","size_leaf_vector":"1"}},{"base_weights":[-7.4559534E-3,5.494476E-2,-4.5582876E-1,-5.4995168E-2,-5.674837E-3,2.7932292E-1,-8.1113376E-2,-4.237237E-1,5.261736E-1,4.8641305E-2,-2.7948856E-1,2.9335905E-2,-5.860997E-1,2.8874347E-1,9.4927216E-1,-2.8320298E-1,2.1107827E-1,-7.862956E-1,-1.3781334E-1,-6.3679524E-2,-9.543953E-3,4.304006E-3,4.7761656E-2,5.660133E-3,5.546325E-2,-3.461514E-2,2.5460089E-2,1.3019425E-2,-4.4779923E-2,-4.974383E-2,-5.2494695E-3,4.73592E-3,-2.3741191E-2],"categories":[],"categories_nodes":[],"categories_segments":[],"categories_sizes":[],"default_left":[0,0,0,0,0,0,0,0,0,0,0,0,0,0,0,0,0,0,0,0,0,0,0,0,0,0,0,0,0,0,0,0,0],"id":34,"left_children":[1,-1,3,-1,5,7,9,11,13,15,17,-1,19,21,23,25,27,29,31,-1,-1,-1,-1,-1,-1,-1,-1,-1,-1,-1,-1,-1,-1],"loss_changes":[2.804909E2,0E0,1.16650764E2,0E0,5.136127E0,8.901024E0,4.8742003E0,2.5667999E0,3.4885464E0,6.2594543E0,5.263874E0,0E0,3.0644283E0,3.3525553E0,1.6169052E0,1.2743797E1,4.4782085E0,2.1882534E0,4.722349E0,0E0,0E0,0E0,0E0,0E0,0E0,0E0,0E0,0E0,0E0,0E0,0E0,0E0,0E0],"parents":[2147483647,0,0,2,2,4,4,5,5,6,6,7,7,8,8,9,9,10,10,12,12,13,13,14,14,15,15,16,16,17,17,18,18],"right_children":[2,-1,4,-1,6,8,10,12,14,16,18,-1,20,22,24,26,28,30,32,-1,-1,-1,-1,-1,-1,-1,-1,-1,-1,-1,-1,-1,-1],"split_conditions":[1E0,5.494476E-2,1E0,-5.4995168E-2,1E0,2.2E1,3.8E1,-3.0300858E2,5.8219874E-1,1.1E1,1E0,2.9335905E-2,-1.9227097E2,3.5E-1,-6.63E2,2.0835526E2,8.7149763E-1,4.8E1,2E0,-6.3679524E-2,-9.543953E-3,4.304006E-3,4.7761656E-2,5.660133E-3,5.546325E-2,-3.461514E-2,2.5460089E-2,1.3019425E-2,-4.4779923E-2,-4.974383E-2,-5.2494695E-3,4.73592E-3,-2.3741191E-2],"split_indices":[17,0,16,0,23,8,7,0,4,7,24,0,0,25,37,0,4,36,17,0,0,0,0,0,0,0,0,0,0,0,0,0,0],"split_type":[0,0,0,0,0,0,0,0,0,0,0,0,0,0,0,0,0,0,0,0,0,0,0,0,0,0,0,0,0,0,0,0,0],"sum_hessian":[5.6343024E2,1.6207138E2,4.0135883E2,1.6452094E2,2.3683789E2,4.9004E1,1.878339E2,1.2548513E1,3.6455486E1,1.14013756E2,7.382014E1,1.375521E0,1.1172993E1,2.4429075E1,1.2026411E1,3.722432E1,7.678944E1,1.5133591E1,5.8686546E1,3.267193E0,7.905799E0,1.959873E1,4.8303447E0,2.206021E0,9.820391E0,2.463314E1,1.2591179E1,7.424597E1,2.543467E0,1.1234051E1,3.89954E0,3.515152E1,2.3535028E1],"tree_param":{"num_deleted":"0","num_feature":"38","num_nodes":"33","size_leaf_vector":"1"}},{"base_weights":[8.38246E-4,-5.469179E-2,4.3507665E-1,5.4238904E-2,1.3593301E-1,2.3523322E-1,-1.016108E-1,1.9081296E-1,7.652979E-1,-2.3127754E-1,2.5612903E-1,2.1606678E-1,-5.6236833E-1,-1.0166411E-2,9.441116E-1,-4.2836058E-1,2.9340956E-1,-5.008658E-1,4.9882254E-1,7.960621E-4,1.4205686E-2,-3.05674E-3,-5.6180757E-2,2.6899634E-2,5.8546156E-2,-1.3556513E-2,-4.6292987E-2,-2.2016702E-2,3.769271E-2,1.6357489E-2,-4.167705E-2,5.2804537E-2,1.0547985E-2],"categories":[],"categories_nodes":[],"categories_segments":[],"categories_sizes":[],"default_left":[0,0,0,0,0,0,0,0,0,0,0,0,0,0,0,0,0,0,0,0,0,0,0,0,0,0,0,0,0,0,0,0,0],"id":35,"left_children":[1,-1,3,-1,5,7,9,11,13,15,17,19,21,-1,23,25,27,29,31,-1,-1,-1,-1,-1,-1,-1,-1,-1,-1,-1,-1,-1,-1],"loss_changes":[2.6116342E2,0E0,7.6305374E1,0E0,6.4043603E0,4.3524847E0,3.7905521E0,3.4998646E0,2.6931305E0,6.285109E0,4.268483E0,2.3458252E0,1.6303707E0,0E0,5.092459E-1,3.1678114E0,6.0273914E0,1.8729261E0,2.5146694E0,0E0,0E0,0E0,0E0,0E0,0E0,0E0,0E0,0E0,0E0,0E0,0E0,0E0,0E0],"parents":[2147483647,0,0,2,2,4,4,5,5,6,6,7,7,8,8,9,9,10,10,11,11,12,12,14,14,15,15,16,16,17,17,18,18],"right_children":[2,-1,4,-1,6,8,10,12,14,16,18,20,22,-1,24,26,28,30,32,-1,-1,-1,-1,-1,-1,-1,-1,-1,-1,-1,-1,-1,-1],"split_conditions":[1E0,-5.469179E-2,1E0,5.4238904E-2,3E0,3.365E3,4E0,5E0,3.732638E-1,5.7E1,3.405877E-1,-6.685944E1,7.1E1,-1.0166411E-2,3E0,4.1E1,5E-1,1E1,-3.55E2,7.960621E-4,1.4205686E-2,-3.05674E-3,-5.6180757E-2,2.6899634E-2,5.8546156E-2,-1.3556513E-2,-4.6292987E-2,-2.2016702E-2,3.769271E-2,1.6357489E-2,-4.167705E-2,5.2804537E-2,1.0547985E-2],"split_indices":[16,0,15,0,15,37,14,9,4,7,4,0,8,0,7,7,20,18,37,0,0,0,0,0,0,0,0,0,0,0,0,0,0],"split_type":[0,0,0,0,0,0,0,0,0,0,0,0,0,0,0,0,0,0,0,0,0,0,0,0,0,0,0,0,0,0,0,0,0],"sum_hessian":[5.474123E2,1.5504343E2,3.9236884E2,1.22874664E2,2.694942E2,1.900553E2,7.9438896E1,1.7661469E2,1.3440611E1,5.8564907E1,2.0873991E1,1.7157498E2,5.039702E0,2.0731814E0,1.136743E1,4.2706917E1,1.585799E1,4.8093095E0,1.6064682E1,4.3845814E1,1.27729164E2,3.2479644E0,1.7917374E0,5.281889E0,6.085541E0,3.362501E1,9.081908E0,6.131225E0,9.726765E0,1.3831962E0,3.4261131E0,4.5628395E0,1.15018425E1],"tree_param":{"num_deleted":"0","num_feature":"38","num_nodes":"33","size_leaf_vector":"1"}},{"base_weights":[-4.7816476E-3,-5.441753E-2,4.3211251E-1,5.443539E-2,1.0079428E-2,-1.1073232E-1,2.1599104E-1,1.1400456E-2,-3.1090248E-1,2.5100598E-1,-4.59509E-2,-1.5597019E-1,2.3041713E-1,3.200702E-2,-5.5045253E-1,3.9817652E-1,-3.6217354E-2,-1.1446523E-2,4.5333665E-2,2.6678404E-2,-7.22904E-3,-2.3401812E-2,1.5780596E-2,-2.9012475E-3,-3.374682E-2,6.51306E-3,3.0810645E-2,-3.1249795E-2,1.2096169E-2],"categories":[],"categories_nodes":[],"categories_segments":[],"categories_sizes":[],"default_left":[0,0,0,0,0,0,0,0,0,0,0,0,0,0,0,0,0,0,0,0,0,0,0,0,0,0,0,0,0],"id":36,"left_children":[1,-1,3,-1,5,7,9,11,13,15,-1,17,19,21,23,25,27,-1,-1,-1,-1,-1,-1,-1,-1,-1,-1,-1,-1],"loss_changes":[2.5209375E2,0E0,1.0515211E2,0E0,5.7959414E0,3.5946603E0,3.6538773E0,3.4154763E0,4.5928946E0,3.5796547E0,0E0,4.3054233E0,4.66292E0,3.5303187E0,1.9742746E0,3.182294E0,4.9808292E0,0E0,0E0,0E0,0E0,0E0,0E0,0E0,0E0,0E0,0E0,0E0,0E0],"parents":[2147483647,0,0,2,2,4,4,5,5,6,6,7,7,8,8,9,9,11,11,12,12,13,13,14,14,15,15,16,16],"right_children":[2,-1,4,-1,6,8,10,12,14,16,-1,18,20,22,24,26,28,-1,-1,-1,-1,-1,-1,-1,-1,-1,-1,-1,-1],"split_conditions":[1E0,-5.441753E-2,1E0,5.443539E-2,2E0,2E0,1E1,1E0,1.8E1,3.8E1,-4.59509E-2,1.35E2,5.4712933E-1,-1.3798372E2,1E0,2E0,5.6E1,-1.1446523E-2,4.5333665E-2,2.6678404E-2,-7.22904E-3,-2.3401812E-2,1.5780596E-2,-2.9012475E-3,-3.374682E-2,6.51306E-3,3.0810645E-2,-3.1249795E-2,1.2096169E-2],"split_indices":[16,0,17,0,16,17,22,10,8,7,0,36,4,2,24,26,7,0,0,0,0,0,0,0,0,0,0,0,0],"split_type":[0,0,0,0,0,0,0,0,0,0,0,0,0,0,0,0,0,0,0,0,0,0,0,0,0,0,0,0,0],"sum_hessian":[5.305185E2,1.5201222E2,3.7850626E2,1.4747942E2,2.3102682E2,1.4589188E2,8.513494E1,9.119362E1,5.4698257E1,8.334268E1,1.7922643E0,5.1854626E1,3.9338997E1,2.2852255E1,3.1846004E1,5.4851162E1,2.8491518E1,4.925723E1,2.597397E0,2.151957E1,1.7819427E1,8.034958E0,1.4817297E1,6.7219076E0,2.5124096E1,2.5327303E1,2.9523857E1,8.741064E0,1.9750454E1],"tree_param":{"num_deleted":"0","num_feature":"38","num_nodes":"29","size_leaf_vector":"1"}},{"base_weights":[2.1079548E-2,-5.4137986E-2,4.4045198E-1,5.3720515E-2,1.6367675E-1,4.592135E-1,8.7445796E-2,-6.4199036E-1,5.338056E-1,2.3065035E-1,-1.4463335E-1,-4.233026E-2,-2.733334E-3,-2.0287624E-1,5.9463066E-1,7.208065E-1,1.5987138E-1,5.355129E-2,-4.380053E-1,2.2870166E-2,-3.6530983E-2,6.3337164E-4,3.4975383E-2,6.0690947E-2,7.697285E-3,4.6842564E-3,3.7059795E-2,-4.8346226E-3,2.6463998E-2,3.56577E-2,-2.8955445E-2],"categories":[],"categories_nodes":[],"categories_segments":[],"categories_sizes":[],"default_left":[0,0,0,0,0,0,0,0,0,0,0,0,0,0,0,0,0,0,0,0,0,0,0,0,0,0,0,0,0,0,0],"id":37,"left_children":[1,-1,3,-1,5,7,9,11,13,15,17,-1,-1,19,21,23,25,27,29,-1,-1,-1,-1,-1,-1,-1,-1,-1,-1,-1,-1],"loss_changes":[2.389219E2,0E0,6.544506E1,0E0,5.851402E0,4.7279882E0,6.98349E0,4.1529548E-1,2.3855572E0,4.3847113E0,4.698845E0,0E0,0E0,1.937353E0,2.8564491E0,4.3074703E0,4.340911E0,3.5451488E0,5.6969104E0,0E0,0E0,0E0,0E0,0E0,0E0,0E0,0E0,0E0,0E0,0E0,0E0],"parents":[2147483647,0,0,2,2,4,4,5,5,6,6,7,7,8,8,9,9,10,10,13,13,14,14,15,15,16,16,17,17,18,18],"right_children":[2,-1,4,-1,6,8,10,12,14,16,18,-1,-1,20,22,24,26,28,30,-1,-1,-1,-1,-1,-1,-1,-1,-1,-1,-1,-1],"split_conditions":[1E0,-5.4137986E-2,1E0,5.3720515E-2,1E0,8E0,3.9E1,-2.3702539E2,2E-1,2.5E-1,4E0,-4.233026E-2,-2.733334E-3,-2.8922426E1,9.6E-1,5E1,2.6528952E2,3E0,7E0,2.2870166E-2,-3.6530983E-2,6.3337164E-4,3.4975383E-2,6.0690947E-2,7.697285E-3,4.6842564E-3,3.7059795E-2,-4.8346226E-3,2.6463998E-2,3.56577E-2,-2.8955445E-2],"split_indices":[16,0,15,0,23,8,7,1,19,20,18,0,0,0,6,36,0,23,8,0,0,0,0,0,0,0,0,0,0,0,0],"split_type":[0,0,0,0,0,0,0,0,0,0,0,0,0,0,0,0,0,0,0,0,0,0,0,0,0,0,0,0,0,0,0],"sum_hessian":[5.140893E2,1.4110414E2,3.7298514E2,1.12475716E2,2.605094E2,5.2387287E1,2.0812213E2,2.8408659E0,4.954642E1,1.2870859E2,7.941354E1,1.7794642E0,1.0614016E0,3.6007385E0,4.5945683E1,1.5081661E1,1.1362692E2,4.788365E1,3.1529886E1,1.6587272E0,1.9420114E0,7.186807E0,3.8758873E1,7.455839E0,7.6258225E0,1.0305485E2,1.0572072E1,3.69963E1,1.0887354E1,3.000109E0,2.8529778E1],"tree_param":{"num_deleted":"0","num_feature":"38","num_nodes":"31","size_leaf_vector":"1"}},{"base_weights":[1.5938329E-2,5.3978126E-2,-3.8460374E-1,-5.361104E-2,-9.07696E-2,-5.127688E-1,-4.4479523E-2,-1.7879307E-1,-9.011994E-1,-6.38547E-2,8.291361E-1,-5.0302225E-1,5.2647144E-1,-1.0258012E0,1.0606955E-2,6.8733837E-3,-3.7838167E-1,5.1640547E-3,5.017821E-2,-3.4814607E-2,1.6701601E-2,4.154816E-2,-1.6346978E-2,-5.6724858E-2,-5.7753883E-3,-4.2338814E-3,1.5661938E-2,-1.1448064E-2,-4.857132E-2],"categories":[],"categories_nodes":[],"categories_segments":[],"categories_sizes":[],"default_left":[0,0,0,0,0,0,0,0,0,0,0,0,0,0,0,0,0,0,0,0,0,0,0,0,0,0,0,0,0],"id":38,"left_children":[1,-1,3,-1,5,7,9,11,13,15,17,19,21,23,-1,25,27,-1,-1,-1,-1,-1,-1,-1,-1,-1,-1,-1,-1],"loss_changes":[2.1792542E2,0E0,7.4987564E1,0E0,5.084589E0,3.179307E0,4.0595555E0,3.716087E0,1.8347063E0,5.1747637E0,5.556483E-1,1.9880214E0,1.633839E0,9.2321587E-1,0E0,5.3780317E0,3.5615258E0,0E0,0E0,0E0,0E0,0E0,0E0,0E0,0E0,0E0,0E0,0E0,0E0],"parents":[2147483647,0,0,2,2,4,4,5,5,6,6,7,7,8,8,9,9,10,10,11,11,12,12,13,13,15,15,16,16],"right_children":[2,-1,4,-1,6,8,10,12,14,16,18,20,22,24,-1,26,28,-1,-1,-1,-1,-1,-1,-1,-1,-1,-1,-1,-1],"split_conditions":[1E0,5.3978126E-2,1E0,-5.361104E-2,1E0,-2.36E2,9E0,-5.61E2,4E0,4E0,5.5891067E-1,9E-1,2E0,1.13E2,1.0606955E-2,5E0,1E0,5.1640547E-3,5.017821E-2,-3.4814607E-2,1.6701601E-2,4.154816E-2,-1.6346978E-2,-5.6724858E-2,-5.7753883E-3,-4.2338814E-3,1.5661938E-2,-1.1448064E-2,-4.857132E-2],"split_indices":[17,0,14,0,5,37,14,37,15,15,4,5,15,8,0,18,35,0,0,0,0,0,0,0,0,0,0,0,0],"split_type":[0,0,0,0,0,0,0,0,0,0,0,0,0,0,0,0,0,0,0,0,0,0,0,0,0,0,0,0,0],"sum_hessian":[5.095559E2,1.3893202E2,3.706239E2,1.1016704E2,2.6045688E2,2.4749847E1,2.3570702E2,1.409293E1,1.0656918E1,2.314997E2,4.207328E0,9.8509445E0,4.2419853E0,9.654984E0,1.0019335E0,1.8979778E2,4.1701923E1,1.123631E0,3.0836968E0,8.139708E0,1.7112372E0,3.1458642E0,1.0961212E0,8.405059E0,1.2499261E0,1.4668698E2,4.3110786E1,3.441658E1,7.285342E0],"tree_param":{"num_deleted":"0","num_feature":"38","num_nodes":"29","size_leaf_vector":"1"}},{"base_weights":[1.5356969E-3,-5.33759E-2,2.8778914E-1,5.3243607E-2,1.59332E-2,-1.586992E-2,5.848385E-1,2.0031425E-1,-7.5824216E-2,-1.4602025E-1,7.283203E-1,-1.9027181E-1,4.0159526E-1,-5.94286E-1,-3.5856728E-2,2.5509292E-2,-3.9477203E-2,9.2055464E-1,1.2712823E-1,5.8637E-3,-2.9285386E-2,-9.832448E-3,2.6202096E-2,-5.536312E-2,-1.5275109E-3,-1.75624E-4,-3.566036E-2,1.2825862E-2,4.9292196E-2,4.1251816E-2,-2.3994936E-2],"categories":[],"categories_nodes":[],"categories_segments":[],"categories_sizes":[],"default_left":[0,0,0,0,0,0,0,0,0,0,0,0,0,0,0,0,0,0,0,0,0,0,0,0,0,0,0,0,0,0,0],"id":39,"left_children":[1,-1,3,-1,5,7,9,11,13,15,17,19,21,23,25,-1,-1,27,29,-1,-1,-1,-1,-1,-1,-1,-1,-1,-1,-1,-1],"loss_changes":[1.5304243E2,0E0,8.3317566E1,0E0,5.3150916E0,3.6274757E0,1.7372093E0,4.855195E0,4.514973E0,1.8322982E0,1.404665E0,2.6651893E0,3.0650334E0,4.4785423E0,4.4736347E0,0E0,0E0,1.7270565E-1,2.2389548E0,0E0,0E0,0E0,0E0,0E0,0E0,0E0,0E0,0E0,0E0,0E0,0E0],"parents":[2147483647,0,0,2,2,4,4,5,5,6,6,7,7,8,8,9,9,10,10,11,11,12,12,13,13,14,14,17,17,18,18],"right_children":[2,-1,4,-1,6,8,10,12,14,16,18,20,22,24,26,-1,-1,28,30,-1,-1,-1,-1,-1,-1,-1,-1,-1,-1,-1,-1],"split_conditions":[1E0,-5.33759E-2,1E0,5.3243607E-2,2.6528952E2,1E0,-2.1785468E2,-8E2,1.5820576E-1,1E0,9E0,2E0,8.8E-1,1E0,5.695399E2,2.5509292E-2,-3.9477203E-2,2E0,1.4213063E2,5.8637E-3,-2.9285386E-2,-9.832448E-3,2.6202096E-2,-5.536312E-2,-1.5275109E-3,-1.75624E-4,-3.566036E-2,1.2825862E-2,4.9292196E-2,4.1251816E-2,-2.3994936E-2],"split_indices":[14,0,15,0,0,23,1,37,4,19,7,22,6,28,1,0,0,26,1,0,0,0,0,0,0,0,0,0,0,0,0],"split_type":[0,0,0,0,0,0,0,0,0,0,0,0,0,0,0,0,0,0,0,0,0,0,0,0,0,0,0,0,0,0,0],"sum_hessian":[4.9810156E2,1.0462723E2,3.9347433E2,1.0122164E2,2.922527E2,2.7770068E2,1.4552005E1,5.9785183E1,2.179155E2,2.3851223E0,1.21668825E1,2.0350231E1,3.943495E1,1.4603848E1,2.0331166E2,1.2835135E0,1.1016088E0,8.816534E0,3.350349E0,1.1842945E1,8.507285E0,6.5971074E0,3.2837845E1,7.1413565E0,7.462492E0,1.9500513E2,8.306529E0,1.2304933E0,7.5860405E0,1.391443E0,1.9589059E0],"tree_param":{"num_deleted":"0","num_feature":"38","num_nodes":"31","size_leaf_vector":"1"}},{"base_weights":[8.850257E-3,5.3592574E-2,-3.7172115E-1,-5.3157795E-2,-9.712608E-2,-2.7709833E-1,7.104102E-2,-2.4294567E-1,-5.9174716E-2,-7.23178E-1,1.3399945E-1,-4.0909904E-1,-1.2509184E-1,-1.0335364E0,-1.2097054E-2,2.5505814E-1,-3.074034E-1,-2.565003E-2,3.2219674E-2,2.2522194E-2,-1.2912429E-2,-6.335006E-2,-1.1581912E-2,-3.03658E-2,2.8427323E-2,4.020043E-3,2.4484344E-2,2.7405184E-3,-3.0952904E-2],"categories":[],"categories_nodes":[],"categories_segments":[],"categories_sizes":[],"default_left":[0,0,0,0,0,0,0,0,0,0,0,0,0,0,0,0,0,0,0,0,0,0,0,0,0,0,0,0,0],"id":40,"left_children":[1,-1,3,-1,5,7,9,11,-1,13,15,17,19,21,23,25,27,-1,-1,-1,-1,-1,-1,-1,-1,-1,-1,-1,-1],"loss_changes":[1.9779552E2,0E0,6.825742E1,0E0,7.8525457E0,3.5887337E0,6.8266177E0,2.336442E0,0E0,2.2035618E0,6.786997E0,5.8207054E0,5.693441E0,1.0130162E0,1.7494674E0,4.020505E0,3.135416E0,0E0,0E0,0E0,0E0,0E0,0E0,0E0,0E0,0E0,0E0,0E0,0E0],"parents":[2147483647,0,0,2,2,4,4,5,5,6,6,7,7,9,9,10,10,11,11,12,12,13,13,14,14,15,15,16,16],"right_children":[2,-1,4,-1,6,8,10,12,-1,14,16,18,20,22,24,26,28,-1,-1,-1,-1,-1,-1,-1,-1,-1,-1,-1,-1],"split_conditions":[1E0,5.3592574E-2,1E0,-5.3157795E-2,2E0,6E0,9.6E-1,4.137364E-1,-5.9174716E-2,9.605952E1,3E0,2E0,-2.443184E0,5.9E1,6.2E1,2E0,-3.0634117E1,-2.565003E-2,3.2219674E-2,2.2522194E-2,-1.2912429E-2,-6.335006E-2,-1.1581912E-2,-3.03658E-2,2.8427323E-2,4.020043E-3,2.4484344E-2,2.7405184E-3,-3.0952904E-2],"split_indices":[17,0,14,0,14,21,6,4,0,2,17,11,2,7,8,21,0,0,0,0,0,0,0,0,0,0,0,0,0],"split_type":[0,0,0,0,0,0,0,0,0,0,0,0,0,0,0,0,0,0,0,0,0,0,0,0,0,0,0,0,0],"sum_hessian":[4.8694492E2,1.2789521E2,3.590497E2,1.01243996E2,2.578057E2,1.24218956E2,1.3358675E2,1.20930374E2,3.2885768E0,9.041527E0,1.2454523E2,4.9156727E1,7.177365E1,5.978624E0,3.0629027E0,9.807063E1,2.6474588E1,4.521082E1,3.9459074E0,1.3037894E1,5.8735756E1,4.1812825E0,1.7973415E0,1.4897848E0,1.5731179E0,5.699002E1,4.1080616E1,1.2625274E1,1.3849316E1],"tree_param":{"num_deleted":"0","num_feature":"38","num_nodes":"29","size_leaf_vector":"1"}},{"base_weights":[2.4643904E-2,-5.335321E-2,4.055677E-1,5.334992E-2,5.309675E-2,-6.378694E-2,2.4722391E-1,-5.6720173E-1,9.743321E-3,1.5741603E-2,4.6577457E-1,-8.6090815E-1,3.297613E-1,7.800785E-2,-4.1103196E-1,1.997523E-1,-7.609403E-1,6.323778E-1,-6.0028706E-2,-7.442633E-3,-5.7792302E-2,-3.0917583E-2,3.77621E-2,8.059298E-3,-2.1939566E-2,1.7810164E-2,-2.8587451E-2,-5.432418E-3,3.215083E-2,-5.7331767E-2,4.0247917E-2,3.4728315E-2,-2.9103136E-2,2.5387561E-2,-4.950263E-2],"categories":[],"categories_nodes":[],"categories_segments":[],"categories_sizes":[],"default_left":[0,0,0,0,0,0,0,0,0,0,0,0,0,0,0,0,0,0,0,0,0,0,0,0,0,0,0,0,0,0,0,0,0,0,0],"id":41,"left_children":[1,-1,3,-1,5,7,9,11,13,15,17,19,21,23,25,27,29,31,33,-1,-1,-1,-1,-1,-1,-1,-1,-1,-1,-1,-1,-1,-1,-1,-1],"loss_changes":[1.9690834E2,0E0,8.176748E1,0E0,5.2348514E0,5.3493814E0,4.376272E0,5.135445E0,3.6785593E0,6.3138065E0,3.9391832E0,2.7996492E0,2.59123E0,4.8021994E0,2.4084306E0,4.9430947E0,6.036131E0,2.9649553E0,6.643327E0,0E0,0E0,0E0,0E0,0E0,0E0,0E0,0E0,0E0,0E0,0E0,0E0,0E0,0E0,0E0,0E0],"parents":[2147483647,0,0,2,2,4,4,5,5,6,6,7,7,8,8,9,9,10,10,11,11,12,12,13,13,14,14,15,15,16,16,17,17,18,18],"right_children":[2,-1,4,-1,6,8,10,12,14,16,18,20,22,24,26,28,30,32,34,-1,-1,-1,-1,-1,-1,-1,-1,-1,-1,-1,-1,-1,-1,-1,-1],"split_conditions":[1E0,-5.335321E-2,1E0,5.334992E-2,2E0,1.1E1,2E0,2.0835526E2,3E0,1.216E3,3.6E1,-1.4423364E2,3.109E3,3E0,-1.8563841E2,7.038441E1,9.4E1,1.2E1,1.0266547E1,-7.442633E-3,-5.7792302E-2,-3.0917583E-2,3.77621E-2,8.059298E-3,-2.1939566E-2,1.7810164E-2,-2.8587451E-2,-5.432418E-3,3.215083E-2,-5.7331767E-2,4.0247917E-2,3.4728315E-2,-2.9103136E-2,2.5387561E-2,-4.950263E-2],"split_indices":[16,0,17,0,16,7,26,0,17,37,7,1,37,26,0,2,8,22,0,0,0,0,0,0,0,0,0,0,0,0,0,0,0,0,0],"split_type":[0,0,0,0,0,0,0,0,0,0,0,0,0,0,0,0,0,0,0,0,0,0,0,0,0,0,0,0,0,0,0,0,0,0,0],"sum_hessian":[4.714588E2,1.2148571E2,3.4997308E2,1.209593E2,2.290138E2,1.4336522E2,8.5648575E1,1.7415888E1,1.2594933E2,4.2114346E1,4.353423E1,1.3150134E1,4.2657537E0,1.090691E2,1.688023E1,3.464831E1,7.4660306E0,3.290533E1,1.0628898E1,4.292246E0,8.857887E0,1.1809349E0,3.0848186E0,9.454097E1,1.4528131E1,2.7129138E0,1.41673155E1,2.0877623E1,1.3770691E1,6.205344E0,1.2606862E0,3.1709635E1,1.1956947E0,6.8816767E0,3.7472215E0],"tree_param":{"num_deleted":"0","num_feature":"38","num_nodes":"35","size_leaf_vector":"1"}},{"base_weights":[-1.4410311E-3,-5.3149946E-2,3.509859E-1,5.263209E-2,1.032295E-1,-4.2333577E-2,2.599991E-1,3.1317037E-2,-4.3649244E-1,1.687153E-1,5.836162E-1,6.461547E-2,-8.511956E-1,-5.915896E-1,4.2302966E-2,2.7983987E-1,-1.7994156E-1,-3.190201E-1,6.9165224E-1,4.744665E-3,-3.301629E-2,-5.4507375E-2,-1.0804324E-2,-3.500047E-2,1.9591352E-2,1.9945543E-2,-7.5098663E-3,2.0289408E-2,-2.1247525E-2,-4.3695338E-2,2.3185743E-2,3.8071003E-2,-1.1148542E-3],"categories":[],"categories_nodes":[],"categories_segments":[],"categories_sizes":[],"default_left":[0,0,0,0,0,0,0,0,0,0,0,0,0,0,0,0,0,0,0,0,0,0,0,0,0,0,0,0,0,0,0,0,0],"id":42,"left_children":[1,-1,3,-1,5,7,9,11,13,15,17,19,21,23,-1,25,27,29,31,-1,-1,-1,-1,-1,-1,-1,-1,-1,-1,-1,-1,-1,-1],"loss_changes":[1.755441E2,0E0,6.1129925E1,0E0,5.977295E0,3.9742763E0,3.6242952E0,3.4604309E0,4.7865148E0,3.9131913E0,2.8847752E0,2.5342112E0,4.1458774E-1,2.3864956E0,0E0,3.9512548E0,3.7178714E0,1.9708586E0,1.2480392E0,0E0,0E0,0E0,0E0,0E0,0E0,0E0,0E0,0E0,0E0,0E0,0E0,0E0,0E0],"parents":[2147483647,0,0,2,2,4,4,5,5,6,6,7,7,8,8,9,9,10,10,11,11,12,12,13,13,15,15,16,16,17,17,18,18],"right_children":[2,-1,4,-1,6,8,10,12,14,16,18,20,22,24,-1,26,28,30,32,-1,-1,-1,-1,-1,-1,-1,-1,-1,-1,-1,-1,-1,-1],"split_conditions":[1E0,-5.3149946E-2,1E0,5.263209E-2,1.0266547E1,3E0,1E0,4.3403187E0,-2.7183487E0,3E0,9E-1,7E0,-5E0,9E0,4.2302966E-2,6.666667E-1,-3.446545E1,5E-1,4E0,4.744665E-3,-3.301629E-2,-5.4507375E-2,-1.0804324E-2,-3.500047E-2,1.9591352E-2,1.9945543E-2,-7.5098663E-3,2.0289408E-2,-2.1247525E-2,-4.3695338E-2,2.3185743E-2,3.8071003E-2,-1.1148542E-3],"split_indices":[16,0,15,0,0,10,32,0,0,15,5,15,36,18,0,20,1,20,9,0,0,0,0,0,0,0,0,0,0,0,0,0,0],"split_type":[0,0,0,0,0,0,0,0,0,0,0,0,0,0,0,0,0,0,0,0,0,0,0,0,0,0,0,0,0,0,0,0,0],"sum_hessian":[4.6721942E2,1.15949005E2,3.512704E2,9.081893E1,2.6045148E2,1.354313E2,1.2502016E2,1.14885E2,2.0546307E1,9.870066E1,2.63195E1,1.1160092E2,3.2840772E0,1.8810339E1,1.7359681E0,7.499537E1,2.370529E1,2.6046739E0,2.3714827E1,1.0796094E2,3.6399844E0,1.865669E0,1.418408E0,1.7202036E1,1.6083028E0,5.8789738E1,1.6205631E1,6.79784E0,1.690745E1,1.4560151E0,1.1486586E0,2.1543121E1,2.1717055E0],"tree_param":{"num_deleted":"0","num_feature":"38","num_nodes":"33","size_leaf_vector":"1"}},{"base_weights":[-2.922424E-2,5.2990265E-2,-3.8235858E-1,-5.2944064E-2,-5.422413E-2,2.6646453E-1,-1.3916576E-1,-2.0051335E-1,5.185539E-1,-1.958036E-1,3.178044E-1,1.6748208E-1,-6.6686624E-1,2.890937E-1,8.6693215E-1,-2.263712E-1,5.2101016E-1,4.7783276E-1,-3.530402E-2,-2.6291726E-2,2.218896E-2,5.551254E-3,-4.024188E-2,-2.2077704E-2,2.545466E-2,5.479777E-2,4.623167E-3,1.2939678E-3,-1.6041255E-2,-1.360973E-2,4.1637193E-2,3.941466E-2,1.5107422E-3],"categories":[],"categories_nodes":[],"categories_segments":[],"categories_sizes":[],"default_left":[0,0,0,0,0,0,0,0,0,0,0,0,0,0,0,0,0,0,0,0,0,0,0,0,0,0,0,0,0,0,0,0,0],"id":43,"left_children":[1,-1,3,-1,5,7,9,11,13,15,17,19,21,23,25,27,29,31,-1,-1,-1,-1,-1,-1,-1,-1,-1,-1,-1,-1,-1,-1,-1],"loss_changes":[1.755177E2,0E0,7.6435974E1,0E0,6.386394E0,5.890338E0,4.8486996E0,3.192758E0,2.3234272E0,3.7368279E0,3.7413726E0,2.3087564E0,9.607618E-1,3.5865183E0,2.0779247E0,3.799097E0,1.9718657E0,2.5558662E0,0E0,0E0,0E0,0E0,0E0,0E0,0E0,0E0,0E0,0E0,0E0,0E0,0E0,0E0,0E0],"parents":[2147483647,0,0,2,2,4,4,5,5,6,6,7,7,8,8,9,9,10,10,11,11,12,12,13,13,14,14,15,15,16,16,17,17],"right_children":[2,-1,4,-1,6,8,10,12,14,16,18,20,22,24,26,28,30,32,-1,-1,-1,-1,-1,-1,-1,-1,-1,-1,-1,-1,-1,-1,-1],"split_conditions":[1E0,5.2990265E-2,1E0,-5.2944064E-2,1E0,-6.97E2,5E0,2E0,4E0,1.28E2,6E0,-2.4614531E2,-2.9241043E2,5.2E1,3E0,-1.74009E2,3E0,3E0,-3.530402E-2,-2.6291726E-2,2.218896E-2,5.551254E-3,-4.024188E-2,-2.2077704E-2,2.545466E-2,5.479777E-2,4.623167E-3,1.2939678E-3,-1.6041255E-2,-1.360973E-2,4.1637193E-2,3.941466E-2,1.5107422E-3],"split_indices":[17,0,16,0,23,37,14,22,18,36,22,1,0,7,21,3,23,17,0,0,0,0,0,0,0,0,0,0,0,0,0,0,0],"split_type":[0,0,0,0,0,0,0,0,0,0,0,0,0,0,0,0,0,0,0,0,0,0,0,0,0,0,0,0,0,0,0,0,0],"sum_hessian":[4.5434177E2,1.1076204E2,3.435797E2,1.11490364E2,2.3208936E2,4.8153522E1,1.8393584E2,1.6953308E1,3.1200212E1,1.641609E2,1.977493E1,9.834136E0,7.1191716E0,1.9913778E1,1.1286434E1,1.58103E2,6.0578995E0,1.7563198E1,2.211731E0,2.5449371E0,7.289199E0,1.1018987E0,6.017273E0,4.3754053E0,1.5538373E1,8.390206E0,2.896228E0,4.3270332E1,1.1483267E2,1.7448851E0,4.3130145E0,9.9210415E0,7.642156E0],"tree_param":{"num_deleted":"0","num_feature":"38","num_nodes":"33","size_leaf_vector":"1"}},{"base_weights":[1.4134258E-3,-5.2756686E-2,3.3534873E-1,5.2788865E-2,5.9277243E-3,-3.5459224E-2,5.746892E-1,-3.7258506E-1,1.9398486E-2,7.533914E-2,9.831907E-1,3.9873257E-1,-4.9454686E-1,2.633759E-1,-1.350151E-1,4.8537217E-2,-3.1039912E-1,1.0553938E0,1.2104842E-2,-7.580371E-3,4.0336855E-2,2.6875583E-2,-2.9658023E-2,1.6085988E-2,-6.0025822E-2,-2.5977394E-2,2.7362022E-3,-3.121363E-2,2.5119657E-2,5.679059E-2,1.355955E-2],"categories":[],"categories_nodes":[],"categories_segments":[],"categories_sizes":[],"default_left":[0,0,0,0,0,0,0,0,0,0,0,0,0,0,0,0,0,0,0,0,0,0,0,0,0,0,0,0,0,0,0],"id":44,"left_children":[1,-1,3,-1,5,7,9,11,13,15,17,19,21,23,25,-1,27,29,-1,-1,-1,-1,-1,-1,-1,-1,-1,-1,-1,-1,-1],"loss_changes":[1.5754684E2,0E0,